{"data":{"SaveState":{"type":"GRU","options":{"inputSize":39,"inputRange":39,"hiddenLayers":[20,20],"outputSize":39,"decayRate":0.999,"smoothEps":1e-8,"regc":0.000001,"clipval":5,"maxPredictionLength":100,"dataFormatter":{"values":["#000000","#000080","#00008B","#0000CD","#0000FF","#006400","#008000","#008080","#008B8B","#00BFFF","#00CED1","#00FA9A","#00FF00","#00FF7F","#00FFFF","#191970","#1E90FF","#20B2AA","#228B22","#2E8B57","#2F4F4F","#32CD32","#3CB371","#40E0D0","#4169E1","#4682B4","#483D8B","#48D1CC","#556B2F","#5F9EA0","#6495ED","#663399","#66CDAA","#696969","#6A5ACD","#6B8E23","#708090","#778899","#7B68EE","#7CFC00","#7FFF00","#7FFFD4","#800000","#800080","#808000","#808080","#87CEEB","#87CEFA","#8A2BE2","#8B0000","#8B008B","#8B4513","#8FBC8F","#90EE90","#9370DB","#9400D3","#98FB98","#9932CC","#9ACD32","#A0522D","#A52A2A","#A9A9A9","#ADD8E6","#ADFF2F","#AFEEEE","#B0C4DE","#B0E0E6","#B22222","#B8860B","#BA55D3","#BC8F8F","#BDB76B","#C0C0C0","#C71585","#CD5C5C","#CD853F","#D2691E","#D2B48C","#D3D3D3","#D8BFD8","#DA70D6","#DAA520","#DB7093","#DC143C","#DCDCDC","#DDA0DD","#DEB887","#E0FFFF","#E6E6FA","#E9967A","#EE82EE","#EEE8AA","#F08080","#F0E68C","#F0F8FF","#F0FFF0","#F0FFFF","#F4A460","#F5DEB3","#F5F5DC","#F5F5F5","#F5FFFA","#F8F8FF","#FA8072","#FAEBD7","#FAF0E6","#FAFAD2","#FDF5E6","#FF0000","#FF00FF","#FF1493","#FF4500","#FF6347","#FF69B4","#FF7F50","#FF8C00","#FFA07A","#FFA500","#FFB6C1","#FFC0CB","#FFD700","#FFDAB9","#FFDEAD","#FFE4B5","#FFE4C4","#FFE4E1","#FFEBCD","#FFEFD5","#FFF0F5","#FFF5EE","#FFF8DC","#FFFACD","#FFFAF0","#FFFAFA","#FFFF00","#FFFFE0","#FFFFF0","#FFFFFF","ALICE","ALMOND","ANTIQUE","AQUA","AQUAMARINE","AZURE","BEIGE","BISQUE","BLACK","BLANCHED","BLUE","BLUSH","BRICK","BROWN","BURLY","CADET","CHARTREUSE","CHIFFON","CHOCOLATE","CORAL","CORNFLOWER","CORNSILK","CREAM","CRIMSON","CYAN","DARK","DEEP","DEW","DIM","DODGER","DRAB","FIRE","FLORAL","FOREST","FUCHSIA","GAINSBORO","GHOST","GOLD","GOLDEN","GRAY","GREEN","GREY","HONEY","HOT","INDIGO","IVORY","KHAKI","LACE","LAVENDER","LAWN","LEMON","LIGHT","LIME","LINEN","MAGENTA","MARINE","MAROON","MEDIUM","MIDNIGHT","MINT","MISTY","MOCCASIN","NAVAJO","NAVY","OLD","OLIVE","ORANGE","ORCHID","PALE","PAPAYA","PEACH","PERU","PINK","PLUM","POWDER","PUFF","PURPLE","REBECCA","RED","ROD","ROSE","ROSY","ROYAL","SADDLE","SALMON","SANDY","SEA","SHELL","SIENNA","SILVER","SKY","SLATE","SMOKE","SNOW","SPRING","STEEL","TAN","TEAL","THISTLE","TOMATO","TURQUOISE","VIOLET","WHEAT","WHIP","WHITE","WOOD","YELLOW"],"indexTable":{"0":1,"1":10,"2":14,"3":16,"4":8,"5":15,"6":7,"7":13,"8":2,"9":12,"#":0,"B":3,"C":4,"D":5,"F":6,"E":9,"A":11,"L":17,"I":18,"M":19,"O":20,"N":21,"T":22,"Q":23,"U":24,"R":25,"Z":26,"G":27,"S":28,"K":29,"H":30,"W":31,"Y":32,"P":33,"V":34,"J":35,"stop-input":36,"start-output":37,"unrecognized":38},"characterTable":{"0":"#","1":"0","2":"8","3":"B","4":"C","5":"D","6":"F","7":"6","8":"4","9":"E","10":"1","11":"A","12":"9","13":"7","14":"2","15":"5","16":"3","17":"L","18":"I","19":"M","20":"O","21":"N","22":"T","23":"Q","24":"U","25":"R","26":"Z","27":"G","28":"S","29":"K","30":"H","31":"W","32":"Y","33":"P","34":"V","35":"J","36":null,"37":null,"38":null},"characters":["#","0","8","B","C","D","F","6","4","E","1","A","9","7","2","5","3","L","I","M","O","N","T","Q","U","R","Z","G","S","K","H","W","Y","P","V","J","stop-input","start-output","unrecognized"],"specialIndexes":[36,37,38]}},"input":{"rows":40,"columns":39,"weights":{"0":1.5446110963821411,"1":0.9171745777130127,"2":-0.6661101579666138,"3":2.238922357559204,"4":-0.6070680022239685,"5":1.855046033859253,"6":0.23892910778522491,"7":3.522808313369751,"8":1.4396038055419922,"9":-0.3920481204986572,"10":-5.585654258728027,"11":-0.430381715297699,"12":4.298637390136719,"13":2.1282033920288086,"14":0.14701500535011292,"15":-2.7398266792297363,"16":-3.7185916900634766,"17":1.379848599433899,"18":-1.4164258241653442,"19":1.0719516277313232,"20":5.534966468811035,"21":0.6090410947799683,"22":5.240061283111572,"23":-0.9398087859153748,"24":-2.6932532787323,"25":3.112328290939331,"26":-2.0358388423919678,"27":-2.2001113891601562,"28":0.31025081872940063,"29":3.2142486572265625,"30":-0.966457188129425,"31":0.0811142548918724,"32":0.2746887505054474,"33":-1.7798852920532227,"34":0.958393394947052,"35":-3.0450756549835205,"36":2.2746334075927734,"37":4.639556407928467,"38":-0.03565576300024986,"39":-0.8794679641723633,"40":3.137909173965454,"41":0.7011461853981018,"42":0.9261514544487,"43":2.6776275634765625,"44":-0.18637312948703766,"45":1.667285442352295,"46":0.4182944595813751,"47":-2.4907467365264893,"48":-2.378246307373047,"49":-0.30390095710754395,"50":-0.18398410081863403,"51":-1.7053028345108032,"52":-0.6051850914955139,"53":-1.8772499561309814,"54":-2.057854413986206,"55":-2.2832446098327637,"56":-1.0528429746627808,"57":-1.5096713304519653,"58":2.0621354579925537,"59":-0.14100705087184906,"60":-3.3666791915893555,"61":0.11923134326934814,"62":-0.023302316665649414,"63":0.5242910385131836,"64":-1.2903772592544556,"65":1.1730331182479858,"66":-0.5151732563972473,"67":-1.355962872505188,"68":2.920774221420288,"69":-2.0921413898468018,"70":0.04860826954245567,"71":0.29600265622138977,"72":-2.2191848754882812,"73":-0.24974077939987183,"74":-0.20439203083515167,"75":2.134120464324951,"76":1.011816382408142,"77":-1.1184866428375244,"78":-0.6915349960327148,"79":3.1009232997894287,"80":-5.437164783477783,"81":4.906793594360352,"82":6.133094310760498,"83":-5.389606952667236,"84":5.311618804931641,"85":0.2200339436531067,"86":2.5919628143310547,"87":-8.503952980041504,"88":-2.767876625061035,"89":1.5987474918365479,"90":1.8998606204986572,"91":2.4663970470428467,"92":-3.1887881755828857,"93":-1.087749719619751,"94":0.11342573910951614,"95":2.626007318496704,"96":-3.483771324157715,"97":-0.9126113057136536,"98":-3.7447497844696045,"99":-4.160545825958252,"100":-0.9299036264419556,"101":1.2853832244873047,"102":-6.924501419067383,"103":1.82388174533844,"104":-2.78708553314209,"105":-0.25060662627220154,"106":-2.1266696453094482,"107":2.9220638275146484,"108":-0.9801808595657349,"109":-0.22200405597686768,"110":2.4871506690979004,"111":-10.640069007873535,"112":-4.011822700500488,"113":-0.039961837232112885,"114":-1.3044896125793457,"115":2.1721112728118896,"116":-0.9403570890426636,"117":-9.167837142944336,"118":-6.174252986907959,"119":0.26151251792907715,"120":2.614487648010254,"121":6.030055999755859,"122":-4.770634651184082,"123":3.7712228298187256,"124":-5.486134052276611,"125":-11.243480682373047,"126":1.0998916625976562,"127":-6.027838706970215,"128":-7.714389324188232,"129":-6.311278820037842,"130":-7.172396183013916,"131":-0.5949746966362,"132":-10.995552062988281,"133":-1.4763256311416626,"134":-3.570430040359497,"135":1.0572823286056519,"136":7.278295516967773,"137":-12.607794761657715,"138":8.538995742797852,"139":-7.342350959777832,"140":5.9661431312561035,"141":2.1485795974731445,"142":9.798961639404297,"143":-7.797191143035889,"144":-1.6050310134887695,"145":4.237326622009277,"146":-14.173768043518066,"147":-7.276767730712891,"148":-8.21669864654541,"149":-12.689906120300293,"150":8.5723295211792,"151":-4.94027042388916,"152":11.778702735900879,"153":21.57667350769043,"154":-18.339872360229492,"155":-0.9716410040855408,"156":1.8264683485031128,"157":9.92005443572998,"158":1.4329079389572144,"159":-5.499195575714111,"160":2.0976223945617676,"161":0.5482954978942871,"162":0.714038074016571,"163":1.3237086534500122,"164":3.9172887802124023,"165":-2.649176836013794,"166":1.8103818893432617,"167":0.1492985635995865,"168":0.8032048940658569,"169":-5.406510829925537,"170":0.8140513300895691,"171":-0.16200627386569977,"172":2.6021127700805664,"173":1.5364288091659546,"174":-1.752680778503418,"175":1.4178146123886108,"176":0.16224128007888794,"177":-0.5103064775466919,"178":2.5775609016418457,"179":2.853893280029297,"180":8.517671585083008,"181":-3.3550539016723633,"182":5.564967632293701,"183":-3.7620809078216553,"184":-0.4260326027870178,"185":-0.3786420524120331,"186":-3.4388957023620605,"187":1.6318939924240112,"188":0.23141948878765106,"189":-6.694692611694336,"190":-2.897444486618042,"191":2.4878203868865967,"192":-5.616990089416504,"193":7.204991817474365,"194":-6.667593479156494,"195":3.9229071140289307,"196":-8.627574920654297,"197":-5.792492866516113,"198":5.042812347412109,"199":-2.226789951324463,"200":-2.3283004760742188,"201":-5.7095627784729,"202":-0.47625476121902466,"203":-4.804340839385986,"204":-0.9527797698974609,"205":-3.6922686100006104,"206":-0.8317779302597046,"207":3.9975764751434326,"208":2.4299051761627197,"209":1.9610700607299805,"210":1.0443167686462402,"211":4.371668815612793,"212":0.5100208520889282,"213":-3.563124418258667,"214":0.38765326142311096,"215":4.225579261779785,"216":0.46904730796813965,"217":-0.07725249975919724,"218":4.831751823425293,"219":0.3548531234264374,"220":1.189609408378601,"221":8.460232734680176,"222":2.8218212127685547,"223":6.436309814453125,"224":7.712812423706055,"225":3.4933619499206543,"226":2.8514564037323,"227":0.21639463305473328,"228":1.4750826358795166,"229":-0.5738312602043152,"230":-0.7129090428352356,"231":-0.8822618722915649,"232":1.757558822631836,"233":-0.35450488328933716,"234":1.6471521854400635,"235":1.0386545658111572,"236":3.1350088119506836,"237":0.07351778447628021,"238":1.3986119031906128,"239":2.1587040424346924,"240":-0.03868227079510689,"241":1.7106764316558838,"242":-0.7331227660179138,"243":-1.4780223369598389,"244":-1.330754280090332,"245":-0.5294498205184937,"246":-0.7534828782081604,"247":3.672588348388672,"248":0.913530170917511,"249":-0.7380393147468567,"250":1.2578051090240479,"251":-1.2318648099899292,"252":0.4178142249584198,"253":6.184010028839111,"254":-0.8212254643440247,"255":-0.21608731150627136,"256":-0.39951810240745544,"257":-0.5170356035232544,"258":-1.5332659482955933,"259":5.21038293838501,"260":-0.9593543410301208,"261":-3.982447862625122,"262":-1.4506179094314575,"263":-1.5539339780807495,"264":-2.1196131706237793,"265":0.004193858243525028,"266":-1.6871055364608765,"267":-1.1740278005599976,"268":-0.3964211940765381,"269":1.617742896080017,"270":-0.8868297934532166,"271":-1.736621379852295,"272":-1.3910479545593262,"273":-2.562108278274536,"274":0.23778745532035828,"275":-3.830944776535034,"276":-0.025536678731441498,"277":0.7066057324409485,"278":1.626991629600525,"279":-1.2246617078781128,"280":1.346731424331665,"281":2.1748623847961426,"282":0.9523914456367493,"283":-3.8391878604888916,"284":1.5477815866470337,"285":-0.6763978004455566,"286":-3.555727481842041,"287":-0.17816828191280365,"288":-3.993776321411133,"289":-2.737994432449341,"290":-0.5295164585113525,"291":4.882044315338135,"292":0.49663469195365906,"293":2.7725892066955566,"294":-8.886460304260254,"295":-0.38724803924560547,"296":2.707063674926758,"297":-1.9700584411621094,"298":-4.0169243812561035,"299":1.184454321861267,"300":1.3916633129119873,"301":0.09605661779642105,"302":4.2185516357421875,"303":-0.19584792852401733,"304":-0.6231127977371216,"305":7.040382385253906,"306":-1.8630907535552979,"307":-0.2756599485874176,"308":-2.4267046451568604,"309":2.712069034576416,"310":1.4695956707000732,"311":-1.2155179977416992,"312":-1.0350311994552612,"313":-3.6663742065429688,"314":20.554136276245117,"315":25.724821090698242,"316":7.2416815757751465,"317":4.831018924713135,"318":16.72187614440918,"319":-1.5241978168487549,"320":16.198467254638672,"321":9.443359375,"322":-3.1449928283691406,"323":10.607598304748535,"324":-1.0002135038375854,"325":23.817874908447266,"326":-12.024625778198242,"327":-7.5638532638549805,"328":6.619384765625,"329":22.518518447875977,"330":-14.14622688293457,"331":24.11741065979004,"332":-28.212337493896484,"333":9.054771423339844,"334":-24.288949966430664,"335":4.894824504852295,"336":-10.939746856689453,"337":6.276800155639648,"338":1.8269143104553223,"339":-2.592397451400757,"340":7.025442600250244,"341":-17.177690505981445,"342":-3.432875633239746,"343":2.0816049575805664,"344":-10.568717002868652,"345":-6.16562032699585,"346":-6.769535064697266,"347":-15.028465270996094,"348":0.577195942401886,"349":7.389850616455078,"350":-2.3129987716674805,"351":-5.029408931732178,"352":7.156846523284912,"353":-8.248933792114258,"354":-3.1644978523254395,"355":-10.529546737670898,"356":-4.874720573425293,"357":8.624589920043945,"358":-6.810401439666748,"359":9.574566841125488,"360":2.4944374561309814,"361":12.141410827636719,"362":6.557315349578857,"363":3.0639443397521973,"364":11.046195030212402,"365":-4.120002746582031,"366":0.17428816854953766,"367":17.10892677307129,"368":-9.625314712524414,"369":8.0232515335083,"370":6.566141128540039,"371":-13.715466499328613,"372":15.249933242797852,"373":0.4372338652610779,"374":8.424829483032227,"375":13.242121696472168,"376":18.006650924682617,"377":1.7631306648254395,"378":3.3757355213165283,"379":18.155502319335938,"380":-38.17728042602539,"381":6.584993362426758,"382":-12.37059497833252,"383":-15.487545013427734,"384":2.778137445449829,"385":-2.117863893508911,"386":4.434353351593018,"387":-7.088198184967041,"388":24.667192459106445,"389":-1.421093463897705,"390":2.094212055206299,"391":0.2087942510843277,"392":0.3463435173034668,"393":2.1465706825256348,"394":0.15547123551368713,"395":0.5811349749565125,"396":-0.06965473294258118,"397":-1.3664580583572388,"398":1.1493191719055176,"399":3.7489383220672607,"400":-0.6351861357688904,"401":-0.09442826360464096,"402":2.0609803199768066,"403":-0.5830081105232239,"404":1.6946189403533936,"405":0.6355921626091003,"406":0.3557121157646179,"407":-0.8824111223220825,"408":0.3503304123878479,"409":3.0962917804718018,"410":0.2713962197303772,"411":1.387459397315979,"412":-0.6743332743644714,"413":0.29674434661865234,"414":-1.716174602508545,"415":0.9286268353462219,"416":1.990853190422058,"417":1.6736903190612793,"418":-0.633825957775116,"419":2.1032299995422363,"420":-2.457123279571533,"421":-0.4008452296257019,"422":-0.26216015219688416,"423":-2.0506856441497803,"424":-0.038519006222486496,"425":3.0916192531585693,"426":0.6193705797195435,"427":1.0869206190109253,"428":-0.5928347706794739,"429":26.939268112182617,"430":-13.403963088989258,"431":-6.57018518447876,"432":19.661714553833008,"433":7.9769206047058105,"434":-17.370590209960938,"435":8.007436752319336,"436":-12.506017684936523,"437":-14.555339813232422,"438":-24.64983558654785,"439":-26.63158416748047,"440":20.154273986816406,"441":-6.5011444091796875,"442":11.107771873474121,"443":22.98276138305664,"444":3.2089641094207764,"445":-16.203418731689453,"446":-6.290639877319336,"447":-36.48268127441406,"448":4.0440473556518555,"449":-8.330328941345215,"450":-2.3166279792785645,"451":-13.091521263122559,"452":-4.374218940734863,"453":-33.491943359375,"454":-9.77846908569336,"455":-12.056920051574707,"456":12.360334396362305,"457":41.271385192871094,"458":5.894059181213379,"459":15.494763374328613,"460":16.02820587158203,"461":29.63223648071289,"462":-0.2721359133720398,"463":30.153766632080078,"464":-7.648706912994385,"465":29.7125244140625,"466":13.031586647033691,"467":-11.81071949005127,"468":0.6579060554504395,"469":0.20878757536411285,"470":-0.27005061507225037,"471":1.6430054903030396,"472":-0.5741497278213501,"473":-0.23364275693893433,"474":0.4483056962490082,"475":0.34617310762405396,"476":0.34976714849472046,"477":0.6663020849227905,"478":-1.5523009300231934,"479":-0.45106667280197144,"480":1.2898211479187012,"481":0.5988477468490601,"482":-0.9342414736747742,"483":1.020823359489441,"484":-0.6560769081115723,"485":-0.10311106592416763,"486":0.27160152792930603,"487":0.4706113934516907,"488":-0.33767035603523254,"489":0.170798197388649,"490":-0.5398573875427246,"491":0.20392350852489471,"492":-0.2489505559206009,"493":1.3396962881088257,"494":-0.12254934757947922,"495":-0.8875657916069031,"496":1.416117787361145,"497":1.9708260297775269,"498":-1.1993852853775024,"499":-1.045441746711731,"500":0.8419903516769409,"501":-2.297468662261963,"502":-0.5361155271530151,"503":-0.24681416153907776,"504":1.7366293668746948,"505":1.0520991086959839,"506":0.332660973072052,"507":4.484677791595459,"508":-4.417098522186279,"509":-18.79334831237793,"510":16.636241912841797,"511":13.226972579956055,"512":8.042763710021973,"513":4.433294296264648,"514":-10.425226211547852,"515":-2.1527955532073975,"516":6.682433128356934,"517":-9.74653434753418,"518":14.486084938049316,"519":10.425630569458008,"520":-24.82198143005371,"521":-9.83561897277832,"522":11.521628379821777,"523":-19.010313034057617,"524":-2.178927421569824,"525":-7.8284525871276855,"526":-15.129293441772461,"527":-0.22884109616279602,"528":-23.087190628051758,"529":-17.83468246459961,"530":-7.787981033325195,"531":-9.725616455078125,"532":4.525077819824219,"533":2.444432020187378,"534":-5.869165897369385,"535":14.36157512664795,"536":5.416731834411621,"537":0.9105491042137146,"538":18.362197875976562,"539":2.613461494445801,"540":-18.279586791992188,"541":15.380569458007812,"542":2.230721950531006,"543":9.790719032287598,"544":-7.1097612380981445,"545":-4.536613464355469,"546":1.7234033346176147,"547":-8.303051948547363,"548":2.619149684906006,"549":3.1372671127319336,"550":9.610599517822266,"551":-14.169289588928223,"552":0.11869540810585022,"553":-11.94288444519043,"554":8.441290855407715,"555":-2.8089776039123535,"556":-14.574470520019531,"557":3.501225471496582,"558":-1.0829209089279175,"559":7.310202598571777,"560":-10.563804626464844,"561":-30.130714416503906,"562":4.09834098815918,"563":-10.635021209716797,"564":-0.5292486548423767,"565":5.860093593597412,"566":8.265766143798828,"567":-17.649721145629883,"568":-4.4055256843566895,"569":8.118034362792969,"570":-11.763986587524414,"571":-28.050418853759766,"572":-10.637829780578613,"573":-19.455678939819336,"574":-25.740554809570312,"575":0.09403935074806213,"576":11.479705810546875,"577":-12.237363815307617,"578":6.167236804962158,"579":19.373180389404297,"580":8.148859977722168,"581":-1.0590170621871948,"582":6.566732406616211,"583":-12.400825500488281,"584":9.461640357971191,"585":-25.259246826171875,"586":-0.7727631330490112,"587":-6.571709632873535,"588":11.487669944763184,"589":-18.548158645629883,"590":12.153250694274902,"591":7.113688945770264,"592":-40.96022033691406,"593":29.36492919921875,"594":29.279680252075195,"595":6.589953422546387,"596":-6.047823429107666,"597":-20.411287307739258,"598":-10.97227954864502,"599":-21.544776916503906,"600":4.513725757598877,"601":14.68990421295166,"602":10.004697799682617,"603":16.071352005004883,"604":-9.763816833496094,"605":-1.6011468172073364,"606":-1.1348440647125244,"607":-22.6668643951416,"608":-17.00523567199707,"609":15.814382553100586,"610":-18.228551864624023,"611":11.99654483795166,"612":-8.935643196105957,"613":-3.0228116512298584,"614":0.658634603023529,"615":-0.29749467968940735,"616":-7.792553424835205,"617":4.156928062438965,"618":21.58839225769043,"619":-11.74191951751709,"620":17.043489456176758,"621":-8.474464416503906,"622":-1.8983606100082397,"623":20.738544464111328,"624":-14.578089714050293,"625":-14.337929725646973,"626":-1.9884496927261353,"627":-17.150468826293945,"628":-10.22063159942627,"629":-9.395831108093262,"630":-5.713012218475342,"631":-4.52712869644165,"632":11.171123504638672,"633":4.490971088409424,"634":14.881802558898926,"635":5.315280914306641,"636":4.088116645812988,"637":-7.3053297996521,"638":30.894567489624023,"639":18.228641510009766,"640":7.325493812561035,"641":6.879132270812988,"642":-2.193509578704834,"643":10.029915809631348,"644":-2.9603798389434814,"645":-6.15939998626709,"646":-0.39123934507369995,"647":-18.531410217285156,"648":-6.6264472007751465,"649":0.7771342992782593,"650":-4.834052562713623,"651":15.529483795166016,"652":22.745777130126953,"653":-5.459585189819336,"654":21.93838882446289,"655":-8.659249305725098,"656":-4.376216411590576,"657":-1.7203731536865234,"658":8.292620658874512,"659":-10.423101425170898,"660":-16.912395477294922,"661":-29.004653930664062,"662":6.721312999725342,"663":5.525049686431885,"664":-6.5272297859191895,"665":-19.543563842773438,"666":-5.760067939758301,"667":4.681984901428223,"668":-5.1221466064453125,"669":-15.614686965942383,"670":-18.896543502807617,"671":-28.456281661987305,"672":-4.629031658172607,"673":-13.847664833068848,"674":16.953353881835938,"675":-16.425662994384766,"676":-0.8502588272094727,"677":8.9436674118042,"678":-0.8726396560668945,"679":12.499045372009277,"680":19.891645431518555,"681":16.463315963745117,"682":13.665265083312988,"683":-7.657851696014404,"684":9.269330024719238,"685":16.0931396484375,"686":19.003942489624023,"687":17.193695068359375,"688":-9.768260955810547,"689":15.273627281188965,"690":-5.850574493408203,"691":12.489242553710938,"692":5.594592571258545,"693":1.8727644681930542,"694":4.329496383666992,"695":-4.518991947174072,"696":27.102624893188477,"697":0.6447882652282715,"698":-6.698075771331787,"699":-1.0542963743209839,"700":5.823781490325928,"701":14.139901161193848,"702":0.36250367760658264,"703":0.283168762922287,"704":-1.3240389823913574,"705":0.1814998984336853,"706":0.6364880204200745,"707":-3.6901464462280273,"708":-1.2433453798294067,"709":0.8919573426246643,"710":-1.8957573175430298,"711":1.555526852607727,"712":2.5341343879699707,"713":1.5671565532684326,"714":-1.8659069538116455,"715":0.6062614321708679,"716":1.1600240468978882,"717":-2.7231743335723877,"718":0.13282477855682373,"719":-4.912888526916504,"720":-0.2321244329214096,"721":-1.3288341760635376,"722":2.7415618896484375,"723":-3.2976367473602295,"724":2.687103033065796,"725":-0.9206616878509521,"726":0.6810707449913025,"727":1.762519359588623,"728":-2.0900328159332275,"729":-0.6623976230621338,"730":-2.397195339202881,"731":-2.070585250854492,"732":1.3343725204467773,"733":-1.0229841470718384,"734":-2.3014824390411377,"735":1.1965656280517578,"736":2.9362261295318604,"737":-0.215945765376091,"738":-0.34078776836395264,"739":-0.5270270109176636,"740":-0.9074228405952454,"741":-3.2319297790527344,"742":-1.4921905994415283,"743":-3.792417287826538,"744":2.49950909614563,"745":0.4823334515094757,"746":-3.664618730545044,"747":1.5111103057861328,"748":-0.2438879758119583,"749":2.922088384628296,"750":-1.2327935695648193,"751":-0.10733957588672638,"752":-0.24828755855560303,"753":-1.9426450729370117,"754":1.4354074001312256,"755":-1.3982913494110107,"756":-2.0506255626678467,"757":-0.5342155694961548,"758":1.1235355138778687,"759":5.712582111358643,"760":-0.49646738171577454,"761":-0.7730182409286499,"762":-2.032519817352295,"763":-0.33439624309539795,"764":0.2182948738336563,"765":-2.908998966217041,"766":0.3382262587547302,"767":-1.4150947332382202,"768":-3.689362049102783,"769":-0.1394282877445221,"770":0.6190192699432373,"771":-1.5069420337677002,"772":-2.0159294605255127,"773":5.123965740203857,"774":0.808269739151001,"775":-0.07328536361455917,"776":-2.479339122772217,"777":-0.4007662236690521,"778":-1.1487842798233032,"779":0.38956472277641296,"780":4.231129169464111,"781":-5.398418426513672,"782":-7.873816967010498,"783":-5.813637733459473,"784":2.965425491333008,"785":2.602522611618042,"786":7.095570087432861,"787":-8.677428245544434,"788":13.049158096313477,"789":-1.4474573135375977,"790":6.012425422668457,"791":-1.8456138372421265,"792":-4.250942707061768,"793":2.460073709487915,"794":-43.243629455566406,"795":-5.832576274871826,"796":-16.97417449951172,"797":-21.90225601196289,"798":2.811007022857666,"799":-13.985917091369629,"800":-0.16285204887390137,"801":-14.186275482177734,"802":-26.02284812927246,"803":-17.960674285888672,"804":-7.056340217590332,"805":3.545405149459839,"806":-0.9153709411621094,"807":2.9287915229797363,"808":21.26706314086914,"809":10.225764274597168,"810":-2.0901644229888916,"811":-4.566612720489502,"812":9.861310958862305,"813":-7.955193042755127,"814":13.110774040222168,"815":-10.819693565368652,"816":11.614686965942383,"817":7.077985763549805,"818":17.502901077270508,"819":1.1410616636276245,"820":0.5102403163909912,"821":0.397027850151062,"822":2.7883737087249756,"823":0.9040670394897461,"824":-2.3873450756073,"825":-2.182560920715332,"826":0.33503201603889465,"827":1.9371002912521362,"828":-4.339450359344482,"829":1.547694444656372,"830":-0.9263095855712891,"831":-0.3212563395500183,"832":0.6423699855804443,"833":-3.5012357234954834,"834":0.8040690422058105,"835":-0.9393550753593445,"836":0.6308620572090149,"837":3.061152696609497,"838":0.006850196979939938,"839":0.4319808781147003,"840":-1.0502325296401978,"841":3.7735085487365723,"842":-1.3416508436203003,"843":2.868619680404663,"844":3.8112082481384277,"845":2.4189839363098145,"846":0.03348696231842041,"847":-1.9287461042404175,"848":-2.9815452098846436,"849":-1.4402128458023071,"850":0.5737529397010803,"851":-0.3404349088668823,"852":1.9312242269515991,"853":0.22686517238616943,"854":1.7332284450531006,"855":4.2842793464660645,"856":0.6453508138656616,"857":0.6886133551597595,"858":4.833561897277832,"859":1.643066167831421,"860":2.948720693588257,"861":-1.6305005550384521,"862":-0.0960894376039505,"863":-4.375997543334961,"864":-0.7500597238540649,"865":2.8871543407440186,"866":-0.885814905166626,"867":-2.1186845302581787,"868":-2.4394612312316895,"869":-0.7088690996170044,"870":1.3742228746414185,"871":-3.543161392211914,"872":5.634072303771973,"873":-0.5296335816383362,"874":-2.642514228820801,"875":-0.3175855875015259,"876":-3.4529831409454346,"877":-0.573045551776886,"878":3.3388068675994873,"879":-0.4945938289165497,"880":1.3983304500579834,"881":-1.1686667203903198,"882":-3.670459270477295,"883":-0.8605161905288696,"884":-1.9308396577835083,"885":0.3143416941165924,"886":1.7672823667526245,"887":4.412569999694824,"888":-1.2074214220046997,"889":-0.8727459907531738,"890":-2.5760843753814697,"891":-2.9348254203796387,"892":-3.4298388957977295,"893":-2.576613187789917,"894":-1.2347583770751953,"895":1.319198727607727,"896":-1.4251726865768433,"897":0.8322914838790894,"898":-6.920603275299072,"899":-1.425234079360962,"900":-0.3497246205806732,"901":0.35154271125793457,"902":-1.7038217782974243,"903":2.2199525833129883,"904":0.45619961619377136,"905":-1.2388321161270142,"906":-15.66358470916748,"907":-3.28212308883667,"908":2.4398114681243896,"909":-3.783726453781128,"910":0.09263159334659576,"911":-6.961675643920898,"912":-0.583442747592926,"913":0.6845126152038574,"914":4.344059467315674,"915":2.545930862426758,"916":-3.082425832748413,"917":3.9911065101623535,"918":-4.72871208190918,"919":-0.2409670352935791,"920":-1.5656328201293945,"921":2.763368606567383,"922":-0.9337813854217529,"923":8.783316612243652,"924":-0.9706835746765137,"925":-0.3008216917514801,"926":-0.039364300668239594,"927":-0.8364787101745605,"928":-2.395185708999634,"929":3.1129541397094727,"930":-1.4212095737457275,"931":-2.6324355602264404,"932":1.1979315280914307,"933":0.010560819879174232,"934":5.1941657066345215,"935":2.2784669399261475,"936":3.2303977012634277,"937":-33.18935775756836,"938":32.34701919555664,"939":31.38595962524414,"940":32.37544250488281,"941":0.9538457989692688,"942":42.2194938659668,"943":34.57737350463867,"944":5.526821136474609,"945":11.092446327209473,"946":49.128990173339844,"947":-18.58473777770996,"948":-48.54671859741211,"949":27.365215301513672,"950":-1.4891549348831177,"951":0.6259481906890869,"952":3.6162338256835938,"953":17.512733459472656,"954":6.233788967132568,"955":-17.289213180541992,"956":30.254789352416992,"957":19.905088424682617,"958":-14.765551567077637,"959":-15.136822700500488,"960":17.02796745300293,"961":-9.596052169799805,"962":-42.62533187866211,"963":-16.997697830200195,"964":-13.437378883361816,"965":-28.03304100036621,"966":7.60181188583374,"967":20.95992660522461,"968":-21.07262420654297,"969":33.87799072265625,"970":-30.928686141967773,"971":-7.891685962677002,"972":-11.250999450683594,"973":26.721220016479492,"974":-2.0807554721832275,"975":7.590889930725098,"976":9.477970123291016,"977":6.225168704986572,"978":3.2427945137023926,"979":2.7807440757751465,"980":-3.903153419494629,"981":3.0432560443878174,"982":3.4123599529266357,"983":-3.7925398349761963,"984":-8.52918529510498,"985":1.8169794082641602,"986":-0.1250724345445633,"987":-1.038336992263794,"988":2.8586747646331787,"989":-1.1663522720336914,"990":-5.488793849945068,"991":3.731768846511841,"992":-4.27286434173584,"993":-2.315495014190674,"994":5.052606582641602,"995":1.4078503847122192,"996":-1.2207337617874146,"997":-0.5977022051811218,"998":-0.11499982327222824,"999":-14.550652503967285,"1000":2.266305923461914,"1001":4.392073154449463,"1002":-1.4655874967575073,"1003":-2.6914966106414795,"1004":3.9479408264160156,"1005":2.7904176712036133,"1006":-0.20685838162899017,"1007":1.2473849058151245,"1008":-8.95541000366211,"1009":-1.2032029628753662,"1010":-5.237337112426758,"1011":0.026139862835407257,"1012":2.1760101318359375,"1013":1.379935383796692,"1014":0.015310064889490604,"1015":-0.11199694871902466,"1016":-0.2245180308818817,"1017":0.11890636384487152,"1018":-0.5162885189056396,"1019":-0.4814610779285431,"1020":1.0669636726379395,"1021":-0.9636155962944031,"1022":1.6041933298110962,"1023":-1.542014718055725,"1024":1.6265627145767212,"1025":0.47432368993759155,"1026":0.502930223941803,"1027":-0.6566508412361145,"1028":-2.259026288986206,"1029":0.28821998834609985,"1030":-0.416086345911026,"1031":0.9901263117790222,"1032":0.935317873954773,"1033":-0.1570245772600174,"1034":1.2268685102462769,"1035":-1.3337079286575317,"1036":-0.716050922870636,"1037":1.6992706060409546,"1038":-3.30340838432312,"1039":-0.5932800769805908,"1040":0.7027247548103333,"1041":2.1825196743011475,"1042":0.2714028060436249,"1043":2.0421557426452637,"1044":-0.4723115861415863,"1045":1.2768654823303223,"1046":1.5112138986587524,"1047":-1.3326531648635864,"1048":-0.7702114582061768,"1049":3.09222674369812,"1050":0.06047876551747322,"1051":0.12524639070034027,"1052":-0.5116448998451233,"1053":-41.00941848754883,"1054":-64.43081665039062,"1055":7.8632707595825195,"1056":56.922603607177734,"1057":-47.51929473876953,"1058":62.198387145996094,"1059":-83.7723388671875,"1060":-39.03770446777344,"1061":-52.57316970825195,"1062":61.99977493286133,"1063":19.994977951049805,"1064":-107.9201889038086,"1065":-46.047306060791016,"1066":44.1140022277832,"1067":-67.15646362304688,"1068":0.31853893399238586,"1069":-13.360570907592773,"1070":63.45332336425781,"1071":18.03842544555664,"1072":-11.612584114074707,"1073":72.80863952636719,"1074":48.98936462402344,"1075":-31.197784423828125,"1076":41.355831146240234,"1077":2.0064218044281006,"1078":-8.678248405456543,"1079":49.7651481628418,"1080":37.08974075317383,"1081":130.8888702392578,"1082":-33.30491638183594,"1083":-23.208675384521484,"1084":-89.22977447509766,"1085":-134.9050750732422,"1086":53.63388442993164,"1087":-52.11775588989258,"1088":-52.406410217285156,"1089":20.524023056030273,"1090":45.123191833496094,"1091":57.44462203979492,"1092":-4.637365341186523,"1093":-14.535347938537598,"1094":-6.18813419342041,"1095":-4.459840297698975,"1096":5.59827184677124,"1097":9.125158309936523,"1098":12.275712013244629,"1099":8.411438941955566,"1100":19.91697883605957,"1101":20.75836181640625,"1102":-0.9559535384178162,"1103":1.7735110521316528,"1104":1.46086847782135,"1105":-3.327913284301758,"1106":-12.982521057128906,"1107":-16.457164764404297,"1108":1.771165132522583,"1109":-10.077690124511719,"1110":13.255481719970703,"1111":2.9800243377685547,"1112":4.762406349182129,"1113":-4.623769283294678,"1114":-6.580324649810791,"1115":-7.449897766113281,"1116":-1.5758777856826782,"1117":-4.273095607757568,"1118":7.455292224884033,"1119":2.3607277870178223,"1120":-17.826231002807617,"1121":-2.4300730228424072,"1122":4.156983852386475,"1123":-12.923978805541992,"1124":1.847532033920288,"1125":14.208897590637207,"1126":1.3539501428604126,"1127":17.404935836791992,"1128":-8.535806655883789,"1129":-9.779561042785645,"1130":-9.792072296142578,"1131":-6.645514488220215,"1132":-1.1139905452728271,"1133":2.8512814044952393,"1134":3.254866123199463,"1135":12.895645141601562,"1136":-2.1074626445770264,"1137":21.703886032104492,"1138":8.327173233032227,"1139":19.314485549926758,"1140":-17.559398651123047,"1141":-7.338162899017334,"1142":-3.217393159866333,"1143":-4.961493968963623,"1144":4.003840446472168,"1145":2.6843550205230713,"1146":-16.036863327026367,"1147":5.638326644897461,"1148":1.707125186920166,"1149":-8.178050994873047,"1150":17.708032608032227,"1151":-5.638505458831787,"1152":-10.420340538024902,"1153":-5.7995805740356445,"1154":11.40835189819336,"1155":-3.137223243713379,"1156":6.736883163452148,"1157":8.162107467651367,"1158":-2.8454818725585938,"1159":1.5072910785675049,"1160":1.4890609979629517,"1161":2.654942274093628,"1162":-7.827856540679932,"1163":1.897375226020813,"1164":-8.098030090332031,"1165":8.858327865600586,"1166":-3.9441049098968506,"1167":-4.093831539154053,"1168":-13.184592247009277,"1169":4.675160884857178,"1170":30.82634735107422,"1171":24.636693954467773,"1172":10.60950756072998,"1173":-21.186124801635742,"1174":17.033430099487305,"1175":25.267772674560547,"1176":-11.891998291015625,"1177":30.408910751342773,"1178":-8.354768753051758,"1179":-21.515947341918945,"1180":-15.517050743103027,"1181":-9.079912185668945,"1182":20.229251861572266,"1183":32.15079879760742,"1184":-12.591421127319336,"1185":-17.08343505859375,"1186":10.062540054321289,"1187":-10.214468955993652,"1188":-30.78960418701172,"1189":-3.2218539714813232,"1190":0.762381911277771,"1191":-9.232990264892578,"1192":19.674161911010742,"1193":3.2110133171081543,"1194":16.399789810180664,"1195":6.467770099639893,"1196":10.864129066467285,"1197":-19.80365562438965,"1198":21.78551483154297,"1199":10.348740577697754,"1200":-0.6496149301528931,"1201":-2.703289270401001,"1202":-6.203756809234619,"1203":-5.295153617858887,"1204":13.875391006469727,"1205":16.57887077331543,"1206":5.263145446777344,"1207":-19.887590408325195,"1208":-0.6032426953315735,"1209":3.8381378650665283,"1210":-2.9035985469818115,"1211":-25.972673416137695,"1212":2.6069042682647705,"1213":-5.998068809509277,"1214":4.904740810394287,"1215":-2.0950746536254883,"1216":-0.36354896426200867,"1217":-2.364314556121826,"1218":20.255611419677734,"1219":9.338369369506836,"1220":4.492734909057617,"1221":8.369876861572266,"1222":4.621914863586426,"1223":-10.04257869720459,"1224":0.04107629135251045,"1225":-0.08479591459035873,"1226":2.584376096725464,"1227":-14.93979549407959,"1228":5.563605785369873,"1229":-20.275714874267578,"1230":8.255187034606934,"1231":-8.26259994506836,"1232":3.9314944744110107,"1233":-17.672359466552734,"1234":6.586063385009766,"1235":2.66595196723938,"1236":17.93046760559082,"1237":8.606319427490234,"1238":22.695079803466797,"1239":21.951683044433594,"1240":18.802982330322266,"1241":-3.0890047550201416,"1242":-11.520633697509766,"1243":2.426264762878418,"1244":-6.690703868865967,"1245":3.079857349395752,"1246":-3.1086606979370117,"1247":-9.915761947631836,"1248":11.236886024475098,"1249":19.277494430541992,"1250":-27.89065170288086,"1251":-26.733943939208984,"1252":19.53280258178711,"1253":-3.0903446674346924,"1254":25.430908203125,"1255":1.833664059638977,"1256":-2.894895315170288,"1257":-13.913437843322754,"1258":-10.53188705444336,"1259":-27.134769439697266,"1260":-14.191964149475098,"1261":-8.931476593017578,"1262":-2.7740533351898193,"1263":12.646003723144531,"1264":0.3923026919364929,"1265":-5.8057050704956055,"1266":13.089613914489746,"1267":-0.2162996083498001,"1268":7.218005657196045,"1269":-15.971884727478027,"1270":13.766743659973145,"1271":32.301971435546875,"1272":8.85838508605957,"1273":13.901971817016602,"1274":6.593503952026367,"1275":-9.028227806091309,"1276":6.478127956390381,"1277":-11.364326477050781,"1278":-7.895398139953613,"1279":-24.230398178100586,"1280":27.28483009338379,"1281":13.396954536437988,"1282":-20.725027084350586,"1283":1.0766069889068604,"1284":6.783010005950928,"1285":-5.453628063201904,"1286":-27.285640716552734,"1287":-20.85737419128418,"1288":-3.196472406387329,"1289":2.367814064025879,"1290":19.189023971557617,"1291":5.207859039306641,"1292":-0.22796516120433807,"1293":-2.740800380706787,"1294":-11.411437034606934,"1295":-11.553377151489258,"1296":7.276689052581787,"1297":-4.4355854988098145,"1298":11.060624122619629,"1299":15.300394058227539,"1300":-5.054721832275391,"1301":10.543087005615234,"1302":-0.12395370751619339,"1303":20.836366653442383,"1304":5.995980739593506,"1305":-4.639278888702393,"1306":-1.668434500694275,"1307":3.0903804302215576,"1308":-20.510026931762695,"1309":19.467411041259766,"1310":-9.148165702819824,"1311":-7.714633464813232,"1312":1.216206669807434,"1313":-14.555583000183105,"1314":2.8810689449310303,"1315":13.581631660461426,"1316":-12.11206340789795,"1317":-10.402770042419434,"1318":6.683895111083984,"1319":-7.415502548217773,"1320":22.048885345458984,"1321":1.8913205862045288,"1322":12.106300354003906,"1323":-7.152036666870117,"1324":-5.185126781463623,"1325":-7.92910623550415,"1326":-16.188756942749023,"1327":2.2588443756103516,"1328":8.225811958312988,"1329":23.177522659301758,"1330":25.02042579650879,"1331":9.888423919677734,"1332":-6.569186210632324,"1333":-11.889389038085938,"1334":-20.194644927978516,"1335":14.340985298156738,"1336":5.782173156738281,"1337":-23.932348251342773,"1338":-25.215782165527344,"1339":0.6845332384109497,"1340":10.692866325378418,"1341":29.346174240112305,"1342":-31.630775451660156,"1343":14.548775672912598,"1344":-11.187543869018555,"1345":17.448644638061523,"1346":15.130144119262695,"1347":29.475032806396484,"1348":23.863468170166016,"1349":-26.32244873046875,"1350":28.217266082763672,"1351":-17.99493980407715,"1352":2.2975661754608154,"1353":22.024700164794922,"1354":16.081954956054688,"1355":23.0075740814209,"1356":5.679614067077637,"1357":0.6894544959068298,"1358":-17.226154327392578,"1359":0.9895579814910889,"1360":-16.97772789001465,"1361":-11.072659492492676,"1362":21.79221534729004,"1363":-6.397340774536133,"1364":16.50731086730957,"1365":6.931307792663574,"1366":-4.4728593826293945,"1367":22.038660049438477,"1368":5.855069637298584,"1369":0.6153015494346619,"1370":21.52027702331543,"1371":-45.36162185668945,"1372":-2.237173318862915,"1373":-36.5863037109375,"1374":-7.052292823791504,"1375":14.725992202758789,"1376":-5.9011030197143555,"1377":3.7897770404815674,"1378":-18.651968002319336,"1379":7.952390670776367,"1380":13.403852462768555,"1381":39.94908905029297,"1382":-16.136457443237305,"1383":14.020195007324219,"1384":3.24946928024292,"1385":9.564455032348633,"1386":8.04069995880127,"1387":4.073391914367676,"1388":23.17405128479004,"1389":15.579804420471191,"1390":9.78418254852295,"1391":16.15431022644043,"1392":0.5024497509002686,"1393":-17.644540786743164,"1394":-13.694982528686523,"1395":-0.2805231809616089,"1396":-24.862062454223633,"1397":-16.57013702392578,"1398":-12.872912406921387,"1399":-8.12183952331543,"1400":6.208203315734863,"1401":2.273024797439575,"1402":2.54944109916687,"1403":5.622528553009033,"1404":-19.774394989013672,"1405":-13.212553024291992,"1406":-89.75411224365234,"1407":-16.55678939819336,"1408":14.283919334411621,"1409":-47.104827880859375,"1410":-23.79155731201172,"1411":-82.60615539550781,"1412":-39.8287467956543,"1413":19.732952117919922,"1414":117.98836517333984,"1415":-56.634117126464844,"1416":-4.902868747711182,"1417":-44.81597137451172,"1418":54.46181869506836,"1419":34.63621520996094,"1420":50.389915466308594,"1421":-32.17546081542969,"1422":-11.41148567199707,"1423":-9.457409858703613,"1424":-0.7581064701080322,"1425":108.4979248046875,"1426":-96.30648040771484,"1427":42.63780212402344,"1428":19.31557846069336,"1429":-42.850372314453125,"1430":-35.23770523071289,"1431":117.30308532714844,"1432":-18.731447219848633,"1433":-8.433256149291992,"1434":-30.459962844848633,"1435":-48.80812454223633,"1436":-50.234657287597656,"1437":-66.01202392578125,"1438":40.23493576049805,"1439":-44.26704406738281,"1440":60.9155387878418,"1441":-13.025018692016602,"1442":-18.595178604125977,"1443":-0.32411035895347595,"1444":0.9381914138793945,"1445":-1.2378714084625244,"1446":1.1163640022277832,"1447":-1.2984364032745361,"1448":-1.0090185403823853,"1449":1.846616506576538,"1450":0.39838480949401855,"1451":-1.3667031526565552,"1452":-2.5827364921569824,"1453":-4.883652210235596,"1454":2.7979133129119873,"1455":2.996999740600586,"1456":-0.12598416209220886,"1457":-3.754373073577881,"1458":-0.49361729621887207,"1459":0.8213255405426025,"1460":1.504847526550293,"1461":-2.298454523086548,"1462":-0.3320474326610565,"1463":0.9004589319229126,"1464":-2.689695119857788,"1465":0.8619179725646973,"1466":0.5194560289382935,"1467":-0.48250359296798706,"1468":-1.1920510530471802,"1469":-0.7628174424171448,"1470":-1.7420291900634766,"1471":2.8534021377563477,"1472":2.0056533813476562,"1473":-1.5962857007980347,"1474":1.6949039697647095,"1475":0.5376690030097961,"1476":0.3147457242012024,"1477":-0.5964719653129578,"1478":-3.7828590869903564,"1479":1.2773501873016357,"1480":-0.44562771916389465,"1481":2.591367721557617,"1482":0.003176514757797122,"1483":-2.4148507118225098,"1484":-0.6390148997306824,"1485":0.3052530288696289,"1486":0.9890937209129333,"1487":-1.1003422737121582,"1488":-0.11387577652931213,"1489":0.5443762540817261,"1490":0.5552164912223816,"1491":0.1325906217098236,"1492":-0.08693785965442657,"1493":-1.991028904914856,"1494":-2.296847343444824,"1495":-0.12700824439525604,"1496":0.7734586000442505,"1497":0.8934105038642883,"1498":-0.7421120405197144,"1499":0.7548114657402039,"1500":-1.7381350994110107,"1501":-0.11189179867506027,"1502":0.9781183004379272,"1503":-0.295764297246933,"1504":0.15985873341560364,"1505":-2.2763843536376953,"1506":0.019538264721632004,"1507":-0.46579670906066895,"1508":1.0941048860549927,"1509":0.39424875378608704,"1510":1.0404959917068481,"1511":0.31930652260780334,"1512":-0.17625626921653748,"1513":1.149348497390747,"1514":-0.3521169424057007,"1515":-0.47452327609062195,"1516":1.2470957040786743,"1517":0.2507731020450592,"1518":-0.664357602596283,"1519":-0.34482523798942566,"1520":-0.06690677255392075,"1521":-0.00003441789885982871,"1522":0.00016442443302366883,"1523":0.000030126897399895824,"1524":0.00002302143730048556,"1525":-0.00009593400318408385,"1526":-0.00006395074160536751,"1527":-0.000385332852602005,"1528":-0.00013009282702114433,"1529":0.00030173308914527297,"1530":-0.00033861291012726724,"1531":0.00029479764634743333,"1532":-0.0001546126586617902,"1533":-0.00039056851528584957,"1534":0.00029620365239679813,"1535":-0.00023455926566384733,"1536":0.00015529152005910873,"1537":-0.00006696043419651687,"1538":-0.00008522794814780354,"1539":-0.000011079137948399875,"1540":-0.00007459454354830086,"1541":0.00019917479949072003,"1542":-0.00026879869983531535,"1543":0.00018796956283040345,"1544":-0.00023478185175918043,"1545":-0.0003703925758600235,"1546":-0.0003628853883128613,"1547":-0.00022633772459812462,"1548":0.0002535360981710255,"1549":0.0000056428866628266405,"1550":0.0001921042858157307,"1551":-0.0003227608685847372,"1552":0.00007046558312140405,"1553":0.00023079430684447289,"1554":-0.000045189601223682985,"1555":-0.00025658239610493183,"1556":0.0002929955371655524,"1557":0.000015430006897076964,"1558":-0.00022623882978223264,"1559":-0.00036108357016928494}},"hiddenLayers":[{"updateGateInputMatrix":{"rows":20,"columns":39,"weights":{"0":-0.19780750572681427,"1":0.3032611608505249,"2":-0.10250693559646606,"3":-1.0239394903182983,"4":-1.4518450498580933,"5":0.591637372970581,"6":0.4954780340194702,"7":-0.36585554480552673,"8":-0.10140149295330048,"9":0.5355124473571777,"10":0.14069989323616028,"11":-0.16336342692375183,"12":1.0123536586761475,"13":-1.3496136665344238,"14":0.8687931895256042,"15":0.19268964231014252,"16":0.31792721152305603,"17":-1.0720702409744263,"18":0.1372821182012558,"19":0.1795501708984375,"20":0.3771115243434906,"21":0.1860790252685547,"22":-0.21784089505672455,"23":-0.05417385697364807,"24":-0.39678990840911865,"25":-0.7617489099502563,"26":0.23357698321342468,"27":0.9126538038253784,"28":-0.5992571115493774,"29":0.155038982629776,"30":-0.3210281729698181,"31":-1.6608729362487793,"32":0.4251594841480255,"33":-0.36928561329841614,"34":-0.5454871654510498,"35":1.4313997030258179,"36":-1.5231420993804932,"37":0.7738590836524963,"38":-1.532036542892456,"39":-1.654878854751587,"40":4.369180202484131,"41":2.7274951934814453,"42":1.614662528038025,"43":1.9362914562225342,"44":-2.7053961753845215,"45":-1.0678813457489014,"46":0.02532399445772171,"47":1.4273927211761475,"48":0.3236768841743469,"49":-0.807625949382782,"50":-1.920006275177002,"51":-0.12436405569314957,"52":0.27541014552116394,"53":-1.5511337518692017,"54":-1.9113670587539673,"55":-3.402409076690674,"56":-4.786014556884766,"57":0.9332807660102844,"58":0.24738337099552155,"59":0.5714737772941589,"60":0.40052008628845215,"61":-1.4075254201889038,"62":0.9539359211921692,"63":0.2363578826189041,"64":-0.23880644142627716,"65":-0.6432520747184753,"66":-0.049345508217811584,"67":-3.6828010082244873,"68":-1.22954523563385,"69":0.5981745719909668,"70":-4.225222587585449,"71":-0.09450120478868484,"72":-2.183088541030884,"73":2.3365554809570312,"74":-0.6662782430648804,"75":1.4122066497802734,"76":3.181601047515869,"77":-2.5128016471862793,"78":-1.188515305519104,"79":-0.958041787147522,"80":-1.4854249954223633,"81":-0.0669105127453804,"82":-1.121221661567688,"83":-1.1346174478530884,"84":0.2554592490196228,"85":-1.8538286685943604,"86":0.04738598316907883,"87":0.3688676357269287,"88":0.45335710048675537,"89":1.0991954803466797,"90":-0.4872463047504425,"91":0.5684027671813965,"92":-0.14277666807174683,"93":-0.3413918614387512,"94":-0.29176270961761475,"95":-0.6646879315376282,"96":0.3401241600513458,"97":-2.1359429359436035,"98":-0.3155842423439026,"99":0.15879955887794495,"100":-0.6624500155448914,"101":0.7786991000175476,"102":-0.32488206028938293,"103":-0.04636146500706673,"104":-0.02260185033082962,"105":0.32468679547309875,"106":1.05328369140625,"107":-1.680953025817871,"108":1.2293206453323364,"109":-0.04211025685071945,"110":0.5664418339729309,"111":0.9345482587814331,"112":0.2505890429019928,"113":0.30812665820121765,"114":0.24478845298290253,"115":-0.8362399935722351,"116":-0.44142845273017883,"117":-1.4143192768096924,"118":-1.3186821937561035,"119":-0.11818858236074448,"120":0.025099841877818108,"121":-0.14522531628608704,"122":-0.1414184421300888,"123":-0.5248815417289734,"124":-1.9317107200622559,"125":-0.6967426538467407,"126":0.036111582070589066,"127":0.15497912466526031,"128":-2.2285544872283936,"129":-0.4065510034561157,"130":1.3199836015701294,"131":0.22871828079223633,"132":0.3201901316642761,"133":2.272858142852783,"134":0.7037092447280884,"135":1.7721195220947266,"136":0.5945037007331848,"137":-1.5386121273040771,"138":0.9569129347801208,"139":0.8735594153404236,"140":1.6006561517715454,"141":0.22159379720687866,"142":0.7843552827835083,"143":-1.1435205936431885,"144":-0.44086867570877075,"145":0.030554134398698807,"146":-0.23287662863731384,"147":0.1957608163356781,"148":0.3653130829334259,"149":0.9677669405937195,"150":2.039689302444458,"151":-2.2859928607940674,"152":-0.2858605682849884,"153":-1.199296236038208,"154":-0.7295845746994019,"155":0.6491430401802063,"156":-1.45196533203125,"157":-1.5820927619934082,"158":-0.6071507334709167,"159":2.108982801437378,"160":-1.147540807723999,"161":-1.2942874431610107,"162":-1.9741162061691284,"163":-0.8771106600761414,"164":0.18044240772724152,"165":1.3841365575790405,"166":0.8389075398445129,"167":0.9171187877655029,"168":1.476442813873291,"169":0.6456422805786133,"170":0.9343494176864624,"171":-0.3582497537136078,"172":0.43152692914009094,"173":-0.3652647137641907,"174":0.8865347504615784,"175":0.4052540957927704,"176":-0.2582321763038635,"177":1.5497878789901733,"178":2.2683844566345215,"179":-0.42439723014831543,"180":2.3594775199890137,"181":-1.3059861660003662,"182":1.1886084079742432,"183":1.732039451599121,"184":-1.329962134361267,"185":-0.20307040214538574,"186":1.159523844718933,"187":-0.7870243787765503,"188":-0.5781450867652893,"189":0.3334391117095947,"190":4.917773246765137,"191":0.7276512980461121,"192":-0.5771602392196655,"193":0.008403750136494637,"194":-0.4477390646934509,"195":0.3763137757778168,"196":-0.21162328124046326,"197":0.4087313413619995,"198":1.4041017293930054,"199":-1.1018365621566772,"200":-1.3168025016784668,"201":-0.37697482109069824,"202":-0.3453483581542969,"203":-2.1082165241241455,"204":0.001866631442680955,"205":-0.36684146523475647,"206":1.9077106714248657,"207":1.020471215248108,"208":-0.28478142619132996,"209":-0.01706061325967312,"210":1.3683074712753296,"211":1.5633749961853027,"212":-0.8411740660667419,"213":0.583268940448761,"214":-0.1130593791604042,"215":0.7660409212112427,"216":0.3902972340583801,"217":1.8430492877960205,"218":0.33866673707962036,"219":0.1932750940322876,"220":-0.565139651298523,"221":-0.46147477626800537,"222":-0.09119147807359695,"223":0.7323505282402039,"224":3.1278297901153564,"225":-0.929982602596283,"226":0.9884741902351379,"227":-0.49535709619522095,"228":-0.5497888922691345,"229":-0.3367052972316742,"230":1.8836485147476196,"231":1.3843461275100708,"232":-0.12680171430110931,"233":0.787899374961853,"234":0.3868442475795746,"235":-0.47368136048316956,"236":-1.8873616456985474,"237":1.2616082429885864,"238":-0.5785917043685913,"239":-0.7899134159088135,"240":3.5714569091796875,"241":-0.31350046396255493,"242":1.7370576858520508,"243":0.1651678830385208,"244":1.8723390102386475,"245":-0.46706846356391907,"246":-0.918899416923523,"247":1.6859185695648193,"248":-0.7662730813026428,"249":0.6202794909477234,"250":-1.0189625024795532,"251":-1.2851712703704834,"252":-0.5409602522850037,"253":-0.8766484260559082,"254":-1.0924265384674072,"255":0.207457035779953,"256":-1.5347211360931396,"257":0.02323547936975956,"258":-0.6135517954826355,"259":0.6410105228424072,"260":0.026353755965828896,"261":-0.04986222833395004,"262":0.016871342435479164,"263":1.0398560762405396,"264":0.5214335918426514,"265":-1.4453961849212646,"266":1.1168981790542603,"267":-1.2479487657546997,"268":1.0922192335128784,"269":0.6705093383789062,"270":-0.1837780624628067,"271":0.9923450350761414,"272":0.027621153742074966,"273":0.33549004793167114,"274":-0.15278592705726624,"275":1.3718485832214355,"276":1.563748836517334,"277":-0.996039628982544,"278":0.1423467993736267,"279":0.26561594009399414,"280":0.6668626070022583,"281":0.2008579820394516,"282":0.9509109854698181,"283":-0.020875930786132812,"284":-1.7273215055465698,"285":0.10261385142803192,"286":-0.4713422358036041,"287":-0.4351014196872711,"288":0.9579142928123474,"289":-0.18089750409126282,"290":0.7458480000495911,"291":-0.5482364296913147,"292":-0.6460607647895813,"293":0.6833701133728027,"294":1.4188512563705444,"295":-1.6717396974563599,"296":-1.961305022239685,"297":0.27476996183395386,"298":-0.35306575894355774,"299":-0.6732713580131531,"300":0.3337866961956024,"301":0.7936950922012329,"302":0.6054665446281433,"303":0.12521424889564514,"304":0.4564775228500366,"305":-0.6555393934249878,"306":-0.6160497665405273,"307":1.2430152893066406,"308":-3.0371410846710205,"309":-0.7001233696937561,"310":-0.05425812676548958,"311":1.6130094528198242,"312":0.3706148564815521,"313":-2.3799283504486084,"314":-0.30006900429725647,"315":-2.4413504600524902,"316":2.2276384830474854,"317":2.6151175498962402,"318":0.06339102238416672,"319":-1.3410030603408813,"320":2.3452749252319336,"321":2.9186155796051025,"322":0.4519757926464081,"323":1.0059943199157715,"324":-0.5185319185256958,"325":0.07404891401529312,"326":-0.0014727615052834153,"327":-0.05867008864879608,"328":0.9258136749267578,"329":0.06614628434181213,"330":-1.3698476552963257,"331":0.9191991090774536,"332":-0.35569047927856445,"333":1.6178691387176514,"334":-1.2808877229690552,"335":0.09677892923355103,"336":2.171074151992798,"337":0.010479962453246117,"338":1.593320369720459,"339":0.721398115158081,"340":2.7144389152526855,"341":-0.2797224819660187,"342":2.460271120071411,"343":1.6502572298049927,"344":-0.2690652906894684,"345":-0.37337034940719604,"346":0.2984156906604767,"347":0.3587433695793152,"348":-3.323417901992798,"349":-1.9268563985824585,"350":1.630736231803894,"351":1.2686556577682495,"352":1.104008674621582,"353":1.8079841136932373,"354":-1.9267687797546387,"355":1.5938715934753418,"356":1.0960904359817505,"357":0.06052964925765991,"358":-0.8994273543357849,"359":-0.6462265849113464,"360":1.0127724409103394,"361":-0.2168251872062683,"362":0.6047268509864807,"363":1.0285396575927734,"364":0.2261253148317337,"365":1.247528314590454,"366":-1.3638007640838623,"367":1.6467822790145874,"368":-1.9396240711212158,"369":0.8744731545448303,"370":2.6781532764434814,"371":-1.4789515733718872,"372":1.6658176183700562,"373":0.37503618001937866,"374":1.9234451055526733,"375":0.12098933011293411,"376":0.24688783288002014,"377":-0.20249563455581665,"378":0.027547942474484444,"379":-2.1568362712860107,"380":-0.11066645383834839,"381":-1.7386691570281982,"382":-2.663977861404419,"383":-0.8497306108474731,"384":-0.8950507044792175,"385":1.2175012826919556,"386":-0.7289138436317444,"387":-0.5812472701072693,"388":-0.6721941828727722,"389":-0.7510464191436768,"390":0.2599349319934845,"391":-1.5362180471420288,"392":0.6651051044464111,"393":1.263871431350708,"394":1.1517764329910278,"395":-0.739025354385376,"396":-0.8067858219146729,"397":-1.0740089416503906,"398":-0.9241244196891785,"399":-0.7689409255981445,"400":1.3038110733032227,"401":-1.778273105621338,"402":-0.8044756054878235,"403":0.18579143285751343,"404":1.1001461744308472,"405":0.05442652478814125,"406":-0.773656964302063,"407":1.0993666648864746,"408":-0.04417034611105919,"409":2.012985944747925,"410":-0.5155600905418396,"411":0.4449196457862854,"412":-0.9350621700286865,"413":-0.6963870525360107,"414":0.07625406980514526,"415":1.097084403038025,"416":1.6783889532089233,"417":1.3753944635391235,"418":-0.217014878988266,"419":0.27362754940986633,"420":-0.021957622841000557,"421":1.050682544708252,"422":-0.06700165569782257,"423":-0.07660144567489624,"424":-0.6255528926849365,"425":-0.4268510639667511,"426":0.9998913407325745,"427":-0.13694055378437042,"428":0.04477756842970848,"429":-0.7787595987319946,"430":-4.362472057342529,"431":-0.9519994258880615,"432":1.6908321380615234,"433":0.46355316042900085,"434":-0.9788402318954468,"435":-0.14688238501548767,"436":-0.23644572496414185,"437":-0.043327316641807556,"438":0.9792502522468567,"439":0.0661659985780716,"440":-0.2784655690193176,"441":-1.076564908027649,"442":0.15081265568733215,"443":0.3153843581676483,"444":1.6327452659606934,"445":-2.0491552352905273,"446":-1.959025263786316,"447":0.6174336671829224,"448":-1.834381103515625,"449":0.11227720230817795,"450":-0.2393527328968048,"451":0.6222314834594727,"452":-2.4302754402160645,"453":0.12712471187114716,"454":1.7442131042480469,"455":0.465027779340744,"456":1.0416654348373413,"457":0.5410968065261841,"458":-1.4150521755218506,"459":0.6356092691421509,"460":-1.8900206089019775,"461":-0.581683874130249,"462":0.45009663701057434,"463":2.0514655113220215,"464":1.3251924514770508,"465":1.00209641456604,"466":0.7624770402908325,"467":0.1089530885219574,"468":-1.1558349132537842,"469":-0.8623756766319275,"470":0.7643572092056274,"471":0.6196912527084351,"472":-0.007305155973881483,"473":-0.972959578037262,"474":-0.8176530003547668,"475":-2.1798276901245117,"476":-0.18024961650371552,"477":-0.4463469386100769,"478":0.4356630742549896,"479":-1.178794503211975,"480":-0.14306679368019104,"481":-1.4075262546539307,"482":0.49352210760116577,"483":0.09586353600025177,"484":0.5007277131080627,"485":0.41254478693008423,"486":1.2023309469223022,"487":-1.0201352834701538,"488":0.244974747300148,"489":1.3962510824203491,"490":-0.051962535828351974,"491":0.27426639199256897,"492":0.2909904718399048,"493":-0.1264401078224182,"494":0.13220898807048798,"495":2.1869685649871826,"496":-0.42622944712638855,"497":-0.7589225769042969,"498":0.592162013053894,"499":-0.19349423050880432,"500":-1.7146031856536865,"501":1.5792237520217896,"502":-1.1680035591125488,"503":-0.33370181918144226,"504":0.5247446894645691,"505":0.5512571930885315,"506":0.28197625279426575,"507":0.47850093245506287,"508":1.7062711715698242,"509":0.5934510231018066,"510":-1.262675404548645,"511":1.6295006275177002,"512":-0.03796089068055153,"513":0.36098718643188477,"514":0.6985708475112915,"515":-2.7449798583984375,"516":-0.719651460647583,"517":-0.6246577501296997,"518":1.9060434103012085,"519":-0.46873539686203003,"520":0.11726576089859009,"521":-0.8379591703414917,"522":-1.4177579879760742,"523":-0.9302548766136169,"524":0.45758524537086487,"525":0.07649644464254379,"526":-0.7677613496780396,"527":0.8488900661468506,"528":-1.303538203239441,"529":0.8435829877853394,"530":-0.6322791576385498,"531":0.4229513704776764,"532":0.5649903416633606,"533":-1.090854287147522,"534":-1.6487568616867065,"535":-0.8450368046760559,"536":0.524839460849762,"537":2.0158400535583496,"538":1.0156254768371582,"539":0.3915024697780609,"540":0.11889223754405975,"541":-1.2652196884155273,"542":-2.374023675918579,"543":2.024125099182129,"544":1.5607061386108398,"545":-0.9946344494819641,"546":0.6629329919815063,"547":0.12011483311653137,"548":-3.2129323482513428,"549":-1.1616541147232056,"550":0.6138426661491394,"551":0.06926342099905014,"552":-0.6578806042671204,"553":0.07192784547805786,"554":2.1113152503967285,"555":0.13557575643062592,"556":0.9060331583023071,"557":-0.15591545403003693,"558":2.4307548999786377,"559":1.0830262899398804,"560":0.22214657068252563,"561":0.3396117091178894,"562":-2.130303382873535,"563":-0.2666001617908478,"564":0.6587527394294739,"565":-1.2051397562026978,"566":-1.1776580810546875,"567":-0.10695556551218033,"568":-0.6751586198806763,"569":1.391507863998413,"570":1.2315402030944824,"571":1.2723453044891357,"572":0.28112900257110596,"573":0.556010365486145,"574":-1.6099528074264526,"575":-0.8481106162071228,"576":1.2900912761688232,"577":-3.309988021850586,"578":-0.02382519282400608,"579":-0.7798747420310974,"580":2.1424038410186768,"581":-0.5604040026664734,"582":-1.003199815750122,"583":-0.07173832505941391,"584":0.15648439526557922,"585":-1.6783403158187866,"586":2.5193629264831543,"587":-1.5220474004745483,"588":-0.7109988927841187,"589":-0.11204198002815247,"590":-2.0889151096343994,"591":1.9789881706237793,"592":0.2429552674293518,"593":-0.6417965888977051,"594":-3.1082422733306885,"595":0.941296398639679,"596":-1.2349188327789307,"597":0.7373148798942566,"598":-1.5317323207855225,"599":-2.1915950775146484,"600":0.44018492102622986,"601":-1.996529221534729,"602":2.7259953022003174,"603":-0.9471622705459595,"604":0.333102285861969,"605":-1.3794838190078735,"606":-2.238797426223755,"607":-0.9475192427635193,"608":1.0034983158111572,"609":-0.5295289158821106,"610":-2.7140934467315674,"611":-1.9682743549346924,"612":0.6738116145133972,"613":-1.5948091745376587,"614":1.8930532932281494,"615":0.1603957861661911,"616":0.041093070060014725,"617":2.0817575454711914,"618":-0.859140157699585,"619":-0.10084059089422226,"620":-2.419712781906128,"621":0.43547695875167847,"622":0.6425566077232361,"623":-1.1484867334365845,"624":-0.7358428239822388,"625":-0.4718143939971924,"626":-0.4742441773414612,"627":-0.8083376884460449,"628":-0.16544821858406067,"629":1.2523611783981323,"630":1.2126052379608154,"631":0.7236934304237366,"632":0.04616915062069893,"633":-0.7908849716186523,"634":0.16281114518642426,"635":0.3612063229084015,"636":-1.2592072486877441,"637":0.6129441261291504,"638":-1.7463304996490479,"639":1.260193943977356,"640":-0.7410185933113098,"641":1.5370814800262451,"642":1.9874972105026245,"643":-0.42336830496788025,"644":0.11585245281457901,"645":1.0616557598114014,"646":0.7973592877388,"647":-1.465264081954956,"648":-0.038980305194854736,"649":-1.335531234741211,"650":-0.37612342834472656,"651":-1.7916570901870728,"652":0.05459238216280937,"653":1.064805507659912,"654":0.3156268894672394,"655":0.8056092858314514,"656":0.29543784260749817,"657":2.5493240356445312,"658":-0.525291383266449,"659":-0.5622212290763855,"660":-0.30079925060272217,"661":-0.28419309854507446,"662":0.5709142088890076,"663":-0.9570172429084778,"664":-0.4354093670845032,"665":0.03565992787480354,"666":-1.72786545753479,"667":1.0225653648376465,"668":0.834332287311554,"669":0.4384550452232361,"670":-1.1465258598327637,"671":-0.987899124622345,"672":0.22819122672080994,"673":2.0358619689941406,"674":1.669815182685852,"675":-0.6022400259971619,"676":-0.17191703617572784,"677":0.383738249540329,"678":0.17217764258384705,"679":0.0730423554778099,"680":0.4609908163547516,"681":-0.12121716141700745,"682":1.1410266160964966,"683":-1.01092529296875,"684":0.9828667640686035,"685":2.7742435932159424,"686":0.041065964847803116,"687":1.1709442138671875,"688":-1.7394099235534668,"689":-0.8732408881187439,"690":0.5070143938064575,"691":-0.26106563210487366,"692":1.5956697463989258,"693":1.488868236541748,"694":1.594344139099121,"695":-0.27481359243392944,"696":0.12036582082509995,"697":0.5980179309844971,"698":-0.4090333580970764,"699":-0.7177284955978394,"700":-0.5023842453956604,"701":-1.3500597476959229,"702":-0.5163899660110474,"703":1.084670066833496,"704":0.1482701599597931,"705":-0.899254322052002,"706":-1.139711618423462,"707":-0.7854340672492981,"708":-2.3320648670196533,"709":0.05947760120034218,"710":-0.9036677479743958,"711":0.25218263268470764,"712":1.0212382078170776,"713":0.8826929330825806,"714":0.5774657130241394,"715":0.7581658959388733,"716":0.06933612376451492,"717":-0.49830424785614014,"718":1.9516249895095825,"719":-0.9501349329948425,"720":0.5439150929450989,"721":0.7312678694725037,"722":-1.3891255855560303,"723":1.410675287246704,"724":1.3805806636810303,"725":0.6278138756752014,"726":0.502138078212738,"727":2.235299825668335,"728":-1.0063143968582153,"729":0.10744030028581619,"730":-0.6521329283714294,"731":-1.4752435684204102,"732":-0.5638294219970703,"733":-0.6223046183586121,"734":-0.6444865465164185,"735":0.9833361506462097,"736":0.4724455773830414,"737":-0.2347080111503601,"738":-0.6254204511642456,"739":-1.0200413465499878,"740":1.2587062120437622,"741":1.9633017778396606,"742":-0.7426287531852722,"743":0.19711396098136902,"744":-1.4927911758422852,"745":-2.4693994522094727,"746":-0.08050967007875443,"747":0.9150217175483704,"748":1.1916929483413696,"749":-1.5629349946975708,"750":0.04099906235933304,"751":-0.7020309567451477,"752":2.079331874847412,"753":0.10989546030759811,"754":0.5124596357345581,"755":0.7720562815666199,"756":-0.9200179576873779,"757":1.9562269449234009,"758":1.7274351119995117,"759":-0.39831581711769104,"760":0.2509608268737793,"761":-1.8188302516937256,"762":0.038890719413757324,"763":1.609998106956482,"764":-1.4814635515213013,"765":-0.5690533518791199,"766":1.004915714263916,"767":-1.9294066429138184,"768":-0.3780483305454254,"769":1.8187096118927002,"770":-0.18138723075389862,"771":2.016324996948242,"772":2.534842014312744,"773":0.17327992618083954,"774":0.017620231956243515,"775":-0.9813887476921082,"776":-1.4027327299118042,"777":-2.0710508823394775,"778":-0.6373804807662964,"779":0.510104775428772}},"updateGateHiddenMatrix":{"rows":20,"columns":20,"weights":{"0":-2.6716156005859375,"1":-2.124196767807007,"2":0.870978593826294,"3":1.90088951587677,"4":2.7281250953674316,"5":0.16459031403064728,"6":-0.4419100284576416,"7":-4.739377498626709,"8":2.492244243621826,"9":-1.2800227403640747,"10":0.04701235890388489,"11":-3.6802759170532227,"12":3.166717767715454,"13":-3.626168727874756,"14":-0.2721361517906189,"15":3.7470862865448,"16":0.6231290698051453,"17":0.49013257026672363,"18":-5.725307464599609,"19":2.517496109008789,"20":1.3345062732696533,"21":0.491799533367157,"22":2.7919933795928955,"23":1.2587960958480835,"24":-0.7200461030006409,"25":4.742587089538574,"26":-7.020371913909912,"27":6.472410202026367,"28":3.166748285293579,"29":-1.5094175338745117,"30":-0.5915471315383911,"31":-1.6452234983444214,"32":-0.5812901854515076,"33":0.18645916879177094,"34":1.659327507019043,"35":1.7907156944274902,"36":-3.3425981998443604,"37":3.312131881713867,"38":-0.9562759399414062,"39":-1.6925221681594849,"40":1.7078896760940552,"41":-3.4840781688690186,"42":-7.870368957519531,"43":3.27378511428833,"44":0.048486169427633286,"45":1.2113624811172485,"46":-2.0694596767425537,"47":-1.0372337102890015,"48":0.424792617559433,"49":-1.6380482912063599,"50":-2.030212640762329,"51":-1.8854141235351562,"52":1.1490596532821655,"53":0.7365874648094177,"54":0.6413896083831787,"55":0.1535799652338028,"56":-3.071903944015503,"57":-1.5175776481628418,"58":-0.3582199811935425,"59":1.833387851715088,"60":0.7258209586143494,"61":0.38281041383743286,"62":0.15078474581241608,"63":4.180682182312012,"64":0.9443353414535522,"65":-0.9234920144081116,"66":-4.734287738800049,"67":-2.8641445636749268,"68":0.18227356672286987,"69":-0.2916633188724518,"70":-1.7196626663208008,"71":-0.9568515419960022,"72":0.2403351366519928,"73":-0.7197147607803345,"74":-1.6070541143417358,"75":-1.479708194732666,"76":-0.23438984155654907,"77":-1.9764693975448608,"78":3.430898666381836,"79":-2.1296634674072266,"80":1.8264774084091187,"81":-4.759772777557373,"82":2.2610275745391846,"83":-0.43316805362701416,"84":3.2169740200042725,"85":-1.6483951807022095,"86":-1.255058765411377,"87":0.3627229928970337,"88":2.2168667316436768,"89":-0.1823875904083252,"90":-2.0954511165618896,"91":-1.1323493719100952,"92":-0.13779903948307037,"93":-2.122879981994629,"94":-0.968316376209259,"95":1.8359445333480835,"96":1.997978687286377,"97":3.9105827808380127,"98":0.6031577587127686,"99":2.8729443550109863,"100":0.3452085852622986,"101":-3.218794822692871,"102":0.44953563809394836,"103":-0.8846087455749512,"104":2.7072408199310303,"105":-6.69942569732666,"106":-4.381845951080322,"107":-1.0580161809921265,"108":-0.8118134140968323,"109":-0.41791391372680664,"110":2.3825581073760986,"111":-0.9401216506958008,"112":2.4460487365722656,"113":0.3998374342918396,"114":3.9139885902404785,"115":-2.6325058937072754,"116":-1.890956163406372,"117":2.786550283432007,"118":-2.9041738510131836,"119":-2.0406835079193115,"120":2.5764288902282715,"121":1.014674186706543,"122":1.1998555660247803,"123":-1.4863711595535278,"124":-1.2499213218688965,"125":2.507891893386841,"126":-1.4239939451217651,"127":-3.174125909805298,"128":0.24020013213157654,"129":3.553898572921753,"130":2.222055673599243,"131":-3.969602346420288,"132":-0.3265981078147888,"133":-0.5372005701065063,"134":1.273603916168213,"135":0.40838536620140076,"136":-2.237079620361328,"137":-0.7239750027656555,"138":-1.8943908214569092,"139":0.8159445524215698,"140":-1.7044709920883179,"141":-1.1982911825180054,"142":1.7273207902908325,"143":-5.33103609085083,"144":-0.4084433913230896,"145":-1.176406741142273,"146":0.23131056129932404,"147":-7.950629711151123,"148":1.2746994495391846,"149":0.02185715362429619,"150":-0.7665478587150574,"151":-1.7123031616210938,"152":1.36064612865448,"153":0.34689462184906006,"154":-0.518095850944519,"155":1.6907985210418701,"156":0.882506251335144,"157":-1.7577868700027466,"158":1.1301794052124023,"159":1.2864457368850708,"160":-3.3116328716278076,"161":-4.654497146606445,"162":-1.4335038661956787,"163":1.6554971933364868,"164":-1.7900012731552124,"165":-2.5674960613250732,"166":1.7300293445587158,"167":2.7027535438537598,"168":-3.3149659633636475,"169":-0.4719043970108032,"170":-1.372066617012024,"171":2.3286561965942383,"172":4.637923240661621,"173":-0.060750920325517654,"174":-2.560708999633789,"175":1.7261334657669067,"176":-1.9521538019180298,"177":-1.2825393676757812,"178":-2.0741748809814453,"179":-1.6929489374160767,"180":-0.4223003685474396,"181":0.7035375833511353,"182":2.45332932472229,"183":3.512134075164795,"184":-5.0418477058410645,"185":3.321671962738037,"186":-0.07879188656806946,"187":-2.6451785564422607,"188":0.4939586818218231,"189":3.496710777282715,"190":-0.5014205574989319,"191":1.6176124811172485,"192":-4.78424072265625,"193":-2.76750111579895,"194":2.4133589267730713,"195":-1.8003339767456055,"196":-0.6744576096534729,"197":2.275664806365967,"198":0.4323006570339203,"199":0.5769952535629272,"200":0.6548416614532471,"201":-0.3455437421798706,"202":-1.3251880407333374,"203":-0.34566056728363037,"204":-1.6352144479751587,"205":-0.12600967288017273,"206":1.515582799911499,"207":-1.1437371969223022,"208":-1.7189093828201294,"209":0.7230373024940491,"210":5.489006996154785,"211":-3.012115955352783,"212":-0.7585784792900085,"213":-2.705000638961792,"214":2.181788682937622,"215":-4.529103755950928,"216":0.45259204506874084,"217":0.38385459780693054,"218":-1.7508841753005981,"219":-0.30044329166412354,"220":3.8446414470672607,"221":-6.259248733520508,"222":0.5020094513893127,"223":1.4029874801635742,"224":-2.9722092151641846,"225":-0.7910764217376709,"226":1.9148327112197876,"227":2.3822834491729736,"228":-0.7046443223953247,"229":0.2761135995388031,"230":-0.5946435928344727,"231":3.2297821044921875,"232":2.675041675567627,"233":-1.369627833366394,"234":1.6898082494735718,"235":3.6815640926361084,"236":-2.7836711406707764,"237":-2.0743722915649414,"238":0.7179306149482727,"239":1.4721548557281494,"240":1.5900423526763916,"241":-5.070122718811035,"242":6.1339111328125,"243":-1.9626134634017944,"244":-0.28833290934562683,"245":2.8844738006591797,"246":-1.0726414918899536,"247":1.9829097986221313,"248":-1.8751201629638672,"249":1.0068210363388062,"250":2.9862778186798096,"251":0.014610333368182182,"252":-2.7539596557617188,"253":0.7299944758415222,"254":-3.02186918258667,"255":0.7179073095321655,"256":-5.165548324584961,"257":-2.6864283084869385,"258":0.08001145720481873,"259":-1.6310267448425293,"260":2.1302149295806885,"261":-0.25165149569511414,"262":4.045535564422607,"263":-0.5032221078872681,"264":1.506819248199463,"265":1.049306035041809,"266":-1.9436758756637573,"267":-3.7834558486938477,"268":0.710520327091217,"269":-1.2884490489959717,"270":2.6226675510406494,"271":-3.072030782699585,"272":1.7653214931488037,"273":4.632740497589111,"274":1.4663068056106567,"275":-0.9438579678535461,"276":-2.0209834575653076,"277":-1.8668038845062256,"278":-2.2587459087371826,"279":-0.7255503535270691,"280":0.9448233842849731,"281":0.5213736891746521,"282":2.5185658931732178,"283":3.1776766777038574,"284":4.587158203125,"285":-3.8169188499450684,"286":-0.6575634479522705,"287":0.2878958582878113,"288":-0.5825451016426086,"289":0.37096551060676575,"290":-1.0609604120254517,"291":0.7952969670295715,"292":2.767786741256714,"293":-1.830994963645935,"294":0.5658943057060242,"295":2.491163492202759,"296":3.0234944820404053,"297":1.5495269298553467,"298":-0.45361125469207764,"299":0.003852223278954625,"300":-4.44531774520874,"301":0.8212558031082153,"302":-0.6973320245742798,"303":1.1289167404174805,"304":1.0287070274353027,"305":2.8820369243621826,"306":3.744685173034668,"307":-1.8504927158355713,"308":0.4328935444355011,"309":-2.6920368671417236,"310":0.4611566960811615,"311":-2.6499972343444824,"312":2.5298104286193848,"313":2.771932363510132,"314":1.9570645093917847,"315":1.4005109071731567,"316":-1.2631508111953735,"317":-3.4616589546203613,"318":-0.8327370285987854,"319":-0.47021248936653137,"320":2.007730722427368,"321":-1.5307203531265259,"322":3.8398144245147705,"323":-4.5524797439575195,"324":-0.2957405745983124,"325":0.6265347599983215,"326":-3.1672751903533936,"327":2.7808165550231934,"328":2.1256113052368164,"329":1.438510775566101,"330":0.9886258244514465,"331":-0.774942934513092,"332":-0.8887072801589966,"333":-2.5603325366973877,"334":0.5290380716323853,"335":0.281601220369339,"336":5.140568256378174,"337":0.7098753452301025,"338":2.535459280014038,"339":0.32727333903312683,"340":2.191464424133301,"341":-4.2294769287109375,"342":4.002942085266113,"343":-1.4440332651138306,"344":-3.014784812927246,"345":1.46293306350708,"346":2.1300435066223145,"347":1.1036957502365112,"348":-2.251122236251831,"349":-2.6334660053253174,"350":1.2853024005889893,"351":-5.163360595703125,"352":3.636522054672241,"353":-0.10252870619297028,"354":-2.8240723609924316,"355":0.29423201084136963,"356":-2.4975459575653076,"357":-0.2728588581085205,"358":-3.0744147300720215,"359":2.4066507816314697,"360":-0.4623982012271881,"361":-2.338373899459839,"362":0.10950249433517456,"363":1.7786943912506104,"364":0.9282951951026917,"365":-2.2706048488616943,"366":-4.249072074890137,"367":0.8238036632537842,"368":-0.7618330121040344,"369":-4.169851779937744,"370":0.7797307372093201,"371":0.14040015637874603,"372":-2.4398205280303955,"373":1.123079538345337,"374":0.1558854728937149,"375":1.0450297594070435,"376":1.4369876384735107,"377":-2.2215416431427,"378":-9.135181427001953,"379":-0.9018137454986572,"380":-3.2348732948303223,"381":-0.09096207469701767,"382":-2.1071503162384033,"383":-0.28575167059898376,"384":-0.7734793424606323,"385":-2.2918317317962646,"386":6.00369119644165,"387":-7.145071506500244,"388":-3.9082343578338623,"389":-2.9807801246643066,"390":-0.3774445950984955,"391":0.7159461379051208,"392":0.8077161312103271,"393":4.722355365753174,"394":2.22477388381958,"395":-1.754729986190796,"396":-0.8799518942832947,"397":1.2007325887680054,"398":-1.1691091060638428,"399":-2.4551033973693848}},"updateGateBias":{"rows":20,"columns":1,"weights":{"0":0,"1":0,"2":0,"3":0,"4":0,"5":0,"6":0,"7":0,"8":0,"9":0,"10":0,"11":0,"12":0,"13":0,"14":0,"15":0,"16":0,"17":0,"18":0,"19":0}},"resetGateInputMatrix":{"rows":20,"columns":39,"weights":{"0":2.0399906635284424,"1":1.1658239364624023,"2":1.3981596231460571,"3":0.6482663154602051,"4":-1.8395850658416748,"5":0.7743351459503174,"6":-2.2377123832702637,"7":0.8931427001953125,"8":-0.953281044960022,"9":0.32521533966064453,"10":0.3914070725440979,"11":0.26877036690711975,"12":0.664097249507904,"13":0.6678484678268433,"14":0.0492759570479393,"15":-0.9420565366744995,"16":1.2814252376556396,"17":-1.7253237962722778,"18":0.5205833911895752,"19":1.7621312141418457,"20":0.5990555882453918,"21":1.1942787170410156,"22":0.2167985886335373,"23":-0.15321674942970276,"24":0.33392512798309326,"25":2.285649299621582,"26":-1.4213162660598755,"27":-0.6635650396347046,"28":-0.4699612259864807,"29":-0.30964621901512146,"30":0.8916779160499573,"31":-0.2702395021915436,"32":-0.801557719707489,"33":0.5387961268424988,"34":1.7027543783187866,"35":0.7834447622299194,"36":1.2105687856674194,"37":0.3706449866294861,"38":1.8088645935058594,"39":0.15719129145145416,"40":1.4279571771621704,"41":1.1728683710098267,"42":-0.2685510814189911,"43":0.12108971178531647,"44":-0.6977108716964722,"45":-1.3690705299377441,"46":0.9940186738967896,"47":0.0500963069498539,"48":-0.9320165514945984,"49":0.537883460521698,"50":1.6216962337493896,"51":-0.13899846374988556,"52":-1.8073256015777588,"53":0.06449451297521591,"54":-0.30328240990638733,"55":1.2092409133911133,"56":1.6578317880630493,"57":0.27973923087120056,"58":0.7134398221969604,"59":1.0000457763671875,"60":1.7076399326324463,"61":1.460108757019043,"62":0.8894258141517639,"63":-0.5741762518882751,"64":0.09931927174329758,"65":0.38485264778137207,"66":-0.9885579347610474,"67":-0.7132654190063477,"68":1.1497031450271606,"69":1.500902533531189,"70":5.308149337768555,"71":-0.33572375774383545,"72":0.8152093887329102,"73":0.10694798827171326,"74":-0.8491132259368896,"75":-0.9451501965522766,"76":-0.94133460521698,"77":0.7682763934135437,"78":0.6935556530952454,"79":1.8770591020584106,"80":1.0523104667663574,"81":-2.7970616817474365,"82":0.5885829329490662,"83":0.6861248016357422,"84":-0.11075614392757416,"85":-0.44366249442100525,"86":-0.443718284368515,"87":-3.3568220138549805,"88":2.2258498668670654,"89":2.249326229095459,"90":2.000368356704712,"91":-0.06657946854829788,"92":0.4840380847454071,"93":-1.410685658454895,"94":2.190735101699829,"95":2.696256399154663,"96":-0.2607042193412781,"97":-0.1126558780670166,"98":-0.006710448302328587,"99":-0.8050040602684021,"100":-0.19747726619243622,"101":0.7136441469192505,"102":-2.491981267929077,"103":0.11698634922504425,"104":0.138653963804245,"105":-0.49797937273979187,"106":0.3379407823085785,"107":-1.337463617324829,"108":2.0030832290649414,"109":1.6782578229904175,"110":0.5941909551620483,"111":-0.5081248879432678,"112":-3.5553431510925293,"113":-1.5000766515731812,"114":-1.9982964992523193,"115":-2.1952080726623535,"116":1.089573860168457,"117":0.8009547591209412,"118":0.5334200859069824,"119":-0.3131764233112335,"120":-0.8895733952522278,"121":-0.8366774916648865,"122":1.1425247192382812,"123":-0.31544750928878784,"124":-0.1491898000240326,"125":1.3219871520996094,"126":-0.17402344942092896,"127":1.0047101974487305,"128":0.5052867531776428,"129":0.18874922394752502,"130":-0.7877310514450073,"131":-0.5117592811584473,"132":-0.6588993072509766,"133":-0.9572234749794006,"134":-1.3010531663894653,"135":2.6102638244628906,"136":0.4542770981788635,"137":-1.5590457916259766,"138":0.8987628817558289,"139":-0.5962792634963989,"140":-1.0899126529693604,"141":-0.5432648062705994,"142":1.2835426330566406,"143":0.10024134814739227,"144":-0.6835774779319763,"145":-1.6483712196350098,"146":-0.1529078334569931,"147":1.0187326669692993,"148":2.458559513092041,"149":1.0471456050872803,"150":-0.591596245765686,"151":-0.24843662977218628,"152":-0.19978971779346466,"153":0.9929500818252563,"154":-0.3445271849632263,"155":-0.9655304551124573,"156":0.12781010568141937,"157":-0.0993778184056282,"158":-0.8605533838272095,"159":0.8522971272468567,"160":2.6309163570404053,"161":0.715560257434845,"162":0.16843391954898834,"163":-1.546420693397522,"164":1.0476895570755005,"165":0.8363492488861084,"166":-0.8492365479469299,"167":-0.315964937210083,"168":-0.15282580256462097,"169":-0.17529767751693726,"170":0.7795697450637817,"171":0.19825813174247742,"172":0.545896589756012,"173":0.5464886426925659,"174":-0.5635732412338257,"175":1.3671239614486694,"176":-0.039745695888996124,"177":0.828580915927887,"178":-0.21445627510547638,"179":0.27220308780670166,"180":-1.0872052907943726,"181":-0.4384530186653137,"182":-0.9137407541275024,"183":0.08992675691843033,"184":-0.4860372245311737,"185":-0.3205881118774414,"186":-1.4754835367202759,"187":0.1275038719177246,"188":-1.3252843618392944,"189":0.4299822151660919,"190":2.1514525413513184,"191":0.17596381902694702,"192":-1.8435475826263428,"193":-2.591365098953247,"194":1.863842248916626,"195":1.7149176597595215,"196":-3.984816312789917,"197":-0.6586469411849976,"198":0.9827987551689148,"199":-3.7251503467559814,"200":-0.4426698386669159,"201":-1.0007134675979614,"202":-0.23051095008850098,"203":3.013126850128174,"204":1.0869494676589966,"205":1.2444207668304443,"206":-0.7289514541625977,"207":-0.4266478717327118,"208":-1.7437210083007812,"209":0.8208997249603271,"210":3.1208231449127197,"211":-0.43323183059692383,"212":1.2667354345321655,"213":2.4480347633361816,"214":0.7464452981948853,"215":2.5103955268859863,"216":1.8166389465332031,"217":4.134830951690674,"218":-0.19937007129192352,"219":0.8743857145309448,"220":0.4553825557231903,"221":3.4924216270446777,"222":0.35591942071914673,"223":1.5775898694992065,"224":3.2076005935668945,"225":-2.1293020248413086,"226":-0.6311967968940735,"227":-0.16952553391456604,"228":-3.534008502960205,"229":-0.9763993620872498,"230":3.324082136154175,"231":2.4979028701782227,"232":3.7621970176696777,"233":-0.12551671266555786,"234":0.9766109585762024,"235":0.13160452246665955,"236":-1.105676531791687,"237":1.1827077865600586,"238":0.6263883709907532,"239":0.24508026242256165,"240":0.18055389821529388,"241":-0.6497830152511597,"242":1.0140328407287598,"243":0.781711995601654,"244":1.3089169263839722,"245":-0.3237455189228058,"246":-0.9956837296485901,"247":-0.38097313046455383,"248":-0.14291270077228546,"249":0.15661200881004333,"250":0.5013542771339417,"251":1.0890986919403076,"252":0.4020703434944153,"253":1.121082067489624,"254":0.3978723883628845,"255":0.544878363609314,"256":-2.993513822555542,"257":0.11959622800350189,"258":-1.7058086395263672,"259":1.1913610696792603,"260":-1.7531778812408447,"261":0.41333165764808655,"262":-0.5391037464141846,"263":0.21055200695991516,"264":-0.07364354282617569,"265":-1.301242709159851,"266":-0.8420834541320801,"267":-0.010443483479321003,"268":0.47724899649620056,"269":1.1535041332244873,"270":-2.0188283920288086,"271":-2.227515697479248,"272":1.2988427877426147,"273":-0.22271059453487396,"274":-0.1828419417142868,"275":-0.7297863364219666,"276":-2.08900785446167,"277":0.5095924735069275,"278":1.2894608974456787,"279":-0.9650790691375732,"280":-0.8244714140892029,"281":-0.810754120349884,"282":-0.038811977952718735,"283":-0.06716682016849518,"284":-1.1566612720489502,"285":0.7886634469032288,"286":0.13944411277770996,"287":0.6136940121650696,"288":0.5718504786491394,"289":-0.8223539590835571,"290":-0.6017829775810242,"291":-0.5027086734771729,"292":0.9693341851234436,"293":0.3144505023956299,"294":-0.17121049761772156,"295":-0.6404308676719666,"296":0.7096956372261047,"297":0.9211972951889038,"298":-0.8313981890678406,"299":2.4134318828582764,"300":1.0091644525527954,"301":-0.022351117804646492,"302":1.0503900051116943,"303":-0.31958210468292236,"304":-0.731773316860199,"305":0.6760423183441162,"306":-0.9657390117645264,"307":1.1003795862197876,"308":-0.10312119126319885,"309":-0.8529013991355896,"310":1.093772292137146,"311":0.3332473337650299,"312":-0.21219845116138458,"313":-1.4812593460083008,"314":-1.709610939025879,"315":-0.6420361995697021,"316":1.3649269342422485,"317":0.876022458076477,"318":-1.712862253189087,"319":-1.7572581768035889,"320":0.8742833137512207,"321":-0.3687603175640106,"322":-0.20596356689929962,"323":0.964486300945282,"324":-0.3670049011707306,"325":-1.5838508605957031,"326":1.2700213193893433,"327":0.22381524741649628,"328":-1.9370464086532593,"329":1.7345415353775024,"330":0.6483587026596069,"331":-1.6621403694152832,"332":0.5694724917411804,"333":0.36420515179634094,"334":0.5243111848831177,"335":0.8564355969429016,"336":0.43177205324172974,"337":-0.3187106251716614,"338":0.39859604835510254,"339":0.9618167281150818,"340":-1.4599523544311523,"341":0.06315090507268906,"342":0.2636927664279938,"343":-0.5190867781639099,"344":-0.8080376386642456,"345":1.5414786338806152,"346":-1.3464410305023193,"347":0.362323135137558,"348":-1.3116569519042969,"349":-1.4043747186660767,"350":0.8446282744407654,"351":1.638918161392212,"352":0.8053247332572937,"353":-0.05495835095643997,"354":-1.4950350522994995,"355":-0.4653404951095581,"356":3.041912078857422,"357":-1.9399350881576538,"358":-1.437508463859558,"359":0.9488045573234558,"360":0.9511011838912964,"361":-0.293390154838562,"362":0.7032055258750916,"363":2.2957727909088135,"364":-0.939270555973053,"365":0.7120134234428406,"366":0.029423788189888,"367":1.47844660282135,"368":1.6034923791885376,"369":0.7802397012710571,"370":2.415562868118286,"371":0.5585176348686218,"372":0.16799813508987427,"373":-0.5434298515319824,"374":0.7889106273651123,"375":-0.9652895331382751,"376":-0.13992300629615784,"377":0.10574769228696823,"378":0.9889073371887207,"379":1.319974422454834,"380":0.23412539064884186,"381":-0.72945636510849,"382":-0.27925267815589905,"383":-0.7430787086486816,"384":-0.8696856498718262,"385":-1.390618920326233,"386":-0.9848965406417847,"387":0.1307993233203888,"388":-0.9014520049095154,"389":-0.7253810167312622,"390":-1.8120520114898682,"391":1.6698567867279053,"392":-0.1382300704717636,"393":-0.5917354226112366,"394":0.5509627461433411,"395":0.2079743891954422,"396":-1.6902114152908325,"397":-1.2354631423950195,"398":0.4083530008792877,"399":0.3655793070793152,"400":-0.3354913592338562,"401":0.9785290360450745,"402":0.25206637382507324,"403":-0.5855240821838379,"404":0.3805708587169647,"405":-0.16412144899368286,"406":0.7494432330131531,"407":0.4508291184902191,"408":-0.5719141364097595,"409":0.13424742221832275,"410":-0.32697030901908875,"411":-1.3568732738494873,"412":0.5184215307235718,"413":1.9039355516433716,"414":0.04582398757338524,"415":-1.8806343078613281,"416":-0.6504764556884766,"417":0.5056226253509521,"418":-1.7613180875778198,"419":-0.7023538947105408,"420":-1.1947691440582275,"421":-1.0315543413162231,"422":-0.6072698831558228,"423":1.5493812561035156,"424":1.2897908687591553,"425":-0.8611606359481812,"426":-0.7195634841918945,"427":-0.6705852150917053,"428":1.0179731845855713,"429":-0.9888814091682434,"430":1.6439341306686401,"431":0.9876060485839844,"432":-0.2259766161441803,"433":-0.5905712842941284,"434":1.645582675933838,"435":-1.2813795804977417,"436":-0.7633486390113831,"437":-0.4337972402572632,"438":-0.011769597418606281,"439":-0.006914613302797079,"440":2.4554708003997803,"441":1.2333499193191528,"442":-0.8265253901481628,"443":-0.4732144773006439,"444":0.4206697642803192,"445":3.7841100692749023,"446":1.6809478998184204,"447":0.9598953127861023,"448":-0.6480266451835632,"449":0.6569463014602661,"450":0.6912729740142822,"451":2.0869176387786865,"452":0.43038347363471985,"453":-0.5039776563644409,"454":-2.212571382522583,"455":-2.7967898845672607,"456":0.5568910241127014,"457":-0.60378098487854,"458":-0.22186051309108734,"459":0.7484055757522583,"460":2.7420406341552734,"461":-1.6887612342834473,"462":0.07074024528265,"463":-1.7799676656723022,"464":-0.4863336384296417,"465":-1.2476696968078613,"466":-2.6098580360412598,"467":0.3540433943271637,"468":0.9901121258735657,"469":1.2886407375335693,"470":0.44637829065322876,"471":1.8927606344223022,"472":-1.2951898574829102,"473":-0.08415403217077255,"474":2.0951931476593018,"475":0.990675151348114,"476":1.1861807107925415,"477":1.2124767303466797,"478":2.513530731201172,"479":-0.3700594902038574,"480":0.5990552306175232,"481":0.002366592874750495,"482":0.03153831139206886,"483":0.9574577212333679,"484":0.34678491950035095,"485":-1.0152212381362915,"486":0.39552658796310425,"487":-0.483871191740036,"488":-0.5402001738548279,"489":-0.6116940975189209,"490":-0.4971999228000641,"491":-1.3827095031738281,"492":-0.6133788824081421,"493":0.8613448143005371,"494":-1.4304769039154053,"495":-1.1316889524459839,"496":-1.230514407157898,"497":1.316098928451538,"498":-2.489851236343384,"499":-0.8083124756813049,"500":-0.7187453508377075,"501":-1.3277695178985596,"502":-2.0069518089294434,"503":0.5283520221710205,"504":-0.8882886171340942,"505":-0.0416707843542099,"506":-0.7298177480697632,"507":-0.4822489321231842,"508":-1.3302558660507202,"509":0.6123616695404053,"510":-1.6495904922485352,"511":0.161452516913414,"512":0.11249516159296036,"513":0.7407537698745728,"514":1.8733302354812622,"515":0.07006826251745224,"516":-0.2542588412761688,"517":-3.3236944675445557,"518":-3.035017967224121,"519":-1.0877729654312134,"520":3.3212084770202637,"521":-3.1659343242645264,"522":-0.5711037516593933,"523":0.12930402159690857,"524":-2.8287782669067383,"525":0.8538247346878052,"526":-2.437084674835205,"527":-1.4676097631454468,"528":-0.2272314429283142,"529":-2.4606897830963135,"530":-0.03933360055088997,"531":0.4914954900741577,"532":-0.12885652482509613,"533":1.6885969638824463,"534":-2.079838752746582,"535":0.6860812306404114,"536":1.3602876663208008,"537":0.5839341878890991,"538":-1.3504160642623901,"539":3.4465062618255615,"540":-0.44424402713775635,"541":-2.3922927379608154,"542":-0.5389582514762878,"543":1.0215965509414673,"544":1.996379017829895,"545":3.368870973587036,"546":2.801321029663086,"547":-1.4629364013671875,"548":-1.263489842414856,"549":1.5311110019683838,"550":-2.0606372356414795,"551":-1.3247202634811401,"552":1.4556025266647339,"553":0.45025545358657837,"554":2.5018723011016846,"555":0.6527100801467896,"556":-1.2304061651229858,"557":-1.1334682703018188,"558":1.2273234128952026,"559":-0.7501934766769409,"560":-0.7484343647956848,"561":-1.0774288177490234,"562":-0.01936938613653183,"563":-1.0544629096984863,"564":3.88218355178833,"565":-0.5587805509567261,"566":-0.4370468854904175,"567":0.7739255428314209,"568":-0.9977724552154541,"569":2.014326810836792,"570":-1.248806118965149,"571":1.3490827083587646,"572":0.8641422390937805,"573":1.093267798423767,"574":-2.711153507232666,"575":-0.3614262640476227,"576":1.0914802551269531,"577":-1.62175452709198,"578":2.8310108184814453,"579":-0.10191240906715393,"580":-0.1410549134016037,"581":0.518207311630249,"582":1.8888181447982788,"583":0.7378383874893188,"584":1.37559175491333,"585":0.29825112223625183,"586":-2.043811559677124,"587":-1.9262113571166992,"588":2.458517551422119,"589":-1.0705984830856323,"590":0.8076067566871643,"591":0.471836656332016,"592":-0.8667281866073608,"593":1.3092745542526245,"594":1.65402090549469,"595":-2.2377631664276123,"596":1.5224655866622925,"597":1.9415371417999268,"598":-1.9369754791259766,"599":1.344344973564148,"600":5.1892619132995605,"601":-0.2352360188961029,"602":-1.2366061210632324,"603":-1.4275894165039062,"604":0.5334697961807251,"605":-0.4380837678909302,"606":-0.05871615931391716,"607":0.2873160243034363,"608":0.9880194067955017,"609":0.46343642473220825,"610":-0.5821961760520935,"611":0.6075412631034851,"612":0.7660870552062988,"613":1.6181023120880127,"614":1.8943573236465454,"615":-0.2067767232656479,"616":-0.656592845916748,"617":0.2813774645328522,"618":-0.018822913989424706,"619":-1.2079609632492065,"620":-0.2867419123649597,"621":0.43529388308525085,"622":-0.014741224236786366,"623":0.5043200850486755,"624":0.7429119944572449,"625":2.005239486694336,"626":0.7972628474235535,"627":-1.6295006275177002,"628":0.7262197732925415,"629":-0.44329437613487244,"630":-0.22374823689460754,"631":0.6282767653465271,"632":1.0684038400650024,"633":-2.924574136734009,"634":2.859032392501831,"635":-0.21348336338996887,"636":-0.3684351444244385,"637":0.019237011671066284,"638":-0.8328973054885864,"639":0.8044100999832153,"640":-0.18622693419456482,"641":2.5628674030303955,"642":-0.2765135169029236,"643":-0.08507964015007019,"644":1.908694863319397,"645":-0.5470222234725952,"646":0.9573863744735718,"647":-1.0453739166259766,"648":-0.5943791270256042,"649":1.1636561155319214,"650":-1.5291011333465576,"651":-0.08086740225553513,"652":0.5205909013748169,"653":-2.0277528762817383,"654":0.5215100646018982,"655":-0.5784546732902527,"656":-0.12076184898614883,"657":0.2624169588088989,"658":-0.3009275197982788,"659":1.3526681661605835,"660":-1.97694993019104,"661":-0.6848852634429932,"662":-1.9040051698684692,"663":0.18220676481723785,"664":-0.5913695096969604,"665":-0.4160725772380829,"666":1.0774940252304077,"667":1.017688512802124,"668":-1.5620825290679932,"669":1.0249018669128418,"670":-0.44072577357292175,"671":0.17120331525802612,"672":0.5945308804512024,"673":2.4135329723358154,"674":-1.3083325624465942,"675":-0.6805694699287415,"676":0.28822800517082214,"677":-0.8220420479774475,"678":1.0869594812393188,"679":-2.506504774093628,"680":-0.8974303603172302,"681":1.433348536491394,"682":-1.871073603630066,"683":-2.4337425231933594,"684":0.7010278701782227,"685":-0.8293416500091553,"686":1.0916733741760254,"687":1.299163818359375,"688":0.4719865620136261,"689":-3.0704965591430664,"690":-0.8439603447914124,"691":-1.1199127435684204,"692":-1.273605227470398,"693":1.4976165294647217,"694":-2.809598445892334,"695":0.746285617351532,"696":0.2824779748916626,"697":-0.5916670560836792,"698":0.47073695063591003,"699":1.9051979780197144,"700":1.2310870885849,"701":0.6560585498809814,"702":-0.35379359126091003,"703":-0.8278684020042419,"704":1.7618112564086914,"705":-0.1649908870458603,"706":1.738261103630066,"707":2.200108051300049,"708":0.5145402550697327,"709":-3.7159619331359863,"710":1.418095588684082,"711":-0.6396909356117249,"712":-1.213554859161377,"713":0.8296787142753601,"714":-1.008057951927185,"715":1.3623045682907104,"716":0.2938550114631653,"717":-0.13587599992752075,"718":0.8318358063697815,"719":1.1567027568817139,"720":1.2999323606491089,"721":-0.8620785474777222,"722":-0.33951535820961,"723":-0.3543736934661865,"724":-0.40919017791748047,"725":1.6797213554382324,"726":-1.6258291006088257,"727":-0.43844085931777954,"728":4.177610874176025,"729":-0.058479081839323044,"730":-1.37507963180542,"731":-0.3938821852207184,"732":-1.7469358444213867,"733":-2.947814702987671,"734":0.8452239036560059,"735":0.5165249109268188,"736":0.35127493739128113,"737":0.2574043273925781,"738":-1.9153287410736084,"739":1.3217918872833252,"740":0.20397593080997467,"741":-0.34811776876449585,"742":0.28128719329833984,"743":0.5019441246986389,"744":0.22936967015266418,"745":-1.1319770812988281,"746":-0.0077491686679422855,"747":-0.6415731906890869,"748":-0.5601902008056641,"749":0.37230557203292847,"750":0.564253568649292,"751":0.8361210823059082,"752":-0.9549474716186523,"753":-1.2521055936813354,"754":1.3442165851593018,"755":-0.08222426474094391,"756":1.13521409034729,"757":-1.6527683734893799,"758":-0.2100227177143097,"759":0.9369151592254639,"760":-1.8032253980636597,"761":0.8528048396110535,"762":-0.3657855987548828,"763":-0.20247165858745575,"764":-1.0211504697799683,"765":-0.40153953433036804,"766":1.0433483123779297,"767":-0.11923223733901978,"768":-1.2294578552246094,"769":-0.043035559356212616,"770":0.8104780316352844,"771":-0.49432316422462463,"772":-0.4267286956310272,"773":-0.14704611897468567,"774":-0.6475892663002014,"775":0.4897337555885315,"776":1.752560019493103,"777":1.919285535812378,"778":0.730589747428894,"779":-0.23633942008018494}},"resetGateHiddenMatrix":{"rows":20,"columns":20,"weights":{"0":-2.238293409347534,"1":0.874616265296936,"2":0.2897447943687439,"3":0.9293357729911804,"4":3.6189050674438477,"5":0.20553641021251678,"6":-0.08685121685266495,"7":-3.8145558834075928,"8":-0.2603154182434082,"9":0.12573407590389252,"10":-2.7260310649871826,"11":0.004886920098215342,"12":-1.2377581596374512,"13":0.361153781414032,"14":-2.0615053176879883,"15":0.9756803512573242,"16":3.50677227973938,"17":-0.8874191045761108,"18":1.173166036605835,"19":-1.2169609069824219,"20":-1.1493499279022217,"21":-0.8199403882026672,"22":1.0372061729431152,"23":-0.9510107040405273,"24":-0.417949914932251,"25":2.5604450702667236,"26":-3.7149641513824463,"27":2.4135239124298096,"28":1.5501508712768555,"29":1.7012372016906738,"30":-1.8575800657272339,"31":2.2390036582946777,"32":-1.8234189748764038,"33":1.2528244256973267,"34":0.6320984363555908,"35":1.2958433628082275,"36":-1.3637866973876953,"37":-5.899850845336914,"38":0.08524369448423386,"39":0.3684884309768677,"40":2.4615910053253174,"41":2.803004026412964,"42":1.8665611743927002,"43":0.7234845757484436,"44":-0.5630708336830139,"45":2.4502806663513184,"46":0.25352826714515686,"47":-0.9675993323326111,"48":2.4896931648254395,"49":-1.8854730129241943,"50":3.073523759841919,"51":-0.36894145607948303,"52":-0.2154054343700409,"53":0.17512395977973938,"54":-1.7498586177825928,"55":2.308995246887207,"56":0.7410299181938171,"57":1.147019624710083,"58":-0.6178775429725647,"59":2.138958215713501,"60":0.3948901891708374,"61":-0.5597165822982788,"62":-2.8133442401885986,"63":3.0391829013824463,"64":-0.2583135962486267,"65":3.2229275703430176,"66":0.9971441626548767,"67":3.30971360206604,"68":0.056455373764038086,"69":-0.3792865574359894,"70":0.17937736213207245,"71":2.7460954189300537,"72":0.9803728461265564,"73":1.2107664346694946,"74":-3.509653091430664,"75":-0.24546267092227936,"76":1.1177111864089966,"77":0.40219464898109436,"78":-0.3879404664039612,"79":-1.3585950136184692,"80":-1.3939321041107178,"81":-0.7616103291511536,"82":2.736908435821533,"83":-1.4692721366882324,"84":-0.24716117978096008,"85":-2.6809418201446533,"86":0.3523806035518646,"87":-2.221897602081299,"88":0.637444794178009,"89":1.317747950553894,"90":1.4930440187454224,"91":-3.436692476272583,"92":-0.2051461637020111,"93":0.4679464101791382,"94":-1.6876065731048584,"95":-3.315567970275879,"96":-0.29253658652305603,"97":-1.4548372030258179,"98":2.2224905490875244,"99":0.2699405550956726,"100":1.651402235031128,"101":-5.766892433166504,"102":-3.673335552215576,"103":3.8435964584350586,"104":-1.2219517230987549,"105":-0.1305469125509262,"106":0.13574597239494324,"107":-1.147237777709961,"108":-1.4390302896499634,"109":1.7611981630325317,"110":-1.4515873193740845,"111":-0.12064270675182343,"112":-1.0806968212127686,"113":0.23799587786197662,"114":-3.004065990447998,"115":0.8364986181259155,"116":-3.860985040664673,"117":1.6170036792755127,"118":-1.135109782218933,"119":0.3413459062576294,"120":-1.4560240507125854,"121":-0.1246618777513504,"122":-1.135158896446228,"123":0.7143241167068481,"124":1.4873249530792236,"125":-2.091665744781494,"126":0.7828047871589661,"127":-0.30908840894699097,"128":0.7144646644592285,"129":-0.3469824194908142,"130":-1.070123553276062,"131":0.1613912135362625,"132":-0.9408717751502991,"133":1.260819673538208,"134":-0.08330795168876648,"135":0.6757035255432129,"136":3.300708532333374,"137":0.7634116411209106,"138":0.7089507579803467,"139":1.4204007387161255,"140":1.1957038640975952,"141":-0.6684181094169617,"142":0.9580163359642029,"143":-0.16861051321029663,"144":-1.882028579711914,"145":0.860946774482727,"146":0.9206644296646118,"147":-2.4228687286376953,"148":0.505814790725708,"149":-0.2944706678390503,"150":-1.6164754629135132,"151":0.7518052458763123,"152":-1.7153027057647705,"153":0.19701062142848969,"154":-0.038135841488838196,"155":-1.2770249843597412,"156":-0.7974680662155151,"157":-1.629684567451477,"158":1.0560076236724854,"159":2.4565279483795166,"160":-1.2769654989242554,"161":-0.8290611505508423,"162":-2.4482603073120117,"163":2.8273580074310303,"164":-1.323952078819275,"165":-1.18382728099823,"166":2.1144490242004395,"167":0.380768746137619,"168":-0.5077947378158569,"169":1.2564877271652222,"170":-1.701161503791809,"171":0.2362702190876007,"172":-0.3300565183162689,"173":0.8171247243881226,"174":3.010939359664917,"175":-1.0756680965423584,"176":-0.8308079242706299,"177":0.4079134166240692,"178":2.6808698177337646,"179":0.5864949226379395,"180":0.8887454271316528,"181":3.9027469158172607,"182":-0.2658710777759552,"183":-3.8485491275787354,"184":-0.9941946864128113,"185":2.1730613708496094,"186":1.5522204637527466,"187":-1.657982587814331,"188":3.4226155281066895,"189":2.3074357509613037,"190":0.819717288017273,"191":1.337273120880127,"192":-3.02211856842041,"193":-0.35080111026763916,"194":-0.04484112560749054,"195":0.818417489528656,"196":2.051504135131836,"197":1.1098860502243042,"198":-1.5925061702728271,"199":2.7158045768737793,"200":-2.3508858680725098,"201":1.853205919265747,"202":-2.547966241836548,"203":0.18302452564239502,"204":3.2227020263671875,"205":0.6013290882110596,"206":2.156680107116699,"207":-0.065212681889534,"208":-1.203110933303833,"209":0.18855096399784088,"210":0.33274611830711365,"211":-0.6352123618125916,"212":-0.4435102939605713,"213":-0.20454314351081848,"214":-1.0295206308364868,"215":-1.196577548980713,"216":2.0119380950927734,"217":0.9276251792907715,"218":1.2564733028411865,"219":-0.3258278965950012,"220":1.0368770360946655,"221":3.1150503158569336,"222":-0.34951481223106384,"223":2.2325832843780518,"224":-2.8377182483673096,"225":2.7664146423339844,"226":-1.5800780057907104,"227":-1.1350950002670288,"228":0.8777788877487183,"229":2.5744032859802246,"230":0.6537984609603882,"231":-0.6304055452346802,"232":-1.1789740324020386,"233":-2.2821543216705322,"234":-2.6954963207244873,"235":0.31767430901527405,"236":-1.193773627281189,"237":-1.9349957704544067,"238":3.1665639877319336,"239":1.5664992332458496,"240":-0.45852237939834595,"241":1.7658047676086426,"242":-1.849589467048645,"243":0.7421662211418152,"244":1.9440085887908936,"245":-2.0368449687957764,"246":0.20023269951343536,"247":1.5660899877548218,"248":-0.9724541902542114,"249":-0.21064428985118866,"250":-1.5940111875534058,"251":0.7053613662719727,"252":0.09316682070493698,"253":-1.8408074378967285,"254":0.8366451859474182,"255":2.746051073074341,"256":-4.600181579589844,"257":2.3334484100341797,"258":2.41896653175354,"259":-0.36045950651168823,"260":1.4243555068969727,"261":-1.8615864515304565,"262":1.5675538778305054,"263":6.4807024002075195,