{"data":{"SaveState":{"type":"GRU","options":{"inputSize":12,"inputRange":12,"hiddenLayers":[20,20],"outputSize":12,"decayRate":0.999,"smoothEps":1e-8,"regc":0.000001,"clipval":5,"maxPredictionLength":100,"dataFormatter":{"values":["#F0F8FF","Alice"],"indexTable":{"0":2,"8":3,"#":0,"F":1,"A":4,"l":5,"i":6,"c":7,"e":8,"stop-input":9,"start-output":10,"unrecognized":11},"characterTable":{"0":"#","1":"F","2":"0","3":"8","4":"A","5":"l","6":"i","7":"c","8":"e","9":null,"10":null,"11":null},"characters":["#","F","0","8","A","l","i","c","e","stop-input","start-output","unrecognized"],"specialIndexes":[9,10,11]}},"input":{"rows":13,"columns":12,"weights":{"0":1.1575433015823364,"1":-1.1229069232940674,"2":1.1813312768936157,"3":-0.289904922246933,"4":3.665283679962158,"5":1.1423593759536743,"6":1.1924103498458862,"7":-0.15797758102416992,"8":-0.9296727180480957,"9":-1.3886481523513794,"10":2.9850802421569824,"11":-1.132804036140442,"12":-0.818903386592865,"13":0.6424837708473206,"14":-5.295302391052246,"15":0.937018096446991,"16":3.6836748123168945,"17":0.2474747896194458,"18":0.4922608435153961,"19":1.5926885604858398,"20":-1.7311439514160156,"21":0.8601908683776855,"22":2.629687547683716,"23":0.9543991088867188,"24":-34.713558197021484,"25":-2.374936580657959,"26":20.101613998413086,"27":9.727714538574219,"28":-47.68388748168945,"29":-15.628103256225586,"30":-47.84405517578125,"31":-49.97565841674805,"32":6.816056728363037,"33":18.709562301635742,"34":-9.1861572265625,"35":8.212992668151855,"36":-0.4984833598136902,"37":-0.3686942756175995,"38":3.4356794357299805,"39":-2.832200765609741,"40":0.8293112516403198,"41":1.4830371141433716,"42":-2.8123979568481445,"43":-5.280710697174072,"44":-1.2440637350082397,"45":1.201130986213684,"46":-4.674405097961426,"47":2.5481908321380615,"48":-3.6660916805267334,"49":-0.5934367179870605,"50":-3.0926647186279297,"51":-0.45750436186790466,"52":1.7254489660263062,"53":1.7921255826950073,"54":-5.900435447692871,"55":-0.052415162324905396,"56":-1.8996824026107788,"57":3.0169615745544434,"58":-1.4563331604003906,"59":-0.5095058083534241,"60":-0.40077418088912964,"61":0.7738376259803772,"62":2.629303455352783,"63":-1.0746278762817383,"64":1.8583481311798096,"65":0.5288429856300354,"66":1.4871656894683838,"67":-0.0451788567006588,"68":-1.5433145761489868,"69":-0.31787291169166565,"70":-3.779538631439209,"71":-1.315325379371643,"72":425.3339538574219,"73":427.5364990234375,"74":-429.6861877441406,"75":-360.1440734863281,"76":424.29638671875,"77":417.0165100097656,"78":406.7298889160156,"79":-348.2137145996094,"80":-379.14959716796875,"81":-121.65819549560547,"82":430.6176452636719,"83":-410.6095275878906,"84":-29.884170532226562,"85":-29.87602996826172,"86":29.459003448486328,"87":-8.684111595153809,"88":29.095975875854492,"89":27.658824920654297,"90":-31.473005294799805,"91":-30.99842071533203,"92":-29.178897857666016,"93":-29.816539764404297,"94":-28.276752471923828,"95":-28.972572326660156,"96":67.30607604980469,"97":50.29453659057617,"98":100.28345489501953,"99":-46.12718200683594,"100":93.66732025146484,"101":101.85443878173828,"102":71.01493072509766,"103":69.33818054199219,"104":19.654333114624023,"105":-127.45162200927734,"106":73.44264221191406,"107":-62.33195495605469,"108":-2.137155294418335,"109":3.571091890335083,"110":-9.341439247131348,"111":3.071225166320801,"112":-1.3944110870361328,"113":-0.18776646256446838,"114":-3.101236343383789,"115":-0.6470683217048645,"116":1.220510482788086,"117":1.9412498474121094,"118":-1.2505780458450317,"119":1.6313259601593018,"120":-1.7294988632202148,"121":-1.1803141832351685,"122":-0.6795963048934937,"123":-1.4836615324020386,"124":0.11606255173683167,"125":-0.6247807741165161,"126":-2.000864028930664,"127":-6.176163196563721,"128":-3.253575563430786,"129":4.041903972625732,"130":-0.24943344295024872,"131":-1.756990909576416,"132":-0.2000148892402649,"133":3.5332531929016113,"134":3.0520756244659424,"135":1.53831148147583,"136":-0.6784054040908813,"137":0.15806417167186737,"138":1.2450082302093506,"139":-0.46268847584724426,"140":2.4188790321350098,"141":-1.1667243242263794,"142":-0.9410902261734009,"143":-1.6572554111480713,"144":-0.93473219871521,"145":4.770270347595215,"146":-1.5848835706710815,"147":0.7553301453590393,"148":-2.419790029525757,"149":-2.0120062828063965,"150":-3.1459782123565674,"151":2.360231637954712,"152":1.4209809303283691,"153":-4.269800662994385,"154":2.1690666675567627,"155":-1.456796646118164}},"hiddenLayers":[{"updateGateInputMatrix":{"rows":20,"columns":12,"weights":{"0":2.559011220932007,"1":-1.9164941310882568,"2":-0.7363979816436768,"3":-2.150106906890869,"4":0.040863651782274246,"5":1.414251685142517,"6":0.7955183982849121,"7":-2.510589599609375,"8":-0.8290050625801086,"9":0.1358993649482727,"10":2.7525291442871094,"11":0.5503853559494019,"12":4.807260513305664,"13":-1.7466895580291748,"14":-0.27418774366378784,"15":1.0222938060760498,"16":0.154232457280159,"17":1.8086092472076416,"18":1.56239652633667,"19":0.2491934597492218,"20":1.6505846977233887,"21":-3.2094192504882812,"22":4.010424613952637,"23":0.7986798882484436,"24":1.4025603532791138,"25":2.9347426891326904,"26":3.8436427116394043,"27":3.00658917427063,"28":-3.3053884506225586,"29":-1.382295846939087,"30":-1.5890886783599854,"31":0.1138964369893074,"32":3.775660753250122,"33":-2.153099298477173,"34":-1.490671157836914,"35":2.876363515853882,"36":0.07904575765132904,"37":-0.7210776805877686,"38":2.2270402908325195,"39":2.3830978870391846,"40":-2.1045968532562256,"41":0.14466339349746704,"42":0.7336285710334778,"43":-2.3855478763580322,"44":0.7848420739173889,"45":-0.4011256694793701,"46":-0.5783568024635315,"47":2.3696954250335693,"48":0.4767106771469116,"49":-1.2456125020980835,"50":-2.1842920780181885,"51":-0.0847073569893837,"52":-1.2019740343093872,"53":2.783871650695801,"54":-2.9582347869873047,"55":2.391129970550537,"56":1.9253911972045898,"57":-2.3696742057800293,"58":1.1209571361541748,"59":1.405090570449829,"60":-1.7322357892990112,"61":2.129528045654297,"62":-0.9538341164588928,"63":2.984959363937378,"64":-0.6326884627342224,"65":-5.167808532714844,"66":-0.9457607269287109,"67":-1.061184287071228,"68":0.5378919839859009,"69":2.1732277870178223,"70":1.9627074003219604,"71":-0.21732470393180847,"72":2.780860662460327,"73":-0.4906855821609497,"74":0.7132189869880676,"75":0.564557671546936,"76":-0.6174343228340149,"77":-1.208509087562561,"78":-1.0078182220458984,"79":3.1563639640808105,"80":-0.30718350410461426,"81":-3.369572162628174,"82":2.050673246383667,"83":0.9769108295440674,"84":1.4825434684753418,"85":-1.1342637538909912,"86":-0.6306471228599548,"87":0.6063719987869263,"88":0.35250452160835266,"89":1.9567335844039917,"90":2.428988218307495,"91":-0.08665961027145386,"92":-1.7764862775802612,"93":-0.3462059497833252,"94":3.2709827423095703,"95":1.0850750207901,"96":4.058187961578369,"97":-0.2590349018573761,"98":1.110519289970398,"99":0.21095463633537292,"100":-1.6041982173919678,"101":1.1906142234802246,"102":-0.4285890758037567,"103":2.3430593013763428,"104":2.242914915084839,"105":-3.226332902908325,"106":1.6211658716201782,"107":-1.746846079826355,"108":0.3657480478286743,"109":-1.0267066955566406,"110":-0.29746338725090027,"111":0.599928617477417,"112":-0.19359910488128662,"113":2.209092140197754,"114":-0.5981941223144531,"115":-4.112455368041992,"116":-2.3698322772979736,"117":1.1663131713867188,"118":-1.8310928344726562,"119":1.8319603204727173,"120":3.1800780296325684,"121":2.9510931968688965,"122":-1.6699904203414917,"123":-0.03824485093355179,"124":-0.2653908133506775,"125":2.5376579761505127,"126":0.1995931714773178,"127":2.017524242401123,"128":3.1234285831451416,"129":-1.246629238128662,"130":1.9875619411468506,"131":-4.102452754974365,"132":-1.5740792751312256,"133":0.15495172142982483,"134":4.285431385040283,"135":2.2872650623321533,"136":-0.2524624168872833,"137":1.4085110425949097,"138":2.3677480220794678,"139":-3.4188733100891113,"140":0.21040762960910797,"141":1.0673091411590576,"142":-5.535684585571289,"143":-0.3197494447231293,"144":-2.2637341022491455,"145":3.5329360961914062,"146":-0.5887162089347839,"147":-4.353657245635986,"148":1.9523028135299683,"149":-0.005313809961080551,"150":1.4944852590560913,"151":0.21444635093212128,"152":0.5630196332931519,"153":3.581894636154175,"154":-2.705235481262207,"155":-0.9386852383613586,"156":-0.1231311708688736,"157":-5.388733386993408,"158":-2.6875367164611816,"159":-1.488173484802246,"160":2.613476276397705,"161":1.2812951803207397,"162":0.02128261886537075,"163":-0.6103013753890991,"164":-3.1199159622192383,"165":0.19770954549312592,"166":3.518211841583252,"167":-1.8893057107925415,"168":1.465617299079895,"169":-0.6924285888671875,"170":0.7105903029441833,"171":3.5529775619506836,"172":0.7920985221862793,"173":-0.9474549889564514,"174":2.6956984996795654,"175":0.7910283207893372,"176":1.645200252532959,"177":-1.0496771335601807,"178":6.260202884674072,"179":0.4509865939617157,"180":-0.3617897629737854,"181":-1.8112295866012573,"182":2.518994092941284,"183":0.6830126047134399,"184":0.7941490411758423,"185":-0.676985502243042,"186":3.191756248474121,"187":-1.6844801902770996,"188":-2.7772438526153564,"189":0.6497149467468262,"190":-1.2327184677124023,"191":-1.7783282995224,"192":2.782712936401367,"193":1.66541588306427,"194":-1.5270485877990723,"195":1.4720879793167114,"196":1.3040270805358887,"197":0.458442360162735,"198":3.0617921352386475,"199":1.0031402111053467,"200":1.8136707544326782,"201":-0.12690113484859467,"202":1.5145068168640137,"203":-1.80765962600708,"204":0.04466673731803894,"205":0.6868782043457031,"206":2.2588107585906982,"207":-2.6144602298736572,"208":-0.7759951949119568,"209":-0.21101412177085876,"210":-1.0190389156341553,"211":-0.40491223335266113,"212":1.3541370630264282,"213":-2.737518787384033,"214":-0.2749116122722626,"215":-5.42480993270874,"216":-0.45118868350982666,"217":-0.6273648738861084,"218":-2.317293167114258,"219":-0.9798387885093689,"220":1.9445451498031616,"221":0.9781532883644104,"222":0.20236502587795258,"223":-3.1081700325012207,"224":-2.9779765605926514,"225":1.893161416053772,"226":-0.17050179839134216,"227":1.3957868814468384,"228":-0.8248276114463806,"229":-1.9459142684936523,"230":-1.1463924646377563,"231":-0.4897777736186981,"232":-0.6431042551994324,"233":-1.7894707918167114,"234":2.4442896842956543,"235":-1.6651756763458252,"236":-3.573284864425659,"237":0.9736515283584595,"238":3.684985399246216,"239":-2.7281365394592285}},"updateGateHiddenMatrix":{"rows":20,"columns":20,"weights":{"0":-1.2928005456924438,"1":-1.8664382696151733,"2":1.140824794769287,"3":-3.4044740200042725,"4":-5.057246208190918,"5":-1.8383088111877441,"6":3.44110107421875,"7":0.9519375562667847,"8":-2.5497632026672363,"9":0.5599903464317322,"10":-1.3165256977081299,"11":-0.6434056758880615,"12":0.3689437210559845,"13":-3.0793371200561523,"14":5.377172470092773,"15":1.6263195276260376,"16":6.931957244873047,"17":1.3993397951126099,"18":1.3588732481002808,"19":-0.7333874106407166,"20":0.45383507013320923,"21":3.984250783920288,"22":-0.7507906556129456,"23":3.423259735107422,"24":-0.8720489144325256,"25":-0.31587284803390503,"26":-2.4382545948028564,"27":2.4690160751342773,"28":0.7351183295249939,"29":1.5147721767425537,"30":2.4402499198913574,"31":-2.393739700317383,"32":-1.283169150352478,"33":-1.7272136211395264,"34":2.253875732421875,"35":2.2118353843688965,"36":-2.2945005893707275,"37":1.2601544857025146,"38":-3.005371332168579,"39":-1.646955966949463,"40":-0.3296849727630615,"41":-1.1173648834228516,"42":-4.175205707550049,"43":1.4649064540863037,"44":1.7772990465164185,"45":0.7767048478126526,"46":1.6766449213027954,"47":-0.11712316423654556,"48":2.915891408920288,"49":0.7792885303497314,"50":0.12349840998649597,"51":-4.328882217407227,"52":-0.9772237539291382,"53":-1.4648046493530273,"54":-2.393186092376709,"55":-0.11064231395721436,"56":1.8174552917480469,"57":-1.0811967849731445,"58":-4.098538875579834,"59":3.465644121170044,"60":0.5319189429283142,"61":1.8278387784957886,"62":1.676218032836914,"63":0.0778643861413002,"64":-3.4166507720947266,"65":-0.8069624900817871,"66":-6.618192672729492,"67":3.2535345554351807,"68":2.300241231918335,"69":2.2790417671203613,"70":3.1979289054870605,"71":1.755637288093567,"72":6.528748035430908,"73":0.5023325085639954,"74":-2.6855783462524414,"75":2.3075978755950928,"76":-2.790266513824463,"77":-2.9433016777038574,"78":2.076228141784668,"79":-1.0177083015441895,"80":-0.05582966282963753,"81":-0.5632236003875732,"82":-2.2598795890808105,"83":0.4213375151157379,"84":1.7601970434188843,"85":-2.217954158782959,"86":0.20608389377593994,"87":0.2278689444065094,"88":-1.917446494102478,"89":1.1081900596618652,"90":-0.5943059325218201,"91":1.174835443496704,"92":1.3051775693893433,"93":-1.6260117292404175,"94":0.11116231232881546,"95":0.26343780755996704,"96":1.323230266571045,"97":-1.2361477613449097,"98":-0.35188379883766174,"99":-0.5473309755325317,"100":0.8323336839675903,"101":-0.8283568024635315,"102":2.2656593322753906,"103":2.2468926906585693,"104":0.35117846727371216,"105":0.1662798970937729,"106":-1.1528664827346802,"107":-0.04663112387061119,"108":2.4096829891204834,"109":-2.3540167808532715,"110":-5.325105667114258,"111":-1.6315176486968994,"112":1.7364771366119385,"113":0.7325417399406433,"114":-3.3966877460479736,"115":1.0778748989105225,"116":0.8777778744697571,"117":1.678500771522522,"118":3.622124195098877,"119":2.8279659748077393,"120":1.008584976196289,"121":2.265479564666748,"122":-1.0480648279190063,"123":-2.205134153366089,"124":-0.9587849974632263,"125":-3.572704553604126,"126":3.085069179534912,"127":-1.5211331844329834,"128":-4.358303546905518,"129":2.0253560543060303,"130":-0.4339679479598999,"131":4.208669662475586,"132":-4.3286895751953125,"133":-0.17313581705093384,"134":2.9883840084075928,"135":0.3724351227283478,"136":3.8240365982055664,"137":3.5568580627441406,"138":0.23211492598056793,"139":-2.8171303272247314,"140":1.2743761539459229,"141":-0.554447591304779,"142":2.394667387008667,"143":2.7708184719085693,"144":-5.109165668487549,"145":-2.720010280609131,"146":-0.804164469242096,"147":-1.499466061592102,"148":-0.3881973326206207,"149":1.9999338388442993,"150":1.910804271697998,"151":0.9287043213844299,"152":-0.8299170732498169,"153":-0.789523720741272,"154":3.7435142993927,"155":1.9883403778076172,"156":0.8217037916183472,"157":1.2574313879013062,"158":-0.3258189558982849,"159":-4.028004169464111,"160":2.4303455352783203,"161":-1.7088361978530884,"162":-0.47302234172821045,"163":-0.9855775237083435,"164":-0.7243574261665344,"165":-1.2190638780593872,"166":2.3642117977142334,"167":-0.618050754070282,"168":-1.1108853816986084,"169":0.08598893135786057,"170":-0.673372745513916,"171":-1.8328924179077148,"172":1.3120830059051514,"173":-5.2283034324646,"174":-1.5522425174713135,"175":3.7974658012390137,"176":-0.1311265081167221,"177":-1.9530949592590332,"178":-5.244781970977783,"179":-2.102195978164673,"180":-2.803307056427002,"181":-0.7816057205200195,"182":-3.255645990371704,"183":0.667509913444519,"184":0.9127829074859619,"185":-2.6579198837280273,"186":1.0975754261016846,"187":-1.0885419845581055,"188":-4.2215046882629395,"189":-0.40834125876426697,"190":-1.7920105457305908,"191":0.9054551124572754,"192":-3.165191650390625,"193":-3.3876030445098877,"194":0.7249462604522705,"195":1.7370619773864746,"196":1.1744717359542847,"197":-2.913003921508789,"198":-2.0457077026367188,"199":-0.6901401281356812,"200":-1.0636351108551025,"201":0.06347176432609558,"202":-0.9762853384017944,"203":2.722451686859131,"204":-3.232074737548828,"205":-4.828089237213135,"206":-4.4263787269592285,"207":0.8733213543891907,"208":3.893901824951172,"209":-2.702099561691284,"210":-0.6557536721229553,"211":-0.9677383303642273,"212":-1.1797810792922974,"213":1.5817090272903442,"214":-3.243922472000122,"215":1.9164912700653076,"216":-1.1160881519317627,"217":0.7026863694190979,"218":-2.5283684730529785,"219":-4.028372764587402,"220":-3.5340845584869385,"221":1.3990404605865479,"222":-5.783185005187988,"223":-2.8010799884796143,"224":0.6334988474845886,"225":-1.8278250694274902,"226":-1.5744822025299072,"227":0.9914668798446655,"228":-1.1797791719436646,"229":2.1777915954589844,"230":-0.7113860845565796,"231":-1.3386168479919434,"232":-1.8142887353897095,"233":-4.390491008758545,"234":1.2114124298095703,"235":-0.631163477897644,"236":1.2194570302963257,"237":2.3968217372894287,"238":1.3443912267684937,"239":-3.0078699588775635,"240":3.6639597415924072,"241":2.4575939178466797,"242":3.0012693405151367,"243":-0.5979773998260498,"244":0.9443435668945312,"245":2.1984283924102783,"246":-2.0067553520202637,"247":-1.9575161933898926,"248":2.441335678100586,"249":-2.1067771911621094,"250":1.446128010749817,"251":-0.5918381214141846,"252":-1.9680863618850708,"253":4.471875190734863,"254":2.922508478164673,"255":2.7649729251861572,"256":2.24721360206604,"257":0.6314885020256042,"258":0.3738878071308136,"259":1.0278644561767578,"260":-0.650658130645752,"261":1.3773925304412842,"262":-2.1837706565856934,"263":-3.226369857788086,"264":0.17017881572246552,"265":-2.113004207611084,"266":1.4378260374069214,"267":-0.25997546315193176,"268":-3.8243770599365234,"269":1.1466165781021118,"270":1.140096664428711,"271":3.315894365310669,"272":-0.9841852784156799,"273":0.4557071030139923,"274":0.6629478931427002,"275":0.6212412714958191,"276":0.49562567472457886,"277":-0.5829769968986511,"278":2.6040008068084717,"279":-2.8278353214263916,"280":-1.4131227731704712,"281":1.9745491743087769,"282":-1.2584362030029297,"283":-0.7726144194602966,"284":1.2568084001541138,"285":1.789981722831726,"286":-1.2897857427597046,"287":1.603447675704956,"288":-0.5900079011917114,"289":2.6593551635742188,"290":2.6000192165374756,"291":-0.23391535878181458,"292":-7.407229423522949,"293":1.3728933334350586,"294":0.646828293800354,"295":-0.37900277972221375,"296":-1.0031518936157227,"297":-0.18420381844043732,"298":-1.4542577266693115,"299":-3.1067605018615723,"300":2.876558542251587,"301":1.5009350776672363,"302":2.5022239685058594,"303":2.080178737640381,"304":-4.486498832702637,"305":1.9102075099945068,"306":-1.387012004852295,"307":-0.6363329887390137,"308":-1.0504629611968994,"309":-1.3433459997177124,"310":2.53019380569458,"311":1.3873460292816162,"312":-2.5873756408691406,"313":1.3250036239624023,"314":-1.0588780641555786,"315":-3.978416919708252,"316":-2.944248914718628,"317":1.1187301874160767,"318":-2.337127685546875,"319":-1.2702676057815552,"320":0.6294506192207336,"321":-2.5247442722320557,"322":-0.4419294595718384,"323":-3.4011764526367188,"324":-1.217968463897705,"325":2.8915493488311768,"326":-4.68255090713501,"327":0.5182026624679565,"328":-1.3946770429611206,"329":-5.76264762878418,"330":1.3356870412826538,"331":-0.5484071373939514,"332":-1.837011694908142,"333":-2.062582015991211,"334":-3.647092580795288,"335":3.511988639831543,"336":-4.4247541427612305,"337":-6.608790874481201,"338":-1.1851921081542969,"339":3.713406562805176,"340":-1.5097157955169678,"341":-0.6107322573661804,"342":-1.270521640777588,"343":2.2111449241638184,"344":1.8041104078292847,"345":2.5065977573394775,"346":1.591133713722229,"347":0.33785825967788696,"348":1.5678470134735107,"349":-2.0955076217651367,"350":-2.647562026977539,"351":-1.8564932346343994,"352":1.0204321146011353,"353":1.6849430799484253,"354":0.012700558640062809,"355":-0.6473212838172913,"356":0.4841374158859253,"357":2.536782741546631,"358":-1.163838267326355,"359":3.155486583709717,"360":2.838676691055298,"361":0.5118698477745056,"362":-2.6896440982818604,"363":3.0709452629089355,"364":-1.1737327575683594,"365":0.8834314346313477,"366":-0.2862706184387207,"367":1.6078139543533325,"368":0.4078991115093231,"369":-0.6648164987564087,"370":-2.4537532329559326,"371":1.3239394426345825,"372":-1.0989702939987183,"373":-1.08169424533844,"374":-1.0580497980117798,"375":2.679567575454712,"376":0.7551844716072083,"377":-1.2959591150283813,"378":0.33170244097709656,"379":0.5211323499679565,"380":2.3242149353027344,"381":4.086963653564453,"382":-2.366055727005005,"383":-3.7438807487487793,"384":-3.158838987350464,"385":-5.047532558441162,"386":-0.901303231716156,"387":-2.0423505306243896,"388":0.39596304297447205,"389":-2.0111024379730225,"390":4.432818412780762,"391":0.8250088691711426,"392":0.1172330230474472,"393":0.9589126706123352,"394":0.06888838857412338,"395":-1.6653589010238647,"396":1.772210717201233,"397":2.235851287841797,"398":0.824425220489502,"399":-2.414702892303467}},"updateGateBias":{"rows":20,"columns":1,"weights":{"0":0,"1":0,"2":0,"3":0,"4":0,"5":0,"6":0,"7":0,"8":0,"9":0,"10":0,"11":0,"12":0,"13":0,"14":0,"15":0,"16":0,"17":0,"18":0,"19":0}},"resetGateInputMatrix":{"rows":20,"columns":12,"weights":{"0":1.3951194286346436,"1":-2.3677427768707275,"2":-1.6781222820281982,"3":-1.4620277881622314,"4":1.7207753658294678,"5":-0.2264908105134964,"6":2.419459819793701,"7":0.9058560132980347,"8":-1.4668622016906738,"9":1.0582590103149414,"10":2.251779556274414,"11":-0.744099497795105,"12":0.46578341722488403,"13":-0.7009456753730774,"14":0.3035796582698822,"15":-2.811218738555908,"16":2.795625925064087,"17":3.0996601581573486,"18":2.7298123836517334,"19":-0.7179067730903625,"20":-1.9668887853622437,"21":-0.6506789326667786,"22":-1.3435449600219727,"23":1.6754119396209717,"24":1.0515267848968506,"25":-1.9368118047714233,"26":1.0412863492965698,"27":-1.135724663734436,"28":-0.19256284832954407,"29":1.194698452949524,"30":-0.5659452080726624,"31":-3.5921006202697754,"32":-0.8904190063476562,"33":3.588569402694702,"34":0.5352720022201538,"35":-1.9932894706726074,"36":-1.2131291627883911,"37":0.8297194242477417,"38":-0.14998556673526764,"39":-0.42761555314064026,"40":0.04340251162648201,"41":1.4683191776275635,"42":-0.045896273106336594,"43":-0.033610355108976364,"44":-1.6164684295654297,"45":0.8325665593147278,"46":-1.9254225492477417,"47":3.9828996658325195,"48":-4.631038665771484,"49":-1.378058671951294,"50":1.4702025651931763,"51":-2.025848865509033,"52":-0.06805664300918579,"53":1.678425669670105,"54":2.778057098388672,"55":-1.2725034952163696,"56":-0.7424956560134888,"57":0.48263534903526306,"58":-2.1624608039855957,"59":-4.040782928466797,"60":1.3595753908157349,"61":-2.4163875579833984,"62":-2.7481625080108643,"63":1.1707261800765991,"64":-2.0329205989837646,"65":-1.3132141828536987,"66":-1.4882662296295166,"67":0.025273295119404793,"68":1.4969960451126099,"69":0.6246108412742615,"70":1.5225611925125122,"71":-1.9486750364303589,"72":1.9318052530288696,"73":1.214288592338562,"74":2.530040740966797,"75":0.6495042443275452,"76":-0.5919106006622314,"77":0.15079541504383087,"78":0.236484557390213,"79":0.40708762407302856,"80":0.9310358166694641,"81":-2.8924882411956787,"82":-1.5671648979187012,"83":-0.06098202243447304,"84":-2.283733367919922,"85":-1.416913628578186,"86":0.4648362696170807,"87":-2.400130271911621,"88":2.40697979927063,"89":-0.03978986665606499,"90":1.632408618927002,"91":-2.7664084434509277,"92":-0.5790544748306274,"93":0.4706907570362091,"94":-1.1362429857254028,"95":-2.3671467304229736,"96":-0.28070083260536194,"97":-0.9472182989120483,"98":-0.6893643140792847,"99":-2.1164822578430176,"100":3.603217840194702,"101":1.5447108745574951,"102":0.356037437915802,"103":-1.8056142330169678,"104":-3.763505458831787,"105":-0.45750531554222107,"106":-0.14707136154174805,"107":-1.094408392906189,"108":0.7545570731163025,"109":-3.5914204120635986,"110":-1.429267168045044,"111":-1.0732442140579224,"112":1.6090784072875977,"113":-0.2538771331310272,"114":-0.5804546475410461,"115":-1.3261414766311646,"116":-2.649620532989502,"117":0.6294593811035156,"118":0.6342000365257263,"119":-2.5696523189544678,"120":1.510457158088684,"121":-0.17732423543930054,"122":-0.21373772621154785,"123":-0.3471750020980835,"124":0.5807647705078125,"125":1.4767736196517944,"126":0.6321831345558167,"127":3.999769449234009,"128":0.2763932943344116,"129":-3.9250402450561523,"130":2.628720760345459,"131":-1.0901763439178467,"132":-3.0751030445098877,"133":3.7215583324432373,"134":-1.7821189165115356,"135":-0.32440921664237976,"136":2.5822458267211914,"137":1.0316518545150757,"138":-0.06319701671600342,"139":-0.3602035343647003,"140":-3.2030909061431885,"141":1.2270361185073853,"142":0.8418126106262207,"143":-0.8272432088851929,"144":-1.7812438011169434,"145":-2.2879412174224854,"146":-0.4655689001083374,"147":-2.58034348487854,"148":2.43717885017395,"149":3.3510758876800537,"150":2.8667726516723633,"151":-1.761213779449463,"152":-3.037107229232788,"153":-1.0898596048355103,"154":-1.1897672414779663,"155":-1.2411686182022095,"156":0.07729314267635345,"157":-2.9450528621673584,"158":1.7959729433059692,"159":0.4369789958000183,"160":-0.48253995180130005,"161":0.21500633656978607,"162":-0.9132122993469238,"163":-0.93022221326828,"164":0.2952291667461395,"165":-0.9049649238586426,"166":-0.7540415525436401,"167":4.90079927444458,"168":-0.4226975440979004,"169":-0.09974071383476257,"170":0.7343947291374207,"171":-1.487632155418396,"172":0.5731959342956543,"173":-0.18806897103786469,"174":-2.0015430450439453,"175":-0.7802968621253967,"176":-1.9916954040527344,"177":2.585217237472534,"178":1.2354556322097778,"179":0.6778022646903992,"180":-0.36163651943206787,"181":0.3090660274028778,"182":-2.3361144065856934,"183":0.7373269200325012,"184":0.06848809868097305,"185":0.80864018201828,"186":-2.5066866874694824,"187":3.3094356060028076,"188":0.2333054095506668,"189":-1.9871951341629028,"190":-0.24979518353939056,"191":1.8659062385559082,"192":1.2483850717544556,"193":-1.785593867301941,"194":2.618917942047119,"195":-1.519999384880066,"196":-0.018195336684584618,"197":1.2902392148971558,"198":1.820502758026123,"199":-0.760564923286438,"200":0.9537697434425354,"201":0.18972007930278778,"202":-0.06243658810853958,"203":2.171304941177368,"204":-0.18955500423908234,"205":0.9767419099807739,"206":-0.37655171751976013,"207":2.3983683586120605,"208":-1.5661020278930664,"209":-1.1447803974151611,"210":0.030318226665258408,"211":4.404829502105713,"212":2.296973943710327,"213":-1.8196804523468018,"214":0.5266618132591248,"215":1.572522759437561,"216":0.8613820672035217,"217":2.082703113555908,"218":2.1218154430389404,"219":1.9034521579742432,"220":-1.416154384613037,"221":-1.350573182106018,"222":0.2673052251338959,"223":2.8811886310577393,"224":2.401209831237793,"225":-2.390657663345337,"226":1.9301469326019287,"227":-0.6093200445175171,"228":0.3241887092590332,"229":1.819782018661499,"230":-1.6289414167404175,"231":2.5544660091400146,"232":-0.34471437335014343,"233":-0.5898010730743408,"234":-2.8020572662353516,"235":-0.6107795238494873,"236":0.7659962773323059,"237":0.8739975094795227,"238":0.35476914048194885,"239":-0.023221177980303764}},"resetGateHiddenMatrix":{"rows":20,"columns":20,"weights":{"0":-0.23767635226249695,"1":-0.022011997178196907,"2":1.0814409255981445,"3":0.4094868004322052,"4":-0.9259483814239502,"5":-2.178941249847412,"6":-1.216196060180664,"7":0.1451178938150406,"8":-0.11978526413440704,"9":0.6705372929573059,"10":-1.5064177513122559,"11":2.215724229812622,"12":0.18740612268447876,"13":1.0985229015350342,"14":1.6582878828048706,"15":0.4053245484828949,"16":0.8841097354888916,"17":0.8509917855262756,"18":0.7896069884300232,"19":-1.8363358974456787,"20":1.8636531829833984,"21":1.8364096879959106,"22":2.388930559158325,"23":-0.8379337191581726,"24":-0.13145039975643158,"25":1.7236559391021729,"26":-3.1050047874450684,"27":-0.2997192442417145,"28":-1.037279486656189,"29":3.219097375869751,"30":0.13341748714447021,"31":3.2039079666137695,"32":-1.6147135496139526,"33":1.7540299892425537,"34":3.1302826404571533,"35":3.639357089996338,"36":-0.9845399856567383,"37":-3.6757757663726807,"38":1.5138185024261475,"39":0.5942556262016296,"40":0.1600533425807953,"41":-0.05558512732386589,"42":-1.422650933265686,"43":0.5590150952339172,"44":-0.7807512283325195,"45":-1.9923286437988281,"46":-0.6667412519454956,"47":-1.3520958423614502,"48":0.41311919689178467,"49":-2.7915563583374023,"50":0.00783093273639679,"51":2.62386155128479,"52":0.8728020787239075,"53":0.8814554810523987,"54":1.0657105445861816,"55":0.09188027679920197,"56":1.6134897470474243,"57":2.072805643081665,"58":0.20351751148700714,"59":-2.7783362865448,"60":-3.0811808109283447,"61":1.4537134170532227,"62":-2.340545654296875,"63":-3.408113479614258,"64":-1.286902666091919,"65":-1.9827744960784912,"66":1.4867615699768066,"67":1.352225422859192,"68":-1.7926068305969238,"69":6.977220058441162,"70":1.588276982307434,"71":3.2032530307769775,"72":-1.5872020721435547,"73":-2.4805450439453125,"74":3.0379979610443115,"75":-0.4203627407550812,"76":-1.5380688905715942,"77":-0.43407317996025085,"78":2.850071668624878,"79":-2.69118070602417,"80":-1.1478246450424194,"81":-1.570613145828247,"82":3.2229669094085693,"83":1.3270349502563477,"84":0.25006043910980225,"85":2.235440492630005,"86":0.8982441425323486,"87":1.2246743440628052,"88":-0.6837844252586365,"89":0.7141271233558655,"90":1.5457874536514282,"91":0.7411906123161316,"92":1.4473917484283447,"93":1.6811448335647583,"94":2.924733877182007,"95":1.4740618467330933,"96":-1.4724905490875244,"97":0.8196929693222046,"98":1.6230335235595703,"99":0.7990476489067078,"100":-1.9825756549835205,"101":2.023026704788208,"102":-4.583399772644043,"103":1.8795243501663208,"104":-1.902937889099121,"105":-1.4737420082092285,"106":1.1540923118591309,"107":-0.6597690582275391,"108":1.897100806236267,"109":-1.8027597665786743,"110":-1.6140177249908447,"111":0.1308201402425766,"112":-2.4383180141448975,"113":-4.47348165512085,"114":0.8781455755233765,"115":0.5414592027664185,"116":-0.2994481325149536,"117":2.1428191661834717,"118":-1.9272394180297852,"119":-1.7328377962112427,"120":-0.07274423539638519,"121":-0.5237492322921753,"122":-1.1106184720993042,"123":2.9391939640045166,"124":0.9010435342788696,"125":1.8368300199508667,"126":1.2823539972305298,"127":1.3889473676681519,"128":-1.2544796466827393,"129":-1.1194140911102295,"130":1.8811084032058716,"131":-0.858485996723175,"132":0.8611108660697937,"133":-0.2957347631454468,"134":-1.9630581140518188,"135":-0.29484614729881287,"136":-1.6531081199645996,"137":-0.7388173937797546,"138":-0.6668239831924438,"139":-0.1716413050889969,"140":-0.6548804044723511,"141":-0.284842848777771,"142":1.3413798809051514,"143":0.7588319778442383,"144":-1.3307757377624512,"145":2.599930763244629,"146":-0.8153435587882996,"147":0.4131603240966797,"148":0.6572937965393066,"149":-0.5494609475135803,"150":0.6331999897956848,"151":-1.278440237045288,"152":-0.4126550555229187,"153":1.849738359451294,"154":-0.20324711501598358,"155":-0.9350018501281738,"156":-1.656174898147583,"157":2.6979169845581055,"158":0.8836569786071777,"159":1.8531463146209717,"160":3.099571943283081,"161":-0.7388826012611389,"162":-0.4916478991508484,"163":-2.1644232273101807,"164":-0.7455762028694153,"165":-2.2912774085998535,"166":0.587282657623291,"167":1.5751333236694336,"168":-0.11698895692825317,"169":0.017785027623176575,"170":-1.2709354162216187,"171":1.193276047706604,"172":-0.5644477009773254,"173":1.5196967124938965,"174":-1.0927140712738037,"175":0.7854374647140503,"176":-0.2129879593849182,"177":-0.09614093601703644,"178":-0.5056475400924683,"179":0.18607628345489502,"180":-1.173577070236206,"181":-0.19990293681621552,"182":0.17661729454994202,"183":0.1512049287557602,"184":-5.584714412689209,"185":-1.9050817489624023,"186":0.15369729697704315,"187":-0.9518049955368042,"188":2.1211063861846924,"189":-1.2409858703613281,"190":-2.0696663856506348,"191":-0.053752459585666656,"192":0.4275805950164795,"193":-0.5642021298408508,"194":0.02949593774974346,"195":-1.3804601430892944,"196":2.8102262020111084,"197":2.744962215423584,"198":-0.37393927574157715,"199":-2.3516838550567627,"200":1.0130780935287476,"201":3.565957546234131,"202":-0.41211944818496704,"203":-0.7517125010490417,"204":-0.7801007628440857,"205":-0.9112637639045715,"206":0.6522830724716187,"207":-0.026833834126591682,"208":-0.5120075941085815,"209":-2.9364817142486572,"210":-0.4179855287075043,"211":-0.10457039624452591,"212":-0.6007018089294434,"213":-1.8868035078048706,"214":-2.1076910495758057,"215":1.864973783493042,"216":-4.187249660491943,"217":-3.412754535675049,"218":-1.7417218685150146,"219":-0.7177141308784485,"220":-3.404141664505005,"221":1.1766207218170166,"222":-0.12505391240119934,"223":0.9555553793907166,"224":1.5391721725463867,"225":2.3683412075042725,"226":-1.036346435546875,"227":-0.04120621085166931,"228":-1.469967007637024,"229":-1.6521751880645752,"230":0.18296189606189728,"231":-0.8477650284767151,"232":-1.0937498807907104,"233":-0.38268160820007324,"234":-2.3144259452819824,"235":2.0327813625335693,"236":0.2641902565956116,"237":-0.1161418929696083,"238":-1.451646089553833,"239":1.9803541898727417,"240":-0.6545690298080444,"241":1.8714721202850342,"242":-0.16560769081115723,"243":-0.6933298110961914,"244":-2.00703763961792,"245":1.712096929550171,"246":1.6998571157455444,"247":-0.8462178111076355,"248":0.09886043518781662,"249":1.1831305027008057,"250":0.5991353392601013,"251":1.8824394941329956,"252":-0.5448166728019714,"253":1.7824456691741943,"254":1.969947338104248,"255":-0.8114287853240967,"256":-1.8148216009140015,"257":0.5911776423454285,"258":-2.0504024028778076,"259":-2.6343932151794434,"260":-1.6877003908157349,"261":-1.4301100969314575,"262":3.8686680793762207,"263":-0.11335067451000214,"264":-0.4276663661003113,"265":-0.11976643651723862,"266":0.9781659841537476,"267":0.16097711026668549,"268":-2.14482045173645,"269":1.3045799732208252,"270":-1.0771729946136475,"271":2.603818655014038,"272":1.1541417837142944,"273":4.294283390045166,"274":0.9352317452430725,"275":-2.6016509532928467,"276":1.054945945739746,"277":-0.20263953506946564,"278":1.113477110862732,"279":1.285857915878296,"280":-1.1612545251846313,"281":-2.4997053146362305,"282":1.8342796564102173,"283":-1.2786003351211548,"284":-2.697155714035034,"285":-2.0646491050720215,"286":-1.6317834854125977,"287":-1.12447988986969,"288":2.495197057723999,"289":0.42604580521583557,"290":0.14822538197040558,"291":2.152895927429199,"292":2.0794436931610107,"293":-0.7803723812103271,"294":-0.5402048826217651,"295":-0.4999803602695465,"296":-0.28285354375839233,"297":2.2587730884552,"298":-0.5085182785987854,"299":-0.30405178666114807,"300":0.6540261507034302,"301":0.6759758591651917,"302":1.7052335739135742,"303":-1.9259902238845825,"304":0.3107950687408447,"305":-1.5618795156478882,"306":-1.4226151704788208,"307":-0.03897953778505325,"308":-2.9791176319122314,"309":0.7265861630439758,"310":-0.2877596616744995,"311":1.3912341594696045,"312":-0.8593754768371582,"313":-0.11070803552865982,"314":0.09640458971261978,"315":-0.5523079633712769,"316":1.4144288301467896,"317":-1.327170968055725,"318":-1.4177688360214233,"319":0.4644245505332947,"320":-4.228392124176025,"321":-0.4657764732837677,"322":-2.5638515949249268,"323":1.0079044103622437,"324":-0.4436992108821869,"325":-1.9581588506698608,"326":-2.900916576385498,"327":4.540090084075928,"328":3.621289014816284,"329":-0.3150429427623749,"330":0.21182836592197418,"331":1.550887107849121,"332":-1.1573677062988281,"333":0.0995195060968399,"334":0.7980976104736328,"335":-1.8621948957443237,"336":-1.1188198328018188,"337":3.9442334175109863,"338":-2.903696060180664,"339":-3.9119925498962402,"340":-1.8425943851470947,"341":1.267484188079834,"342":0.4400832951068878,"343":0.7541109323501587,"344":0.22576302289962769,"345":-0.24253186583518982,"346":-0.38992834091186523,"347":1.2974144220352173,"348":1.1443902254104614,"349":0.6086362600326538,"350":1.464023232460022,"351":-1.008650541305542,"352":-1.1225334405899048,"353":-1.7305514812469482,"354":1.779010534286499,"355":0.52574622631073,"356":0.9552733898162842,"357":-0.7929199934005737,"358":-0.8185563683509827,"359":0.27195093035697937,"360":-0.14776670932769775,"361":-3.2000739574432373,"362":0.6064514517784119,"363":0.2552257180213928,"364":-2.4281346797943115,"365":0.07625048607587814,"366":-0.3018273413181305,"367":-1.0219178199768066,"368":1.587906837463379,"369":-0.34191277623176575,"370":0.7201296091079712,"371":-0.5270869731903076,"372":2.2021965980529785,"373":0.9732910990715027,"374":0.3136812448501587,"375":-1.7789438962936401,"376":-0.39718112349510193,"377":1.855621099472046,"378":2.51188325881958,"379":-0.30439507961273193,"380":1.7044681310653687,"381":2.54196834564209,"382":-0.9499420523643494,"383":3.37666654586792,"384":1.3073740005493164,"385":-1.0180909633636475,"386":-3.626748561859131,"387":-2.9814133644104004,"388":5.577030181884766,"389":-2.28141188621521,"390":-0.43142542243003845,"391":-2.51062273979187,"392":3.2197537422180176,"393":1.353574514389038,"394":-2.732086181640625,"395":1.680830717086792,"396":0.8840107917785645,"397":1.3189953565597534,"398":-0.12354443967342377,"399":2.886596441268921}},"resetGateBias":{"rows":20,"columns":1,"weights":{"0":0,"1":0,"2":0,"3":0,"4":0,"5":0,"6":0,"7":0,"8":0,"9":0,"10":0,"11":0,"12":0,"13":0,"14":0,"15":0,"16":0,"17":0,"18":0,"19":0}},"cellWriteInputMatrix":{"rows":20,"columns":12,"weights":{"0":1.1795872449874878,"1":0.6927681565284729,"2":1.0174462795257568,"3":-0.6251769065856934,"4":-1.5583500862121582,"5":-1.5529873371124268,"6":0.9584521651268005,"7":0.7382345199584961,"8":0.36055707931518555,"9":-4.085878372192383,"10":-1.2290469408035278,"11":-0.03506641834974289,"12":0.17455697059631348,"13":-2.5990419387817383,"14":-0.4382047653198242,"15":-1.276386022567749,"16":0.6013390421867371,"17":1.7710025310516357,"18":-0.8863181471824646,"19":-1.0536853075027466,"20":-0.4564441740512848,"21":-0.4720926284790039,"22":-1.7348967790603638,"23":0.14838744699954987,"24":0.7293226718902588,"25":-1.2635406255722046,"26":-0.420307993888855,"27":0.6481273770332336,"28":-1.5249180793762207,"29":1.228310227394104,"30":-1.8291759490966797,"31":-3.4261882305145264,"32":1.0193915367126465,"33":1.5194690227508545,"34":-1.3076711893081665,"35":0.48093119263648987,"36":0.15101860463619232,"37":-1.2281664609909058,"38":0.15466265380382538,"39":0.6287990808486938,"40":-0.3763103783130646,"41":-1.3578276634216309,"42":-0.4517289996147156,"43":0.24837307631969452,"44":0.3469100892543793,"45":-0.4860072135925293,"46":2.0990381240844727,"47":-2.0696990489959717,"48":-0.02572796680033207,"49":0.3418940305709839,"50":-0.31382739543914795,"51":-1.2135854959487915,"52":2.345207929611206,"53":1.141950011253357,"54":-1.1150575876235962,"55":-1.563552737236023,"56":-2.711183547973633,"57":-0.03859492018818855,"58":0.7118952870368958,"59":0.2916528284549713,"60":1.9041128158569336,"61":1.0922660827636719,"62":2.5890848636627197,"63":-1.1345545053482056,"64":0.4037363529205322,"65":1.0613577365875244,"66":-1.2507787942886353,"67":-0.1871492713689804,"68":0.3938014507293701,"69":-1.7864093780517578,"70":0.5855537056922913,"71":-0.28151819109916687,"72":2.102890729904175,"73":0.20544150471687317,"74":-2.956068992614746,"75":1.2473843097686768,"76":1.1239367723464966,"77":-0.2687014639377594,"78":0.21230648458003998,"79":2.736576795578003,"80":0.22140780091285706,"81":0.047446414828300476,"82":1.7569936513900757,"83":-0.8359105587005615,"84":-0.6004341840744019,"85":-0.878527820110321,"86":-1.0947550535202026,"87":-0.48804372549057007,"88":0.7431125044822693,"89":1.093011736869812,"90":-0.644888162612915,"91":-1.1853195428848267,"92":-1.098494291305542,"93":1.7526174783706665,"94":-0.0014457671204581857,"95":0.5037603378295898,"96":-0.8572749495506287,"97":-2.3130056858062744,"98":1.2908464670181274,"99":-1.1885112524032593,"100":-1.7611643075942993,"101":0.7883397340774536,"102":-1.1218254566192627,"103":-0.12272167205810547,"104":-0.5760534405708313,"105":0.9588529467582703,"106":-0.17469194531440735,"107":1.0394608974456787,"108":-1.100308895111084,"109":-2.3529350757598877,"110":-0.6010183691978455,"111":-1.0131700038909912,"112":0.33165818452835083,"113":0.34401702880859375,"114":1.077484130859375,"115":-1.3708298206329346,"116":-1.7535204887390137,"117":0.3004685938358307,"118":1.3079323768615723,"119":-2.1788389682769775,"120":-1.3269850015640259,"121":-0.1823851466178894,"122":2.393427848815918,"123":-2.281430244445801,"124":1.142236590385437,"125":0.9702425003051758,"126":-0.7693895697593689,"127":0.2624254524707794,"128":-2.2910706996917725,"129":-0.10947638005018234,"130":-1.390037178993225,"131":-1.174435019493103,"132":0.4633941948413849,"133":-2.1201319694519043,"134":2.216078042984009,"135":1.0477783679962158,"136":0.9790960550308228,"137":1.5804333686828613,"138":1.9684056043624878,"139":-0.5195474624633789,"140":0.5708159804344177,"141":-1.475548505783081,"142":-1.6327348947525024,"143":-0.396087110042572,"144":-2.454840660095215,"145":-0.2887091636657715,"146":1.7434017658233643,"147":-1.3888682126998901,"148":-0.7418745160102844,"149":-0.5348230600357056,"150":-0.8121684193611145,"151":0.15048904716968536,"152":-0.6035018563270569,"153":1.309520959854126,"154":-1.7308409214019775,"155":1.538120150566101,"156":-2.7015771865844727,"157":-0.7958548069000244,"158":2.1040053367614746,"159":-1.072683334350586,"160":-0.988674521446228,"161":0.22343233227729797,"162":-0.7338070869445801,"163":-1.7168190479278564,"164":-0.3089745044708252,"165":0.24572443962097168,"166":-2.737743854522705,"167":1.284609317779541,"168":2.002061605453491,"169":-0.03326617553830147,"170":-0.6058724522590637,"171":-2.0286600589752197,"172":4.517178535461426,"173":2.786487102508545,"174":2.285101890563965,"175":2.7366108894348145,"176":-1.8312129974365234,"177":-1.3717668056488037,"178":0.46681252121925354,"179":-2.571308135986328,"180":3.2836127281188965,"181":0.21598102152347565,"182":-1.1922144889831543,"183":-1.311486005783081,"184":-0.12783221900463104,"185":0.5348442792892456,"186":0.6318239569664001,"187":1.675804615020752,"188":1.5539114475250244,"189":-1.965317726135254,"190":1.6866704225540161,"191":-2.7622175216674805,"192":2.1329641342163086,"193":1.781713843345642,"194":-1.128435730934143,"195":1.6256178617477417,"196":-1.1625605821609497,"197":-1.3105462789535522,"198":1.0723724365234375,"199":1.9759551286697388,"200":1.260381817817688,"201":0.29677754640579224,"202":-1.690531849861145,"203":0.633639931678772,"204":-1.9972354173660278,"205":2.7188844680786133,"206":0.9220110774040222,"207":-0.48059195280075073,"208":-2.2679672241210938,"209":-1.827049732208252,"210":-0.7735520601272583,"211":0.054550301283597946,"212":1.0028257369995117,"213":-0.9627025723457336,"214":-2.7768044471740723,"215":1.8789610862731934,"216":-0.14294098317623138,"217":-1.9878729581832886,"218":0.28895196318626404,"219":0.6208642721176147,"220":-1.3536738157272339,"221":-0.24497301876544952,"222":-1.5976228713989258,"223":-0.10189440101385117,"224":0.4410080015659332,"225":1.4822239875793457,"226":-0.3030586242675781,"227":2.384211778640747,"228":-1.8264025449752808,"229":1.9521700143814087,"230":0.5470054149627686,"231":0.4224066436290741,"232":-1.2540535926818848,"233":0.07729899883270264,"234":0.1676224172115326,"235":-0.3448229134082794,"236":1.2066748142242432,"237":-1.4099524021148682,"238":-1.1610251665115356,"239":-1.062512755393982}},"cellWriteHiddenMatrix":{"rows":20,"columns":20,"weights":{"0":0.49517253041267395,"1":-1.3889052867889404,"2":0.398120641708374,"3":-0.9827118515968323,"4":0.5429271459579468,"5":0.016236629337072372,"6":2.5998458862304688,"7":-0.31585511565208435,"8":-0.8912110328674316,"9":-0.17711806297302246,"10":0.083770751953125,"11":-0.2679764926433563,"12":-0.9162865877151489,"13":0.9459349513053894,"14":0.07017748057842255,"15":1.0441538095474243,"16":-0.8948080539703369,"17":0.4579084813594818,"18":-0.9181985259056091,"19":-2.0127055644989014,"20":-1.460097074508667,"21":-0.6042620539665222,"22":-1.0841386318206787,"23":0.6658436059951782,"24":0.42128562927246094,"25":-2.3204233646392822,"26":0.7549318075180054,"27":-0.15762470662593842,"28":-0.9701566696166992,"29":2.0361135005950928,"30":-1.5864981412887573,"31":-0.3362460732460022,"32":-0.9828653931617737,"33":-0.844230592250824,"34":0.6958110332489014,"35":1.1687068939208984,"36":1.9377479553222656,"37":-2.128483533859253,"38":-0.07916761189699173,"39":-0.6912861466407776,"40":-1.1142457723617554,"41":2.2316386699676514,"42":-0.3767014443874359,"43":1.117697834968567,"44":1.0524065494537354,"45":1.1502095460891724,"46":0.05460118502378464,"47":-0.011188820004463196,"48":0.12376626580953598,"49":-0.864584743976593,"50":-2.0651581287384033,"51":-0.5203050971031189,"52":0.23367063701152802,"53":0.30047038197517395,"54":-1.2121036052703857,"55":-0.9877451062202454,"56":-0.3405056595802307,"57":-0.049711037427186966,"58":0.14236651360988617,"59":0.8089086413383484,"60":-0.7552165985107422,"61":-0.9654327630996704,"62":2.1847622394561768,"63":-1.1139438152313232,"64":-0.37639519572257996,"65":-0.243379607796669,"66":-1.8169169425964355,"67":1.6435425281524658,"68":1.0021954774856567,"69":1.4591618776321411,"70":1.3435908555984497,"71":1.3467106819152832,"72":1.8232909440994263,"73":0.04958576709032059,"74":2.2261743545532227,"75":0.17405033111572266,"76":-1.6400588750839233,"77":-0.9133400917053223,"78":-1.924011468887329,"79":0.7148041129112244,"80":-0.22317372262477875,"81":0.45684707164764404,"82":0.19400586187839508,"83":0.819534182548523,"84":1.3434349298477173,"85":-0.28875863552093506,"86":-1.6820392608642578,"87":-3.2781412601470947,"88":-0.2780572175979614,"89":-0.375325083732605,"90":-0.845528781414032,"91":-1.2078078985214233,"92":0.11311706900596619,"93":0.08695661276578903,"94":-0.38308826088905334,"95":1.2034496068954468,"96":-0.07970067858695984,"97":-1.1933941841125488,"98":1.6593170166015625,"99":1.3181763887405396,"100":-0.5965612530708313,"101":-1.217743158340454,"102":-0.43925681710243225,"103":0.8831074833869934,"104":0.5810455083847046,"105":0.5101168751716614,"106":-1.435949444770813,"107":0.9289382100105286,"108":0.2883611023426056,"109":1.630774736404419,"110":2.5015416145324707,"111":0.7234686613082886,"112":-0.446818083524704,"113":-1.133242130279541,"114":-0.5181710124015808,"115":-0.1493849754333496,"116":-2.7139012813568115,"117":0.9334844946861267,"118":-1.4527397155761719,"119":-2.8427350521087646,"120":2.035219430923462,"121":0.4750988483428955,"122":2.5769476890563965,"123":-0.7487930059432983,"124":-2.184147834777832,"125":-1.6477954387664795,"126":-0.4643147885799408,"127":-2.080278158187866,"128":0.4360866844654083,"129":0.7133350372314453,"130":0.7659301161766052,"131":0.6613278388977051,"132":-0.2379487156867981,"133":0.13296863436698914,"134":-0.8799172043800354,"135":0.02323305234313011,"136":-0.48086661100387573,"137":-0.31527841091156006,"138":1.8289449214935303,"139":0.709026575088501,"140":0.08961553871631622,"141":-0.6917576193809509,"142":-0.4050331115722656,"143":0.1637629121541977,"144":0.04633735865354538,"145":-1.1456220149993896,"146":-1.4466954469680786,"147":-0.5357758402824402,"148":1.5192246437072754,"149":0.03488205000758171,"150":0.14197102189064026,"151":-0.12935730814933777,"152":1.2165892124176025,"153":0.21691672503948212,"154":-0.012338248081505299,"155":0.27339425683021545,"156":0.5266554355621338,"157":-0.017271777614951134,"158":0.2460445761680603,"159":0.33137309551239014,"160":-0.6260033845901489,"161":-0.040691178292036057,"162":-1.5595383644104004,"163":-1.5063303709030151,"164":-0.05717801675200462,"165":0.47304582595825195,"166":-1.3601435422897339,"167":0.9951825737953186,"168":-0.24169093370437622,"169":-0.0619070939719677,"170":-0.6479803919792175,"171":1.690737247467041,"172":1.3787254095077515,"173":-1.4144575595855713,"174":-0.5290191173553467,"175":0.5000115633010864,"176":-0.50587397813797,"177":-2.520989418029785,"178":-0.735083281993866,"179":-0.3142377436161041,"180":0.1540130376815796,"181":-0.1889657974243164,"182":0.42100024223327637,"183":-0.04989096149802208,"184":-2.871652841567993,"185":0.7770830988883972,"186":0.8103605508804321,"187":-2.3164570331573486,"188":-0.5192660093307495,"189":-1.119292974472046,"190":-0.18543659150600433,"191":1.6137348413467407,"192":-0.6438733339309692,"193":-0.8630025386810303,"194":0.08422233909368515,"195":2.3943161964416504,"196":1.0092649459838867,"197":-1.0191726684570312,"198":1.0136781930923462,"199":-0.8591787815093994,"200":-0.0808563306927681,"201":2.0956714153289795,"202":-1.4371405839920044,"203":-0.603736162185669,"204":1.2296078205108643,"205":1.9743947982788086,"206":-0.29537901282310486,"207":0.2930932939052582,"208":0.21839576959609985,"209":1.0113502740859985,"210":-0.970162570476532,"211":0.8622323274612427,"212":0.6247156262397766,"213":0.4838806390762329,"214":0.3484584093093872,"215":-0.4262281060218811,"216":-2.289212226867676,"217":0.18368873000144958,"218":-3.191457986831665,"219":0.9335444569587708,"220":-1.891331672668457,"221":-2.863623857498169,"222":0.38837048411369324,"223":-3.13362717628479,"224":0.3653225600719452,"225":0.24991554021835327,"226":1.7161320447921753,"227":-1.444581389427185,"228":-1.2596787214279175,"229":1.302526831626892,"230":-1.1117948293685913,"231":-0.66658616065979,"232":0.044387336820364,"233":2.0301880836486816,"234":0.6974982619285583,"235":0.8362202048301697,"236":0.557725191116333,"237":-0.4374849498271942,"238":0.23291386663913727,"239":-0.2673536241054535,"240":0.3244151473045349,"241":-3.339674472808838,"242":0.8554099798202515,"243":-0.1826530247926712,"244":-0.3607863783836365,"245":-1.6619195938110352,"246":1.8593816757202148,"247":-0.3783971965312958,"248":1.5665950775146484,"249":0.2805449962615967,"250":-0.13821953535079956,"251":-1.7331937551498413,"252":0.8651213645935059,"253":2.146125078201294,"254":-0.849515974521637,"255":-1.2811305522918701,"256":0.8012431859970093,"257":-1.1362500190734863,"258":1.2156189680099487,"259":-2.0798208713531494,"260":-1.4909695386886597,"261":1.5917555093765259,"262":-0.2517281770706177,"263":1.2498795986175537,"264":2.1961658000946045,"265":-0.9345813989639282,"266":-1.7999353408813477,"267":1.004929780960083,"268":0.06023272126913071,"269":0.4828006625175476,"270":0.6025259494781494,"271":0.2365691363811493,"272":0.060672592371702194,"273":0.5771878361701965,"274":0.3223203718662262,"275":-1.261834979057312,"276":-1.5588535070419312,"277":1.7282506227493286,"278":-0.979397177696228,"279":-0.02465473860502243,"280":1.1554988622665405,"281":-0.7354142069816589,"282":-0.0017450996674597263,"283":0.8209409117698669,"284":0.7188524603843689,"285":-1.4240326881408691,"286":-0.2976803183555603,"287":0.47108691930770874,"288":3.053926944732666,"289":-2.579892158508301,"290":1.0042744874954224,"291":0.5592337250709534,"292":1.0604904890060425,"293":-2.145477294921875,"294":0.17487160861492157,"295":-0.08654376119375229,"296":-0.4846647083759308,"297":-0.6256802082061768,"298":-0.9776882529258728,"299":-0.6237031817436218,"300":-0.9954352974891663,"301":-2.052593946456909,"302":0.11030688881874084,"303":-0.05936621129512787,"304":-1.3744865655899048,"305":-0.1194314956665039,"306":1.3645858764648438,"307":-0.8361311554908752,"308":-1.0398679971694946,"309":1.2966208457946777,"310":-0.48817333579063416,"311":2.8846399784088135,"312":0.23483744263648987,"313":-4.061722278594971,"314":-1.7027887105941772,"315":-1.3152077198028564,"316":1.885143518447876,"317":-2.66372013092041,"318":-0.15155065059661865,"319":-1.6702039241790771,"320":0.34726858139038086,"321":-0.440138041973114,"322":0.23833519220352173,"323":1.5825823545455933,"324":-2.5130672454833984,"325":-0.6441953778266907,"326":1.1848186254501343,"327":0.24839672446250916,"328":-0.7432728409767151,"329":-0.2672598659992218,"330":-1.2636314630508423,"331":0.44675329327583313,"332":0.7729353904724121,"333":0.4734017848968506,"334":-1.0910522937774658,"335":1.789901614189148,"336":1.467946171760559,"337":-1.0950881242752075,"338":1.6225253343582153,"339":-1.7600417137145996,"340":-0.260519802570343,"341":0.05316519737243652,"342":0.32814979553222656,"343":0.7117645144462585,"344":1.0767149925231934,"345":0.5953356623649597,"346":-1.0999161005020142,"347":0.32388079166412354,"348":-1.0406079292297363,"349":0.1658678948879242,"350":0.7476351857185364,"351":2.109945297241211,"352":-0.4071137011051178,"353":0.19634772837162018,"354":-1.6946414709091187,"355":-0.9486473202705383,"356":-1.3379697799682617,"357":0.09978783875703812,"358":0.7633545398712158,"359":0.18447133898735046,"360":0.04155275970697403,"361":-0.8563265204429626,"362":-0.18167199194431305,"363":-0.15482257306575775,"364":-0.03158107027411461,"365":-0.7617911696434021,"366":2.070052146911621,"367":0.4635438621044159,"368":-1.0721460580825806,"369":0.2376859486103058,"370":1.2031911611557007,"371":0.2196575254201889,"372":-1.3048406839370728,"373":-0.017899520695209503,"374":0.10901957750320435,"375":-0.923995852470398,"376":1.6234368085861206,"377":-0.3657231032848358,"378":1.1345912218093872,"379":-2.204702377319336,"380":-0.5542152523994446,"381":0.3136178255081177,"382":2.3359076976776123,"383":-0.9826692342758179,"384":2.749392509460449,"385":0.43153494596481323,"386":1.3269716501235962,"387":-1.1649092435836792,"388":-0.8154113292694092,"389":-1.5371887683868408,"390":0.059208229184150696,"391":0.6947882771492004,"392":0.5229365229606628,"393":1.954478144645691,"394":-1.53727388381958,"395":0.24197843670845032,"396":-1.8536388874053955,"397":1.4751125574111938,"398":-1.1700061559677124,"399":1.7165733575820923}},"cellWriteBias":{"rows":20,"columns":1,"weights":{"0":0.0806438997387886,"1":0.4631173312664032,"2":0.3558693528175354,"3":0.06469859927892685,"4":0.37563908100128174,"5":1.4259411096572876,"6":0.021563837304711342,"7":-0.005585782695561647,"8":0.027316641062498093,"9":0.4518132209777832,"10":0.6594499349594116,"11":-0.07670007646083832,"12":-0.5518982410430908,"13":0.0048635248094797134,"14":0.1548309028148651,"15":0.3338891565799713,"16":-0.5451281666755676,"17":-0.46169179677963257,"18":-0.35072845220565796,"19":0.0944988802075386}}},{"updateGateInputMatrix":{"rows":20,"columns":20,"weights":{"0":-0.0468796044588089,"1":1.7881975173950195,"2":-0.7504514455795288,"3":-10.31817626953125,"4":4.61120080947876,"5":-7.380801200866699,"6":0.044199757277965546,"7":5.768675327301025,"8":-5.44322395324707,"9":-1.9037259817123413,"10":0.20636191964149475,"11":1.9934707880020142,"12":0.5490890741348267,"13":-2.757493257522583,"14":-2.1517117023468018,"15":1.38602876663208,"16":-0.04602719098329544,"17":-2.4000487327575684,"18":-1.1481531858444214,"19":-1.4177786111831665,"20":6.1984333992004395,"21":-1.2409601211547852,"22":-1.8540154695510864,"23":1.7008107900619507,"24":0.6076257824897766,"25":-1.2479751110076904,"26":1.8063102960586548,"27":-4.877285003662109,"28":1.5857553482055664,"29":-4.418096542358398,"30":0.5352689623832703,"31":-1.8874701261520386,"32":0.17155683040618896,"33":-6.899478912353516,"34":-6.934805870056152,"35":5.0365891456604,"36":-2.719771385192871,"37":-1.355745553970337,"38":-3.7677223682403564,"39":-7.570132732391357,"40":1.9656974077224731,"41":-1.1855485439300537,"42":1.1133321523666382,"43":-2.2071921825408936,"44":5.331959247589111,"45":8.139158248901367,"46":0.471352756023407,"47":2.557685136795044,"48":-0.7333987355232239,"49":1.2469656467437744,"50":1.9548184871673584,"51":-0.473142147064209,"52":2.3033018112182617,"53":-4.28161096572876,"54":-2.590853691101074,"55":1.976381540298462,"56":-0.2828329801559448,"57":4.564651012420654,"58":-2.1851656436920166,"59":-0.006264558993279934,"60":-0.5707008242607117,"61":-5.909884929656982,"62":-1.83763587474823,"63":-1.2344019412994385,"64":-1.9719514846801758,"65":-0.698706328868866,"66":-2.3661367893218994,"67":-1.9405258893966675,"68":4.478560924530029,"69":2.4259419441223145,"70":-1.7900776863098145,"71":1.6373088359832764,"72":11.426748275756836,"73":3.627476453781128,"74":-4.26778507232666,"75":-0.927489161491394,"76":-2.385998010635376,"77":-0.30338311195373535,"78":2.476602792739868,"79":3.9267375469207764,"80":-6.419652462005615,"81":-1.4678139686584473,"82":1.7172484397888184,"83":1.96988844871521,"84":6.360666275024414,"85":0.5833874940872192,"86":1.1084527969360352,"87":5.227974891662598,"88":-4.753660202026367,"89":2.0613508224487305,"90":-2.567513942718506,"91":0.2902766764163971,"92":-1.2192732095718384,"93":0.5151309370994568,"94":-5.67341423034668,"95":-0.31497782468795776,"96":-6.092774868011475,"97":-1.9655029773712158,"98":-1.5576870441436768,"99":1.4240028858184814,"100":-0.18929505348205566,"101":0.6678067445755005,"102":-0.4741502106189728,"103":-1.4230836629867554,"104":3.0966477394104004,"105":-1.5333157777786255,"106":4.220491886138916,"107":7.549772262573242,"108":3.438770055770874,"109":-0.8705302476882935,"110":-1.6981899738311768,"111":-1.2354947328567505,"112":-0.18696419894695282,"113":2.5273282527923584,"114":-3.7949001789093018,"115":-1.8856631517410278,"116":4.680534362792969,"117":1.761304497718811,"118":-1.010625958442688,"119":-0.594841718673706,"120":-2.5601541996002197,"121":-4.838255882263184,"122":1.0783179998397827,"123":-3.7765860557556152,"124":-3.4416472911834717,"125":-2.931871175765991,"126":-0.3865901231765747,"127":0.3469749391078949,"128":-4.820450782775879,"129":1.532271146774292,"130":-1.4493688344955444,"131":3.0235495567321777,"132":-4.5453972816467285,"133":-1.4523906707763672,"134":4.0836358070373535,"135":-1.278678059577942,"136":2.5565803050994873,"137":5.83443546295166,"138":-3.486848831176758,"139":-1.9910579919815063,"140":0.8740659356117249,"141":-0.7280706167221069,"142":1.2942173480987549,"143":2.5671777725219727,"144":-2.407888174057007,"145":-1.071443796157837,"146":-5.842616081237793,"147":-0.5088309049606323,"148":4.050525665283203,"149":-1.1202069520950317,"150":6.921114444732666,"151":-1.124597191810608,"152":0.77305006980896,"153":-3.248049020767212,"154":-7.596067428588867,"155":-2.88863205909729,"156":-6.706753730773926,"157":-5.78914213180542,"158":3.633378028869629,"159":-0.7137903571128845,"160":-0.2303893119096756,"161":1.0576432943344116,"162":5.332568645477295,"163":0.6226263046264648,"164":-2.4793307781219482,"165":-5.123899459838867,"166":-3.212256908416748,"167":5.05027961730957,"168":1.4485814571380615,"169":1.4655531644821167,"170":-1.1326602697372437,"171":-0.9368368983268738,"172":-0.084500752389431,"173":-0.484845906496048,"174":8.16655158996582,"175":5.806512832641602,"176":6.071234226226807,"177":-4.170018196105957,"178":-2.0291011333465576,"179":-3.1968348026275635,"180":0.8598814010620117,"181":3.491731643676758,"182":-2.2193150520324707,"183":-1.923773169517517,"184":5.1133809089660645,"185":1.5899364948272705,"186":-2.9625403881073,"187":6.023021221160889,"188":1.2371770143508911,"189":0.29726967215538025,"190":3.2554984092712402,"191":2.419464349746704,"192":-4.386040210723877,"193":2.937633991241455,"194":-5.627042770385742,"195":2.8559677600860596,"196":-2.0667126178741455,"197":-3.917560338973999,"198":-9.596990585327148,"199":0.09885814785957336,"200":-4.3283185958862305,"201":0.8938899636268616,"202":-3.400989055633545,"203":4.088770389556885,"204":-3.712082624435425,"205":-5.612871170043945,"206":2.962435722351074,"207":-0.6117649674415588,"208":-4.763531684875488,"209":4.550166606903076,"210":-3.836047649383545,"211":0.4618322551250458,"212":-0.8309037089347839,"213":-0.5655602812767029,"214":0.561721682548523,"215":1.3666988611221313,"216":5.899540901184082,"217":0.6120592951774597,"218":-1.6606996059417725,"219":-2.246507406234741,"220":-0.8186621069908142,"221":2.8603286743164062,"222":-2.8331968784332275,"223":1.2453203201293945,"224":17.66785430908203,"225":2.8048253059387207,"226":-1.9522626399993896,"227":-0.8043408989906311,"228":2.73038649559021,"229":0.7063115835189819,"230":-2.7511067390441895,"231":0.1137537807226181,"232":0.13894598186016083,"233":6.867297172546387,"234":-3.7580137252807617,"235":1.7117030620574951,"236":-1.3278082609176636,"237":0.6692062616348267,"238":1.6287837028503418,"239":5.115994930267334,"240":-0.9008094072341919,"241":1.9407947063446045,"242":0.7226139307022095,"243":-0.13319702446460724,"244":0.19957374036312103,"245":-0.5954017043113708,"246":-0.5249649882316589,"247":-0.11832141876220703,"248":0.370978444814682,"249":4.558786392211914,"250":1.9068254232406616,"251":0.30238619446754456,"252":-1.8559530973434448,"253":5.965365409851074,"254":-5.612783908843994,"255":0.3269155025482178,"256":-2.2557835578918457,"257":-5.708540439605713,"258":7.917154312133789,"259":4.282303810119629,"260":2.3823227882385254,"261":-0.6925846338272095,"262":-2.9477622509002686,"263":1.584818959236145,"264":0.9215613603591919,"265":2.318096160888672,"266":2.1619977951049805,"267":-9.95992660522461,"268":2.9370734691619873,"269":-2.741270065307617,"270":-1.7555668354034424,"271":-3.368401527404785,"272":-1.4329086542129517,"273":-2.1546943187713623,"274":-2.5836195945739746,"275":3.0620503425598145,"276":0.014555525965988636,"277":2.2846546173095703,"278":1.1866782903671265,"279":4.57948637008667,"280":-1.2891533374786377,"281":2.3956358432769775,"282":2.361774206161499,"283":-0.5387011170387268,"284":-3.0527503490448,"285":-5.061795711517334,"286":1.2039576768875122,"287":-0.3154247999191284,"288":1.6216284036636353,"289":-1.25947105884552,"290":1.599951982498169,"291":3.266719102859497,"292":-0.4340403079986572,"293":-2.5136971473693848,"294":1.1546170711517334,"295":-3.817817211151123,"296":-2.718707799911499,"297":-2.1904995441436768,"298":3.715506076812744,"299":-6.935848236083984,"300":-1.9820142984390259,"301":-2.4829933643341064,"302":0.6196057200431824,"303":-2.0974996089935303,"304":5.019491195678711,"305":1.0564862489700317,"306":0.9784881472587585,"307":2.4549710750579834,"308":2.9828057289123535,"309":6.130839824676514,"310":-1.330451488494873,"311":-0.09683166444301605,"312":0.2162090539932251,"313":-5.883321285247803,"314":-0.3806150555610657,"315":1.9936639070510864,"316":2.4908742904663086,"317":0.4907934069633484,"318":-0.5822787284851074,"319":0.2867589294910431,"320":3.189136266708374,"321":3.0957517623901367,"322":-1.4523674249649048,"323":-0.7826999425888062,"324":-1.3243979215621948,"325":5.041656017303467,"326":-10.002811431884766,"327":1.0505136251449585,"328":0.5107259154319763,"329":-2.9669742584228516,"330":2.1633188724517822,"331":-1.9929945468902588,"332":-3.0604891777038574,"333":3.0715208053588867,"334":-5.015521049499512,"335":-1.3860045671463013,"336":0.3159726858139038,"337":1.8167710304260254,"338":2.915886402130127,"339":-0.6473543643951416,"340":2.3825221061706543,"341":-3.014357805252075,"342":-1.1201486587524414,"343":3.394598960876465,"344":5.980549335479736,"345":-2.9564530849456787,"346":1.5030122995376587,"347":-2.9232699871063232,"348":-0.5271265506744385,"349":2.5209739208221436,"350":-0.09256625175476074,"351":-0.07505851238965988,"352":-2.4841525554656982,"353":-1.1189987659454346,"354":-3.85516357421875,"355":-3.7545814514160156,"356":-0.9367867112159729,"357":2.5457630157470703,"358":2.6592109203338623,"359":2.600069761276245,"360":-0.5008398294448853,"361":-2.1962215900421143,"362":-0.31840789318084717,"363":-1.3982042074203491,"364":-3.1925530433654785,"365":1.660951852798462,"366":2.7769296169281006,"367":0.502599835395813,"368":-1.0872803926467896,"369":1.803415298461914,"370":0.8657492995262146,"371":-4.093510150909424,"372":-4.524847507476807,"373":-0.7530382871627808,"374":-1.5034475326538086,"375":0.8645693063735962,"376":1.539687156677246,"377":1.0246691703796387,"378":0.5654062032699585,"379":-2.617081880569458,"380":-5.747679710388184,"381":-1.6366907358169556,"382":0.6616091132164001,"383":-4.187073707580566,"384":2.065307140350342,"385":-3.5312156677246094,"386":-1.9936801195144653,"387":2.354309320449829,"388":-1.4165955781936646,"389":-3.1339850425720215,"390":-2.756078004837036,"391":-1.4469830989837646,"392":-5.662449359893799,"393":-4.260620594024658,"394":0.30059200525283813,"395":-0.280565083026886,"396":-3.818120002746582,"397":3.842999219894409,"398":-6.291744232177734,"399":1.2223368883132935}},"updateGateHiddenMatrix":{"rows":20,"columns":20,"weights":{"0":3.890281915664673,"1":0.5870575308799744,"2":-7.802901268005371,"3":4.813232421875,"4":1.8249820470809937,"5":-3.904405117034912,"6":4.89113187789917,"7":2.9695591926574707,"8":0.7611997127532959,"9":4.692302703857422,"10":-0.9493347406387329,"11":6.637248516082764,"12":3.517913579940796,"13":1.855216145515442,"14":-0.16645579040050507,"15":-3.3794660568237305,"16":2.2211947441101074,"17":1.9797805547714233,"18":0.05499020963907242,"19":0.9200050234794617,"20":0.17104065418243408,"21":3.904212236404419,"22":0.19040879607200623,"23":5.521414279937744,"24":2.680112600326538,"25":-1.7522447109222412,"26":-8.564350128173828,"27":-4.906942367553711,"28":2.21966290473938,"29":3.171266794204712,"30":-2.1462221145629883,"31":1.3648263216018677,"32":3.7962095737457275,"33":3.130502462387085,"34":-0.2980855703353882,"35":2.9911866188049316,"36":-5.222687721252441,"37":-3.0995259284973145,"38":-3.480855703353882,"39":5.986480236053467,"40":-5.333095073699951,"41":1.9462721347808838,"42":-2.414093255996704,"43":3.6258299350738525,"44":8.878140449523926,"45":-3.787781000137329,"46":-7.2074432373046875,"47":4.298771381378174,"48":-5.963734149932861,"49":-4.3217878341674805,"50":1.9719462394714355,"51":4.862953186035156,"52":3.4336228370666504,"53":-1.1724086999893188,"54":8.92269229888916,"55":4.359760284423828,"56":-4.493619918823242,"57":-1.9949690103530884,"58":1.681369423866272,"59":5.686059474945068,"60":1.2262036800384521,"61":-0.7122178673744202,"62":-7.786998271942139,"63":4.927028179168701,"64":-0.5501789450645447,"65":-1.5512714385986328,"66":-1.4161109924316406,"67":1.2044479846954346,"68":1.233902931213379,"69":-3.220892906188965,"70":-5.429410934448242,"71":3.083865165710449,"72":-2.8215267658233643,"73":-1.1603848934173584,"74":-2.474881887435913,"75":3.0516791343688965,"76":1.839512586593628,"77":-0.7209600806236267,"78":2.572103977203369,"79":0.697766900062561,"80":-2.3829867839813232,"81":-1.4952926635742188,"82":2.2450430393218994,"83":5.810003280639648,"84":6.044917583465576,"85":2.095745801925659,"86":-1.628501057624817,"87":-2.581941604614258,"88":1.640067219734192,"89":-0.24663755297660828,"90":0.03701344504952431,"91":-2.470522165298462,"92":2.659991502761841,"93":-4.96647310256958,"94":6.611875057220459,"95":3.628397226333618,"96":-0.2752228379249573,"97":-0.006622699089348316,"98":-0.7971868515014648,"99":6.847919464111328,"100":-1.825742483139038,"101":2.286421060562134,"102":-1.8389523029327393,"103":7.375665187835693,"104":2.0236990451812744,"105":6.2075114250183105,"106":11.474681854248047,"107":0.36059749126434326,"108":-0.3199615478515625,"109":1.8281954526901245,"110":0.8587903380393982,"111":-0.8562078475952148,"112":0.6471713781356812,"113":-8.55667495727539,"114":3.290839672088623,"115":3.5640435218811035,"116":5.291669845581055,"117":-0.3462603688240051,"118":-1.8232309818267822,"119":6.339323997497559,"120":-1.0045348405838013,"121":-5.23947811126709,"122":6.003074645996094,"123":-2.3132667541503906,"124":-3.717024326324463,"125":-7.33084774017334,"126":-1.4936304092407227,"127":0.021087082102894783,"128":-3.862060785293579,"129":-1.0392611026763916,"130":1.548054814338684,"131":4.602606773376465,"132":1.356641411781311,"133":-4.3629279136657715,"134":0.5639444589614868,"135":-4.652125835418701,"136":2.20580792427063,"137":-5.6251115798950195,"138":4.066268444061279,"139":1.3595417737960815,"140":1.6722875833511353,"141":-3.350154399871826,"142":-8.443504333496094,"143":4.742343425750732,"144":1.2193506956100464,"145":-1.8460792303085327,"146":-1.180187702178955,"147":3.9599874019622803,"148":-3.726320266723633,"149":-1.8184012174606323,"150":1.1012831926345825,"151":-0.8552126288414001,"152":-5.169266700744629,"153":0.1554117053747177,"154":-4.891782760620117,"155":1.4300962686538696,"156":-0.5049012303352356,"157":-3.9110615253448486,"158":5.5974602699279785,"159":1.8233861923217773,"160":-6.125726699829102,"161":-1.271923303604126,"162":-8.062678337097168,"163":0.13818462193012238,"164":-1.4296503067016602,"165":-1.0429315567016602,"166":6.88828706741333,"167":-3.0537545680999756,"168":1.211113691329956,"169":5.9122724533081055,"170":-2.2247912883758545,"171":-6.3903985023498535,"172":5.972761631011963,"173":-2.6984140872955322,"174":-2.8212454319000244,"175":1.3529648780822754,"176":-8.683463096618652,"177":-3.647362470626831,"178":0.9876676201820374,"179":2.154062032699585,"180":-1.779396414756775,"181":-3.545013427734375,"182":-0.6133751273155212,"183":1.0374717712402344,"184":-1.8089475631713867,"185":3.1270811557769775,"186":-1.8028525114059448,"187":2.076158046722412,"188":-0.44826650619506836,"189":-5.940511226654053,"190":-1.7787500619888306,"191":-2.162827253341675,"192":0.47172632813453674,"193":4.778804302215576,"194":2.2388200759887695,"195":0.14671654999256134,"196":0.0787813812494278,"197":1.5315154790878296,"198":1.829264760017395,"199":0.7783498167991638,"200":3.620945692062378,"201":1.4507601261138916,"202":3.047593832015991,"203":-2.140104055404663,"204":-0.7191819548606873,"205":-1.2714295387268066,"206":1.4344638586044312,"207":0.5551040768623352,"208":-0.15653960406780243,"209":5.227756023406982,"210":0.8287398219108582,"211":2.37601637840271,"212":-2.999511957168579,"213":-5.1865997314453125,"214":-1.5667388439178467,"215":4.918242454528809,"216":-0.9098659753799438,"217":-4.32005500793457,"218":1.491600751876831,"219":-4.127254962921143,"220":-3.574334144592285,"221":1.714835524559021,"222":-9.376099586486816,"223":-3.2580504417419434,"224":1.5930335521697998,"225":7.878278732299805,"226":0.9268222451210022,"227":4.165336608886719,"228":0.15236292779445648,"229":-1.998457431793213,"230":0.9880169630050659,"231":3.205336570739746,"232":-3.224154233932495,"233":1.9438576698303223,"234":0.7760488986968994,"235":6.491745471954346,"236":1.9317270517349243,"237":1.980379343032837,"238":3.2843503952026367,"239":-2.083458423614502,"240":-0.7334132194519043,"241":-7.325623035430908,"242":-6.6346940994262695,"243":-1.8587851524353027,"244":-3.798549175262451,"245":-1.3829058408737183,"246":-5.478820323944092,"247":1.722538709640503,"248":0.2943630814552307,"249":-3.8473668098449707,"250":2.624530553817749,"251":-1.2362545728683472,"252":0.09632155299186707,"253":-1.7125126123428345,"254":6.578895092010498,"255":-0.4500397741794586,"256":3.5423824787139893,"257":1.2421858310699463,"258":3.8057749271392822,"259":-1.318178653717041,"260":-2.982357978820801,"261":-1.0848948955535889,"262":0.6746342182159424,"263":-2.213575601577759,"264":-4.270480155944824,"265":0.8787990808486938,"266":-6.569103717803955,"267":-0.22897407412528992,"268":-2.1448309421539307,"269":-1.4211139678955078,"270":-1.88471257686615,"271":1.3441734313964844,"272":-2.113234519958496,"273":3.636857748031616,"274":-8.035573959350586,"275":0.47182485461235046,"276":6.028962135314941,"277":3.822131395339966,"278":-2.3480560779571533,"279":-5.6165008544921875,"280":1.4754832983016968,"281":1.9014942646026611,"282":-1.2230068445205688,"283":0.4741947650909424,"284":1.0242457389831543,"285":-3.3477346897125244,"286":3.208618402481079,"287":0.4949233829975128,"288":-3.764845132827759,"289":4.89124059677124,"290":-5.486397743225098,"291":3.157212257385254,"292":0.693160355091095,"293":-3.035245418548584,"294":-1.9990408420562744,"295":3.9858875274658203,"296":-3.4405951499938965,"297":-5.002555847167969,"298":4.462890625,"299":2.0288875102996826,"300":1.3319414854049683,"301":2.124069929122925,"302":-4.827674388885498,"303":1.4910857677459717,"304":4.001221656799316,"305":-4.172819137573242,"306":-3.8652868270874023,"307":-0.5264151096343994,"308":0.48459696769714355,"309":4.607253074645996,"310":-12.006532669067383,"311":3.2858481407165527,"312":1.364545464515686,"313":-0.38062795996665955,"314":-5.1104912757873535,"315":-3.464092254638672,"316":2.8704025745391846,"317":-4.231628894805908,"318":6.12544584274292,"319":1.8079830408096313,"320":0.4153626561164856,"321":3.6895859241485596,"322":-7.089236736297607,"323":2.179279088973999,"324":-0.8172443509101868,"325":-0.29623228311538696,"326":-1.974264144897461,"327":-2.3537604808807373,"328":-5.53713846206665,"329":3.9476613998413086,"330":-1.4468131065368652,"331":3.881216049194336,"332":4.239574909210205,"333":-7.716566562652588,"334":2.441265106201172,"335":-1.4860090017318726,"336":-4.572335243225098,"337":5.655553817749023,"338":-3.762089252471924,"339":-5.692536354064941,"340":-4.606625080108643,"341":-1.1433238983154297,"342":-0.11238368600606918,"343":3.5560567378997803,"344":-6.678539276123047,"345":0.3375142812728882,"346":-0.25060006976127625,"347":-1.3390427827835083,"348":-4.812155723571777,"349":0.8974708914756775,"350":4.788822650909424,"351":2.001875162124634,"352":-1.5504577159881592,"353":2.294532537460327,"354":0.09934661537408829,"355":1.7326703071594238,"356":2.808990955352783,"357":10.239280700683594,"358":0.46754246950149536,"359":-0.13318288326263428,"360":1.7718698978424072,"361":-3.770023822784424,"362":7.918845176696777,"363":6.086748123168945,"364":-4.4978837966918945,"365":2.834249496459961,"366":-0.6300758719444275,"367":-3.5881476402282715,"368":-3.4322805404663086,"369":-6.041171550750732,"370":0.30602678656578064,"371":-5.877291679382324,"372":6.977420806884766,"373":4.927190780639648,"374":-1.9848248958587646,"375":-1.4300205707550049,"376":1.294166088104248,"377":2.5708558559417725,"378":-0.42350441217422485,"379":-3.1634888648986816,"380":-0.1712215691804886,"381":-0.6441875100135803,"382":8.748778343200684,"383":-1.644855260848999,"384":2.0190207958221436,"385":-2.2746055126190186,"386":0.32677218317985535,"387":0.9227322340011597,"388":1.271574854850769,"389":-0.26127418875694275,"390":-3.936276912689209,"391":2.8694887161254883,"392":3.647488594055176,"393":-4.965193271636963,"394":6.352321624755859,"395":-0.1291784644126892,"396":0.22359851002693176,"397":-3.0565943717956543,"398":2.597158908843994,"399":1.531014323234558}},"updateGateBias":{"rows":20,"columns":1,"weights":{"0":0,"1":0,"2":0,"3":0,"4":0,"5":0,"6":0,"7":0,"8":0,"9":0,"10":0,"11":0,"12":0,"13":0,"14":0,"15":0,"16":0,"17":0,"18":0,"19":0}},"resetGateInputMatrix":{"rows":20,"columns":20,"weights":{"0":-0.696630597114563,"1":-3.76007342338562,"2":3.186673402786255,"3":0.6755999326705933,"4":-1.6869674921035767,"5":-3.3059229850769043,"6":1.020107388496399,"7":-1.4920541048049927,"8":-1.8092118501663208,"9":-0.9036328196525574,"10":-0.47500282526016235,"11":0.332554429769516,"12":3.232224941253662,"13":1.9427008628845215,"14":6.080708980560303,"15":2.3663012981414795,"16":5.836968898773193,"17":-2.495457172393799,"18":1.586208701133728,"19":0.6509347558021545,"20":-3.512465238571167,"21":-1.7056556940078735,"22":1.0282347202301025,"23":-1.5425721406936646,"24":1.9261003732681274,"25":-1.2818374633789062,"26":1.5935194492340088,"27":7.001429557800293,"28":-0.30489081144332886,"29":-0.939078152179718,"30":1.7289434671401978,"31":1.3019565343856812,"32":-0.6494272351264954,"33":-0.4792799651622772,"34":1.3428057432174683,"35":0.26144176721572876,"36":6.794107437133789,"37":-5.344362258911133,"38":0.11118873208761215,"39":-3.89437198638916,"40":-0.2461870014667511,"41":5.090132713317871,"42":-2.5502748489379883,"43":-1.3179224729537964,"44":1.441094160079956,"45":1.6262383460998535,"46":2.2922844886779785,"47":-0.8344603776931763,"48":1.2958890199661255,"49":-1.952327013015747,"50":2.4822490215301514,"51":2.1694819927215576,"52":-0.5645238161087036,"53":1.7000439167022705,"54":-3.624096155166626,"55":-2.966944456100464,"56":3.8540945053100586,"57":4.259949684143066,"58":1.0376567840576172,"59":0.8964738249778748,"60":-0.5448189973831177,"61":2.721200466156006,"62":0.930120587348938,"63":4.469114780426025,"64":3.4970602989196777,"65":0.22531382739543915,"66":2.71573543548584,"67":-1.1616272926330566,"68":1.8027770519256592,"69":-4.447676181793213,"70":-1.0120147466659546,"71":-5.294429779052734,"72":-5.819675922393799,"73":-3.98156476020813,"74":1.5066055059432983,"75":4.386251926422119,"76":1.4490362405776978,"77":-1.147428035736084,"78":-4.071836471557617,"79":0.0032281456515192986,"80":0.5525650978088379,"81":3.6898810863494873,"82":-3.3076846599578857,"83":5.178553104400635,"84":-2.548914670944214,"85":-0.4890688359737396,"86":-1.649627685546875,"87":-0.41646695137023926,"88":-2.7228970527648926,"89":-2.3901708126068115,"90":3.5309035778045654,"91":-1.542905569076538,"92":-2.234095335006714,"93":-1.4315327405929565,"94":-2.4062345027923584,"95":1.0224857330322266,"96":-5.187715530395508,"97":-1.16193425655365,"98":-4.845111846923828,"99":-4.703451156616211,"100":-2.4158153533935547,"101":-3.05865216255188,"102":-0.6023130416870117,"103":2.8873913288116455,"104":3.181530475616455,"105":4.936042785644531,"106":-5.661615371704102,"107":2.007664442062378,"108":0.6801286935806274,"109":-1.4498744010925293,"110":4.3696722984313965,"111":-2.5771212577819824,"112":4.459571838378906,"113":3.380129337310791,"114":-2.1325418949127197,"115":-5.370571136474609,"116":-1.834028720855713,"117":-4.111529350280762,"118":1.7067506313323975,"119":1.6713190078735352,"120":1.6828304529190063,"121":-0.5010271072387695,"122":-2.039520025253296,"123":2.2924420833587646,"124":0.6379605531692505,"125":-1.3767430782318115,"126":3.1659271717071533,"127":-2.17164945602417,"128":-1.587827205657959,"129":-4.967254638671875,"130":4.255650997161865,"131":-1.6696685552597046,"132":-4.983798503875732,"133":-0.7970619201660156,"134":-1.6991652250289917,"135":-1.4807230234146118,"136":3.587550401687622,"137":-0.2618425786495209,"138":-1.0884931087493896,"139":-2.467970848083496,"140":-0.0727931559085846,"141":-3.7446999549865723,"142":-0.02703530713915825,"143":-0.4920566976070404,"144":0.03416677191853523,"145":-5.482544422149658,"146":3.51944637298584,"147":2.821284532546997,"148":-1.829790472984314,"149":-5.787439346313477,"150":3.95266056060791,"151":-0.9619479775428772,"152":3.4916930198669434,"153":0.4206707775592804,"154":1.3167723417282104,"155":-5.328301906585693,"156":2.706820249557495,"157":7.233913421630859,"158":0.8830958604812622,"159":-2.4630959033966064,"160":1.6104406118392944,"161":3.302638292312622,"162":-1.6836744546890259,"163":-3.642853260040283,"164":1.1735975742340088,"165":1.4748198986053467,"166":2.345503807067871,"167":-1.6411304473876953,"168":-4.470108509063721,"169":2.060844659805298,"170":1.6134612560272217,"171":-0.08868565410375595,"172":0.21260367333889008,"173":3.6735904216766357,"174":-2.9490609169006348,"175":-2.8995230197906494,"176":-4.340345859527588,"177":-0.28778761625289917,"178":-0.5816688537597656,"179":1.8463106155395508,"180":-1.4646068811416626,"181":-0.08726851642131805,"182":1.3881272077560425,"183":1.3109169006347656,"184":7.914532661437988,"185":4.09999418258667,"186":-1.686156988143921,"187":-0.7246806621551514,"188":1.083317756652832,"189":-2.9594645500183105,"190":2.100832223892212,"191":-3.6746132373809814,"192":1.9296852350234985,"193":1.3964325189590454,"194":-1.0013011693954468,"195":-1.5484682321548462,"196":-0.4668049216270447,"197":3.182509422302246,"198":1.0446927547454834,"199":1.110360026359558,"200":-6.88874626159668,"201":2.83243465423584,"202":4.403487205505371,"203":2.632915496826172,"204":1.4421651363372803,"205":2.570611000061035,"206":1.43699312210083,"207":4.002479553222656,"208":3.6132874488830566,"209":1.4667234420776367,"210":0.36684221029281616,"211":1.5171332359313965,"212":2.8896586894989014,"213":0.9795145988464355,"214":-1.0392100811004639,"215":-2.5214688777923584,"216":2.028813123703003,"217":2.6445226669311523,"218":1.5912702083587646,"219":0.5653813481330872,"220":-4.636020660400391,"221":2.348519802093506,"222":-3.594785213470459,"223":2.459590196609497,"224":-5.982994556427002,"225":1.7669453620910645,"226":-2.598111152648926,"227":5.073333740234375,"228":2.9169511795043945,"229":1.746237874031067,"230":-2.4374427795410156,"231":2.8843748569488525,"232":-1.4823369979858398,"233":0.38623887300491333,"234":0.24973838031291962,"235":-1.3716567754745483,"236":-3.2153735160827637,"237":-1.5723134279251099,"238":-0.3431271016597748,"239":1.5659996271133423,"240":1.918784499168396,"241":1.2473952770233154,"242":-1.0608443021774292,"243":1.9023370742797852,"244":-3.3249266147613525,"245":-4.69631290435791,"246":-2.7323732376098633,"247":-1.8065859079360962,"248":-0.9587975144386292,"249":0.8095376491546631,"250":2.7780189514160156,"251":-3.2084383964538574,"252":-2.09614634513855,"253":-1.74949049949646,"254":-2.642578363418579,"255":4.800124645233154,"256":-0.8470220565795898,"257":2.2018940448760986,"258":-1.4888674020767212,"259":-0.513600766658783,"260":-4.772161960601807,"261":-0.6327594518661499,"262":2.7218260765075684,"263":0.6791656613349915,"264":0.6698775291442871,"265":3.2341742515563965,"266":-1.9100933074951172,"267":6.053744792938232,"268":0.9655609130859375,"269":1.879242181777954,"270":-0.35420647263526917,"271":-3.087358236312866,"272":5.655389308929443,"273":7.859273433685303,"274":-2.088228702545166,"275":-1.193649411201477,"276":1.8914210796356201,"277":1.9506289958953857,"278":2.7154600620269775,"279":2.4595046043395996,"280":1.0454301834106445,"281":0.7145991921424866,"282":-1.7796870470046997,"283":0.03680961951613426,"284":-3.135197401046753,"285":1.3790048360824585,"286":-1.3612812757492065,"287":-1.1441624164581299,"288":-1.7537267208099365,"289":-2.295055627822876,"290":5.182828903198242,"291":-3.9278998374938965,"292":-1.7439464330673218,"293":5.570297718048096,"294":-1.356119155883789,"295":-1.3081296682357788,"296":-8.557511329650879,"297":-6.005919456481934,"298":-1.0677639245986938,"299":0.29461541771888733,"300":-2.7493364810943604,"301":1.5467047691345215,"302":0.33597707748413086,"303":-0.8263954520225525,"304":4.033311367034912,"305":0.5685586929321289,"306":-1.097755789756775,"307":0.7233182787895203,"308":-0.8579886555671692,"309":0.46350935101509094,"310":-1.1857117414474487,"311":-0.5732899308204651,"312":-5.467490196228027,"313":-3.701265573501587,"314":3.278672695159912,"315":3.3407697677612305,"316":-2.0245561599731445,"317":-5.621540069580078,"318":0.13369862735271454,"319":0.15601612627506256,"320":-1.7971090078353882,"321":0.12273101508617401,"322":-1.6561769247055054,"323":7.635554313659668,"324":-0.47206035256385803,"325":-3.628519058227539,"326":-8.461033821105957,"327":1.0597971677780151,"328":4.196765899658203,"329":-6.813135147094727,"330":2.5466036796569824,"331":-3.4598376750946045,"332":1.8805018663406372,"333":2.6048948764801025,"334":1.5645852088928223,"335":-3.9509823322296143,"336":0.9699078798294067,"337":2.1974949836730957,"338":-0.09308671951293945,"339":-1.0577969551086426,"340":1.596686601638794,"341":-0.10812483727931976,"342":-2.855825424194336,"343":-6.731916427612305,"344":4.090117931365967,"345":0.8615843653678894,"346":4.422107696533203,"347":-2.1757895946502686,"348":-4.756942272186279,"349":2.0654397010803223,"350":-0.8618707656860352,"351":-2.318202018737793,"352":-2.2247202396392822,"353":-2.3535194396972656,"354":3.4553167819976807,"355":-0.032490067183971405,"356":-0.9905328750610352,"357":-0.7121304273605347,"358":4.383459091186523,"359":1.9085983037948608,"360":-0.25947898626327515,"361":-4.562795162200928,"362":-2.8993051052093506,"363":-4.792971134185791,"364":-5.714800834655762,"365":-5.546661853790283,"366":-1.086869478225708,"367":-0.43478068709373474,"368":0.41493767499923706,"369":-1.4918007850646973,"370":2.5187323093414307,"371":-1.9296743869781494,"372":1.5972737073898315,"373":-2.605560779571533,"374":0.7111106514930725,"375":-1.9481291770935059,"376":0.4910423457622528,"377":0.7713981866836548,"378":2.4032540321350098,"379":-2.013970136642456,"380":5.593459606170654,"381":-0.21423429250717163,"382":-0.6005626320838928,"383":0.758414089679718,"384":-1.1008176803588867,"385":-3.393958568572998,"386":0.26672545075416565,"387":-5.050589561462402,"388":1.7574138641357422,"389":0.4651217758655548,"390":-7.584667205810547,"391":-1.3470304012298584,"392":1.2271217107772827,"393":-2.2629945278167725,"394":-1.7785718441009521,"395":4.62837553024292,"396":1.8081655502319336,"397":-4.118943691253662,"398":-0.42855140566825867,"399":1.832834243774414}},"resetGateHiddenMatrix":{"rows":20,"columns":20,"weights":{"0":5.068209648132324,"1":-1.549196481704712,"2":-0.5594457983970642,"3":-1.371178388595581,"4":-0.017235279083251953,"5":2.4209043979644775,"6":-6.633446216583252,"7":-2.292834758758545,"8":-0.4315909445285797,"9":2.3159401416778564,"10":-6.299296855926514,"11":0.7130482792854309,"12":-3.2062337398529053,"13":2.577594518661499,"14":-2.424466848373413,"15":0.503008246421814,"16":2.0619075298309326,"17":-3.6296472549438477,"18":1.5457732677459717,"19":-2.6945321559906006,"20":-6.860065937042236,"21":3.730097770690918,"22":0.4169231951236725,"23":0.2722172141075134,"24":-1.4633744955062866,"25":0.4107785224914551,"26":1.2937309741973877,"27":-0.34624147415161133,"28":2.754396915435791,"29":-0.03512948378920555,"30":-4.468289375305176,"31":1.6760483980178833,"32":2.803576946258545,"33":-1.2731016874313354,"34":0.19057945907115936,"35":-2.242833137512207,"36":-3.847266435623169,"37":1.5127524137496948,"38":0.4576290547847748,"39":3.097266674041748,"40":5.117629528045654,"41":0.06386955082416534,"42":-4.631210803985596,"43":-2.5160059928894043,"44":-2.1301956176757812,"45":3.316976308822632,"46":-4.243962287902832,"47":-0.4463885426521301,"48":-3.5051960945129395,"49":-6.772711753845215,"50":-1.2840008735656738,"51":1.5304820537567139,"52":2.3243799209594727,"53":3.056332588195801,"54":4.7484283447265625,"55":0.07325822860002518,"56":-6.096097946166992,"57":4.679955959320068,"58":0.38931089639663696,"59":-0.8637993931770325,"60":-4.056243419647217,"61":-2.374865770339966,"62":0.2589915692806244,"63":0.5696786046028137,"64":-5.627282619476318,"65":-0.5609097480773926,"66":0.30340811610221863,"67":3.56117582321167,"68":-0.8586395978927612,"69":-2.6285712718963623,"70":1.7253639698028564,"71":3.8349814414978027,"72":1.8805464506149292,"73":-3.709115743637085,"74":-3.507601022720337,"75":-1.3029526472091675,"76":2.2948708534240723,"77":-1.5424095392227173,"78":-0.013778447173535824,"79":-3.2053544521331787,"80":-0.5929090976715088,"81":-2.5872085094451904,"82":0.518284261226654,"83":-1.108231544494629,"84":-5.488809108734131,"85":-1.6584612131118774,"86":-0.6798486113548279,"87":1.728512167930603,"88":-5.686766624450684,"89":3.2683491706848145,"90":-1.2777713537216187,"91":-3.8996663093566895,"92":3.5880353450775146,"93":2.452895402908325,"94":-1.1410064697265625,"95":-0.6408611536026001,"96":3.7303836345672607,"97":-0.8139251470565796,"98":0.5353686213493347,"99":-2.5238840579986572,"100":1.5947095155715942,"101":1.4580397605895996,"102":0.08103372156620026,"103":-5.771819114685059,"104":1.5838468074798584,"105":3.0360898971557617,"106":1.130568265914917,"107":-0.4179258644580841,"108":0.7154030799865723,"109":1.1545870304107666,"110":0.7688415050506592,"111":-4.901811599731445,"112":-1.3948464393615723,"113":-2.7694451808929443,"114":-1.8525769710540771,"115":5.234577178955078,"116":-1.5041553974151611,"117":-1.31626558303833,"118":-0.42145800590515137,"119":-3.926006317138672,"120":1.0665816068649292,"121":1.5629525184631348,"122":2.206261396408081,"123":0.1110960990190506,"124":-0.8779177069664001,"125":-2.611015558242798,"126":5.60246467590332,"127":0.4897250533103943,"128":-1.293958067893982,"129":-2.69356632232666,"130":3.2580928802490234,"131":4.499828338623047,"132":1.8567771911621094,"133":-4.664597511291504,"134":-5.059167385101318,"135":7.510652542114258,"136":3.205270528793335,"137":2.856109857559204,"138":3.0618622303009033,"139":-1.0814173221588135,"140":-1.5904436111450195,"141":-5.048435211181641,"142":-2.2396156787872314,"143":-2.359118938446045,"144":-5.557006359100342,"145":2.2072017192840576,"146":-3.903817653656006,"147":-3.3974416255950928,"148":-1.3605502843856812,"149":-0.35235175490379333,"150":-0.826960563659668,"151":-0.3444191813468933,"152":-0.5157448649406433,"153":-1.6784113645553589,"154":1.6725131273269653,"155":0.5669997930526733,"156":1.5198081731796265,"157":-0.6882306933403015,"158":0.7743445038795471,"159":0.8244145512580872,"160":3.8257319927215576,"161":7.424593448638916,"162":1.336261510848999,"163":-0.9701098203659058,"164":-1.3949834108352661,"165":1.5052435398101807,"166":-6.157688140869141,"167":-2.8528401851654053,"168":2.745435953140259,"169":2.593653917312622,"170":5.088226318359375,"171":3.551602840423584,"172":-3.201920509338379,"173":-2.5537028312683105,"174":3.694194793701172,"175":-0.39123740792274475,"176":3.8156371116638184,"177":1.0591883659362793,"178":-0.5482621788978577,"179":0.9593364596366882,"180":-0.7395340800285339,"181":-1.543512225151062,"182":1.2518681287765503,"183":-2.127837896347046,"184":-1.611934781074524,"185":1.7705928087234497,"186":-4.636499881744385,"187":1.887777328491211,"188":-3.2350215911865234,"189":-3.9173085689544678,"190":5.269805908203125,"191":0.5484398007392883,"192":0.779278039932251,"193":5.687221527099609,"194":-2.90484881401062,"195":-1.4467121362686157,"196":0.4462093114852905,"197":1.9866033792495728,"198":-2.606776714324951,"199":-3.194110870361328,"200":-3.9157137870788574,"201":-2.5063798427581787,"202":1.5494190454483032,"203":-1.3485723733901978,"204":3.590015172958374,"205":3.532608985900879,"206":2.0957863330841064,"207":3.0407907962799072,"208":-0.12985794246196747,"209":-0.9908798336982727,"210":-0.7203893065452576,"211":0.5241104364395142,"212":2.7553226947784424,"213":-2.30751895904541,"214":-1.7733869552612305,"215":-3.266066074371338,"216":-4.269143104553223,"217":3.7550435066223145,"218":4.454007625579834,"219":0.32476839423179626,"220":3.1954686641693115,"221":-0.5916687846183777,"222":5.23500394821167,"223":1.2950984239578247,"224":1.6961519718170166,"225":-3.001582622528076,"226":-3.5846853256225586,"227":0.7427926063537598,"228":1.5157358646392822,"229":1.4150580167770386,"230":4.3048624992370605,"231":-0.6133714318275452,"232":1.9441545009613037,"233":-5.1615166664123535,"234":2.387927293777466,"235":-3.267808675765991,"236":-2.3137288093566895,"237":-2.4498672485351562,"238":1.622517704963684,"239":1.451704502105713,"240":-6.286991596221924,"241":-6.006097793579102,"242":3.3816168308258057,"243":2.13529896736145,"244":-7.768446445465088,"245":-1.9399816989898682,"246":0.20034794509410858,"247":-3.917057514190674,"248":-0.7946292161941528,"249":0.5214464664459229,"250":4.045219898223877,"251":-2.8310277462005615,"252":-5.057614803314209,"253":0.5095937848091125,"254":1.8985122442245483,"255":3.8894999027252197,"256":3.5841197967529297,"257":-0.13098856806755066,"258":-0.5522027015686035,"259":-0.6917229890823364,"260":3.5047788619995117,"261":-0.3282660245895386,"262":1.486039400100708,"263":-1.2512977123260498,"264":-0.084833063185215,"265":4.604894638061523,"266":-4.01823091506958,"267":-1.175349235534668,"268":3.2879388332366943,"269":0.6889693140983582,"270":0.23005099594593048,"271":-1.6920751333236694,"272":0.6357997059822083,"273":1.9703952074050903,"274":1.956840991973877,"275":0.02565726824104786,"276":2.199991226196289,"277":2.1405835151672363,"278":0.03192342817783356,"279":-1.1595120429992676,"280":-1.3995469808578491,"281":-5.497678756713867,"282":-3.6438465118408203,"283":0.5928879976272583,"284":-1.9855988025665283,"285":-1.3726242780685425,"286":-2.2597975730895996,"287":-0.1826348602771759,"288":1.3740081787109375,"289":-4.31802225112915,"290":0.28781038522720337,"291":-3.329814910888672,"292":0.9154450297355652,"293":1.5938647985458374,"294":-0.7107483744621277,"295":-5.300638675689697,"296":-2.732694149017334,"297":0.7739189267158508,"298":0.5495787858963013,"299":-1.2005664110183716,"300":-5.027674198150635,"301":-5.177131652832031,"302":-1.101829171180725,"303":3.0807547569274902,"304":2.2124319076538086,"305":0.2570823132991791,"306":-1.2998653650283813,"307":-3.447431802749634,"308":1.24232017993927,"309":-1.8621684312820435,"310":0.5024617910385132,"311":-2.7047104835510254,"312":0.42536669969558716,"313":-7.124535083770752,"314":4.6333088874816895,"315":0.17795607447624207,"316":-1.1157445907592773,"317":4.7611308097839355,"318":1.7968661785125732,"319":7.31060266494751,"320":-5.628625869750977,"321":-1.3527933359146118,"322":-0.922201931476593,"323":-3.2050869464874268,"324":-0.16281965374946594,"325":2.982273578643799,"326":-1.2104575634002686,"327":1.1561167240142822,"328":1.6421353816986084,"329":0.6597726941108704,"330":1.356444001197815,"331":-0.35711634159088135,"332":3.387727975845337,"333":-1.7441529035568237,"334":-2.6130995750427246,"335":1.319446325302124,"336":-3.6336231231689453,"337":3.9460506439208984,"338":-0.6117352843284607,"339":-3.3571665287017822,"340":0.8958354592323303,"341":-2.0188252925872803,"342":-0.7264654040336609,"343":2.5098164081573486,"344":2.9528541564941406,"345":-0.622970461845398,"346":1.9586567878723145,"347":-1.4072235822677612,"348":2.7326650619506836,"349":0.39340856671333313,"350":-0.2274922877550125,"351":5.899888515472412,"352":-4.047463417053223,"353":-2.876120090484619,"354":0.44690242409706116,"355":1.1483975648880005,"356":2.1596410274505615,"357":6.094130039215088,"358":1.9814740419387817,"359":1.2532720565795898,"360":-1.1885589361190796,"361":-0.837006151676178,"362":2.9596126079559326,"363":3.0694823265075684,"364":0.9159201383590698,"365":-4.204221725463867,"366":5.064918041229248,"367":-1.5460246801376343,"368":-0.13413390517234802,"369":-0.9487490057945251,"370":3.122654914855957,"371":2.003782272338867,"372":-0.36692798137664795,"373":-6.029317855834961,"374":-2.3075881004333496,"375":3.585301160812378,"376":0.1519176959991455,"377":-3.7119765281677246,"378":2.6649065017700195,"379":0.8253505229949951,"380":2.0266237258911133,"381":4.1432037353515625,"382":1.0478219985961914,"383":2.3707566261291504,"384":-2.321427583694458,"385":2.538503885269165,"386":1.8805956840515137,"387":2.117868185043335,"388":-1.978048324584961,"389":0.9975520968437195,"390":-1.147792935371399,"391":3.379918098449707,"392":-3.5115487575531006,"393":1.6275674104690552,"394":1.1321930885314941,"395":1.519651174545288,"396":-1.827219843864441,"397":-1.1803911924362183,"398":2.888882875442505,"399":-0.18929408490657806}},"resetGateBias":{"rows":20,"columns":1,"weights":{"0":0,"1":0,"2":0,"3":0,"4":0,"5":0,"6":0,"7":0,"8":0,"9":0,"10":0,"11":0,"12":0,"13":0,"14":0,"15":0,"16":0,"17":0,"18":0,"19":0}},"cellWriteInputMatrix":{"rows":20,"columns":20,"weights":{"0":-0.5332387685775757,"1":-1.4171773195266724,"2":7.3314971923828125,"3":-1.3008127212524414,"4":-2.842710018157959,"5":0.47981417179107666,"6":-2.1589250564575195,"7":0.8388615250587463,"8":2.0701045989990234,"9":0.6274473071098328,"10":4.331965446472168,"11":-0.41166162490844727,"12":-2.827209711074829,"13":-0.5521363615989685,"14":1.8290631771087646,"15":-1.2767034769058228,"16":-1.7228477001190186,"17":-0.30751869082450867,"18":-1.6198034286499023,"19":0.7448111176490784,"20":3.8102965354919434,"21":-6.32737398147583,"22":-3.64170241355896,"23":0.32964983582496643,"24":-0.8978281617164612,"25":1.704094648361206,"26":0.41077083349227905,"27":-0.11103886365890503,"28":-0.33420395851135254,"29":0.01900949515402317,"30":-0.6883649230003357,"31":-0.4242693781852722,"32":-0.6718900799751282,"33":-3.875037908554077,"34":0.050074879080057144,"35":2.1262259483337402,"36":2.0936827659606934,"37":-1.5265692472457886,"38":-0.03934092819690704,"39":2.64448618888855,"40":1.8258132934570312,"41":1.8156882524490356,"42":2.4578540325164795,"43":2.339695453643799,"44":-2.2792086601257324,"45":1.9157111644744873,"46":1.3158713579177856,"47":1.196341872215271,"48":0.7399216294288635,"49":-4.439703941345215,"50":-0.3099210262298584,"51":1.5818473100662231,"52":-0.8852521181106567,"53":-0.3742438852787018,"54":1.5639289617538452,"55":1.5614842176437378,"56":5.206846714019775,"57":3.5611355304718018,"58":-0.7819322347640991,"59":-1.2663723230361938,"60":0.22757938504219055,"61":-0.6034112572669983,"62":-1.323879599571228,"63":1.7999567985534668,"64":-6.302362442016602,"65":1.7327321767807007,"66":-0.5813449025154114,"67":0.3006814122200012,"68":0.9539105892181396,"69":1.0236406326293945,"70":1.9538626670837402,"71":4.403987407684326,"72":1.0253379344940186,"73":2.177497625350952,"74":-3.5587880611419678,"75":0.07313011586666107,"76":2.25823974609375,"77":3.005075693130493,"78":2.2785842418670654,"79":-1.5267884731292725,"80":-4.938264846801758,"81":-3.556701898574829,"82":0.8503751158714294,"83":-4.55949068069458,"84":-1.5160584449768066,"85":2.4455418586730957,"86":3.1112771034240723,"87":-0.9499905705451965,"88":0.05562008544802666,"89":2.0626540184020996,"90":-3.1965630054473877,"91":-0.31393396854400635,"92":2.1236634254455566,"93":-2.100050210952759,"94":2.4339630603790283,"95":-0.8515669107437134,"96":1.375809669494629,"97":-0.33063408732414246,"98":3.1407737731933594,"99":-0.35928764939308167,"100":-0.8321053385734558,"101":-0.03545122221112251,"102":1.6283166408538818,"103":0.2690895199775696,"104":1.9122389554977417,"105":5.606839656829834,"106":-2.0129554271698,"107":-0.20901624858379364,"108":4.130802154541016,"109":0.7796105146408081,"110":-2.726553201675415,"111":-1.1077066659927368,"112":-1.2100765705108643,"113":0.20568087697029114,"114":-1.14850652217865,"115":0.6450850367546082,"116":1.5841597318649292,"117":0.6716362237930298,"118":-0.8480114340782166,"119":4.44573974609375,"120":2.6723074913024902,"121":6.497373580932617,"122":-2.330996513366699,"123":-0.6788799166679382,"124":2.8939287662506104,"125":-1.5962026119232178,"126":0.46864649653434753,"127":0.8094388842582703,"128":-2.3456976413726807,"129":-0.17503181099891663,"130":3.6742899417877197,"131":0.054221611469984055,"132":-0.6773874759674072,"133":0.11851397901773453,"134":0.8331782221794128,"135":4.38181209564209,"136":1.6770145893096924,"137":-3.5058200359344482,"138":1.0734678506851196,"139":-1.6200814247131348,"140":0.4323571026325226,"141":-1.7634671926498413,"142":0.5428033471107483,"143":-0.5447968244552612,"144":0.6361345052719116,"145":-1.4108773469924927,"146":-1.6951159238815308,"147":-2.587468147277832,"148":-1.6464086771011353,"149":-3.270873785018921,"150":-0.013296294957399368,"151":-4.782058238983154,"152":0.8420020937919617,"153":-5.6494855880737305,"154":0.7019250392913818,"155":2.206108570098877,"156":0.8188560605049133,"157":-1.304714560508728,"158":-2.557072162628174,"159":-1.0871713161468506,"160":2.2536585330963135,"161":1.8869901895523071,"162":0.4370579421520233,"163":-5.468168258666992,"164":-2.797376871109009,"165":-0.20782238245010376,"166":-3.0611369609832764,"167":-2.9893381595611572,"168":-2.912182092666626,"169":-0.24806809425354004,"170":2.4703071117401123,"171":-0.2748751938343048,"172":-0.07973119616508484,"173":1.1788023710250854,"174":0.8164868354797363,"175":4.3010172843933105,"176":1.8051152229309082,"177":1.151715636253357,"178":2.32416033744812,"179":1.7643275260925293,"180":4.341787338256836,"181":-3.6538925170898438,"182":-0.35644564032554626,"183":3.673330783843994,"184":-1.508541464805603,"185":-0.28760018944740295,"186":-1.4516615867614746,"187":-0.7180944085121155,"188":1.8275949954986572,"189":-0.8220041990280151,"190":2.948537588119507,"191":4.073024749755859,"192":0.09537934511899948,"193":5.271204948425293,"194":-0.6310918927192688,"195":1.6160645484924316,"196":-3.051823377609253,"197":-1.9196332693099976,"198":1.4803686141967773,"199":0.14989101886749268,"200":-1.2391448020935059,"201":1.1119005680084229,"202":0.6544778347015381,"203":1.8737263679504395,"204":7.86885929107666,"205":3.659738302230835,"206":-1.3266876935958862,"207":0.5713330507278442,"208":1.3666080236434937,"209":-0.24545498192310333,"210":3.2148046493530273,"211":-1.6324255466461182,"212":1.3226836919784546,"213":3.261443853378296,"214":0.28950244188308716,"215":-3.625307321548462,"216":-1.9746900796890259,"217":3.5381245613098145,"218":2.3723673820495605,"219":3.908559560775757,"220":-3.1215476989746094,"221":1.6089885234832764,"222":1.3049659729003906,"223":-1.5090795755386353,"224":1.7223368883132935,"225":1.8225873708724976,